#[345, 250, 164]
-2.33585779732
0.443283664962
-0.782902760078
-0.157686687336
-0.551784732512
1.43507217536
-0.829554154144
0.25054834775
-0.281233745748
-0.375638850481
-0.3046313457
-0.382155453147
-0.725501025639
0.271213059723
0.512510596805
-0.793025488174
-0.00353840944507
0.466987405754
-0.672398646994
-0.172330346425
0.829356487154
0.140373509922
0.854349327156
0.403054069216
0.271507411606
-0.241447841802
-1.04180466665
-0.0212553034983
-0.390534217176
-0.435214571871
-0.837435957085
0.652867802413
0.608793938015
-0.12812254896
-0.289466440834
-0.94140448402
-0.431870187555
0.63697854808
-0.410814897725
-0.68060980375
0.595825499777
-0.926885362902
-0.870885847993
0.111743878299
-0.716394493149
0.914163498903
-0.338323339375
0.380035266857
0.872591858588
0.227161545898
-0.498471038737
-0.372686091649
1.47124702739
0.11583098285
-0.138605947991
0.671385319512
-0.461047893762
-0.72764448585
-0.404366671224
0.227555512426
0.104702665304
-0.429577799662
-0.613146322865
0.222475256925
-0.605068853326
0.265351505316
-0.0609624797431
1.00767048922
-0.197801873715
0.63759727329
-0.536542929029
0.410587801354
-0.125661272455
-0.843500333785
-0.877142133327
-0.209841089919
0.0525538573729
0.291170365666
-0.709375195576
-0.792546400478
-0.500831760868
-0.455844552449
-0.0824535608739
0.546698462733
0.452380692605
-0.803980636394
-0.181579418184
0.0796848589285
-0.716790031628
-0.31976500778
-0.46311740013
0.168580682943
0.625051676347
0.386197011154
-0.920873489531
-0.242345329158
0.511982462272
0.334462979985
-0.665428082407
0.569109964276
-0.886408307418
-0.406577022508
-0.777094023066
-0.545274265534
-0.738609268024
-0.805868115273
-0.64909614639
0.0787450881353
-0.170019047718
-0.466581172357
-0.676116527498
0.359185850656
-0.00630473401528
-0.704572125778
0.494616828644
-0.364191598367
-0.505227390117
0.139720257995
-0.73568047312
-0.345014163338
0.588027366904
0.603296975552
0.369460082435
-0.0689888335167
-0.647081612023
-0.123025911926
0.0525433229599
0.139101275846
0.20909264761
-0.209343399229
-0.0726224250368
-0.167477859099
0.425601769494
0.40663530278
-0.507080870418
0.627184465801
0.588375364008
-0.713548274186
0.436563353741
0.374953740251
-0.398891476895
-0.236913335642
-0.21216274617
0.823557625922
-0.127101393091
-0.12017099559
-0.718232358103
-0.759589802756
0.756709907884
-0.395822350193
0.697098844563
-0.00310823479568
0.66988800958
-0.412559594267
-0.330095815022
-0.713878487427
-0.286695247781
0.931060473095
0.238338950328
0.164745981159
0.00220807676607
0.49379829117
0.556282780084
0.854605806317
0.183031404501
0.634726366545
0.784134283699
0.168886383638
-0.233158286614
0.559241452869
-0.688746105226
-0.61911172711
-0.105715357266
-0.164873674273
-0.669103308078
0.790541908365
-0.62782046893
-0.579163685948
-0.421831089669
-0.136334560405
0.474869232647
-0.656698073716
-0.918506332535
0.71326076435
0.520195369095
0.0869495711961
-0.372685856254
-0.030942409007
0.770899891996
-0.0142954312639
0.191146480786
-0.477200807228
0.277987804751
-0.169849190958
0.0473609477335
0.354880525846
0.136494417821
0.704305779506
-0.608067215551
0.259374299737
0.328111892125
-0.220666659711
-0.00947331653177
-0.486420781278
0.0889227301
0.0316961860074
0.431274260879
0.386127599678
-0.0868227642785
-0.235234710648
0.422065539302
0.60691371297
-0.697666330773
-0.327072447215
-0.291311558533
0.467775666966
-0.686151390415
-0.0754633697923
-0.44027379903
0.596259340214
-0.307937246374
-0.782547644904
0.0866344345343
-0.259376217091
-0.305286950898
-0.684569333365
0.432165580943
0.136618418372
-0.0858486082628
0.818328121467
-0.224071772084
0.347426498566
-0.546871417387
-0.0714624280062
-0.967384825865
-0.623854653145
0.416297427541
-0.162728070921
-0.323501137079
-0.144389099672
0.620636885357
-0.125598187042
-0.478657948115
0.682397173453
-0.331572581673
-0.566258322027
0.476136231376
0.396709253887
-0.470425344082
-0.769383653901
-0.383353288948
-0.0841596340943
0.602023496693
0.325657804099
0.410583166601
-0.496455247787
-0.111107057278
0.80019775242
-0.408658854142
0.568258057042
0.370297530872
0.689542679971
0.455866316515
-0.624635205854
0.751461694295
-0.153342030861
-0.087351088843
-0.563609096267
-0.765793641392
-0.453707270797
-0.160914112371
-0.293888679034
-0.366482481023
-0.205749988453
0.526341795764
-0.591955999474
0.0893091523672
0.0209815422688
0.0236694302309
0.235125124656
-0.350934148337
-0.493975677466
-0.870948055594
-0.0208854001708
-0.740063701345
0.0676201994707
-0.0637494297078
0.154943874608
0.217680602445
0.36919645651
-0.321615335288
-0.740042326336
-0.128921381295
-0.530274022129
0.085982039571
-0.0687077581932
-0.0222179332194
-0.0126978186966
-0.283701056147
-0.95194703159
-0.0598733146617
0.500853486632
-0.265524108258
0.15066275742
0.0177345806261
-0.120153042515
0.0488457606922
0.732331960704
0.491566049323
-0.00274384795997
0.621762091178
-0.584107343743
0.0934209606872
-0.655949470759
-0.0180924232518
-0.551055224954
0.0585896207759
0.401771017761
0.187323036366
0.670992295709
0.121119210467
-0.560458568829
0.304691415499
0.135939808098
-0.0376709667292
0.275292006496
0.524715951655
-0.513198590448
0.44202538413
0.0339061527821
0.884995968304
-0.27728200577
0.0753178367112
0.403068496505
-0.709022082109
-0.175231776768
-0.463295304578
0.196260639375
0.618931759938
-0.430923824113
-0.61795181569
-0.0958737603507
-0.359126448868
0.547587745914
0.713778873414
-0.622461170467
-3.60888279946
0.113723792031
0.837810319013
-0.0550823479887
0.0134895560521
-1.19936623818
1.08765480838
-1.1034067468
-0.0371880235274
1.22922139067
0.0313043944981
-0.361701634203
1.26112409358
-0.892909349572
0.835957634494
0.259772667039
-0.851692623539
-0.93426871143
-0.492197548338
-1.12027652522
-1.31983777992
1.05562458799
-0.184296054031
0.227051997155
-0.415918730171
0.0580241417895
0.484782560998
1.57162393093
1.85341851083
0.0923413045052
1.26185700711
0.347052946228
-0.831228778587
0.0868268708139
-0.391895492458
-0.423462621593
-0.664307996289
1.64706341691
-0.872147113252
0.990000726671
-0.937110190863
-0.875859821251
-0.0883740202251
0.25471883639
-0.1633654408
-0.987184225761
-0.59770073605
1.17070493103
-0.986152994043
-1.28188972171
-0.20144332181
1.39941527201
0.723666508221
0.857649594735
1.00259283752
-1.36239505031
0.68339706489
-0.697998164945
-0.635185905908
0.898017616848
-0.242421923631
-0.973483430499
0.970406380969
-0.987868495633
0.485559708175
-0.470649988132
-1.09941267534
0.096919043782
-0.479178888018
-0.625105187238
-0.508579348827
0.212183376837
-1.051314165
0.957130829957
0.058998230809
-0.577543983606
0.526314958079
0.084936949005
-0.40196357267
-0.635221723863
0.476245974429
0.505009499647
0.426768116448
0.102673251373
-0.210422211489
-0.849246696081
-0.0592298488602
-0.95134331019
0.175777546803
-0.232412383484
-0.104040413614
0.355408012482
-0.425589785666
-0.452885616481
1.84043184577
-0.990122730303
0.480780425796
-1.3603726717
1.52449351452
-1.05751552023
-0.471315684085
0.154678530232
-0.473865731913
-0.333394772252
-0.60301734378
-0.0434763799216
0.00324459653417
0.271107556394
0.0744556605423
-0.525098343542
-0.756890316886
-0.424789286961
-0.575881263152
-0.775432680926
0.703231208217
-0.90077839925
1.22821568156
0.751723744651
0.708715617151
-0.312520298868
-0.116461786255
0.000917566869889
-1.2231193214
0.847171762286
1.06842113751
0.952302040416
-0.96951159311
0.312179203307
-0.251073203586
-0.635481895001
0.893969268734
0.508274675022
0.306707161049
0.472151041904
-0.887778668396
-0.347553576092
-0.384927587903
-0.594081267352
-1.3422214836
-1.27094919459
0.539710218004
-0.823344004931
-1.04110820171
-0.369355598586
0.532464661095
0.461554846665
0.901410883597
0.819379390036
-0.352219176978
0.598034315892
-0.398541370959
-0.903654097857
0.0514969710013
0.72750098567
0.397871570683
-0.841814433622
-0.173464828563
-1.38879922614
-0.156311516754
-1.06776422936
1.02712616984
0.0538642076716
-1.18788798147
-0.276444990726
-0.685481763072
-0.0315774229893
-0.0689385843026
0.626254905117
0.335289382285
-0.986309750091
0.854952528595
0.92530515626
0.833309898624
0.157800716566
-0.467525306545
-0.78310273459
-0.642923935518
-0.352030586685
0.460295337262
0.514066153733
-0.465644740629
0.273167615792
0.270920670668
-0.951620551475
-1.50074979037
-0.703484385822
-0.394150743359
-0.239722847331
-0.59243611521
-0.573065029575
-0.764724978376
-0.253763287876
-0.306773589167
-0.36124916676
0.415375586636
-0.546357051733
-0.00135530843277
-0.411985404596
0.958407887225
0.1781695124
0.202321006535
-1.12428202371
-0.458293256176
-0.851107685675
-0.324107145332
-0.11970177829
-0.0446044513567
0.23345153821
1.09646408734
-0.64194640287
-0.0427418116151
0.599797803208
-0.248541415656
-0.614697281512
-0.0777716126493
-1.275355031
-0.0283500065716
-0.911680234431
1.27240431664
-1.04250316306
-0.00467450543325
-0.446001761002
-1.09505900508
-0.783876538818
1.23284266483
0.951213421352
0.229851878666
0.509218970539
0.0924323414689
-0.690654583352
-0.124454470765
0.633013465775
0.781668460187
-0.916478180741
0.103720290538
0.0250610163259
0.57158264078
0.168879365461
-0.473129211133
-0.224345937324
0.0566305282428
-0.21188967257
-0.668994286623
0.663701897443
-0.894076339961
-0.184637353637
-0.704503477943
-1.05504294013
0.569663159304
0.437535795049
-0.320178891348
-0.772947621794
-0.147325945696
-0.623807310434
0.159969576295
-0.320026259263
0.361445766419
-0.368387294095
0.65228760274
-0.35667255734
-1.01045143396
-0.00197835523084
0.300884771522
-0.465956825146
-0.818722610139
-0.219571792335
-0.253478355671
0.131462105592
-0.194850438404
0.369775278109
-0.977065276595
0.0700594152762
0.124121467514
0.319810242703
0.0477599346127
0.261471336423
-1.15179310366
0.0517303358954
0.244894048187
-0.963834131081
0.448698458702
-0.21077962642
0.797407106084
0.426356085286
-0.0455450860594
-1.13896814286
0.413915980245
-0.954545055445
-0.049957832841
0.78572460569
-0.0822423287223
-0.390018826091
-0.10927400713
0.0583436789236
-1.09052588033
0.0913494840567
-1.13991292768
-0.394255007186
-0.319584703942
-1.03921859978
-0.807062851197
0.142850376095
0.367631107839
-0.0326492497842
0.225499189624
0.0395480812012
0.348127652399
-1.28868988838
-0.726481303587
-0.722038691607
-0.718182098252
1.37188174054
-0.568659462145
-0.8551569262
0.613390548073
0.57197929265
0.713196253363
0.47347329154
-0.0743996833247
-0.966637988665
-0.0409692517099
-0.883587218653
-0.836381864195
-0.688604505314
-0.86806837838
-0.146729313814
0.229179819123
0.927805093379
-0.250570039392
-0.169568112912
-1.35950153496
-0.232301573995
-0.963027656532
0.179939054647
0.50130387699
1.10755372128
0.0303763790466
-0.204070711976
-1.02042389633
-0.348138109581
0.176507597124
-0.419837160118
0.62150355573
0.395353113892
-0.588971188977
-0.0451931140329
-1.39022250849
0.497973144583
0.00214962036046
2.03629812505
0.651430821844
0.656374793636
0.100482807959
1.77188415819
0.41032556193
-0.327241180006
-0.890762678598
0.0591073063822
-0.798893814143
-0.158279292102
-1.03150525689
0.961040039022
1.12082024447
-0.63526303423
-0.44552206529
-0.534108551902
0.786266433792
-0.370950071143
1.67955474234
-0.977111170683
-0.774031737034
1.39994956411
-1.17493230712
-0.446376520885
0.243475507544
0.410188223009
-0.899771599293
-1.3646677826
0.0274293273242
-0.276755822167
-0.590170358922
-0.0146392572283
0.242970085592
-0.869076693113
0.258247284936
-0.663583722192
-0.189539909901
-0.0720628196513
0.244696422568
0.810129307431
-0.469400445148
0.630922880246
0.919486724902
0.050972448981
0.285363180225
-0.16814905333
0.266814360237
1.55849423062
-0.841273183114
0.16134789203
-0.886371471176
-1.02039386163
1.55498505991
-0.201419149401
1.27176705242
0.916282971817
-1.16181419003
0.623830383531
-1.25663012398
1.02597875101
0.826986803432
-0.03083167257
-0.293078339515
0.962221405285
0.124565388845
-0.892273036376
1.28227758195
-0.185832049871
-0.931174523109
0.2337363059
0.484417947922
-1.50755638553
-1.06205601775
-0.222157951233
1.78549767547
-0.872313085375
1.92039826854
-0.703048272333
0.0850969465215
1.16703640008
1.36345791684
-0.369715954841
-1.20960908406
-0.24807690219
1.39459059249
-0.861982956047
1.18915807673
-0.955948160269
0.913170895899
-0.467944777728
1.31442200655
0.402309179454
0.123072235336
2.19311499206
0.420814416194
-0.745036846746
-0.86154783288
0.511715957275
0.246951570424
-0.360438508888
0.382444347056
0.724278517865
1.26473713894
-0.888677013066
-0.864099919374
0.834462180126
-0.848133224316
0.539719980101
2.19380629707
1.58186640273
0.56717438681
1.42433855701
-0.52027934133
0.622463108456
-0.0196396603594
-0.425090526529
-0.278153725742
0.0032267536486
-0.32999716611
-0.366681387158
0.793333837576
0.557259715725
0.027855024872
-0.638549722089
-0.389180233767
1.00673651734
1.13919559435
0.268815908618
0.165185467982
-0.00775604985035
0.692145791645
-0.926883234852
-0.693996493584
-0.41088869331
0.328374935628
0.562569714865
-0.922077448002
0.395023409622
-0.0290710018169
0.839601971629
0.0852659956534
0.47802256381
-0.705698749639
0.350175921791
-0.844630902275
-0.267268240328
-0.295165826951
0.52743985166
-1.12065126078
0.472337552003
0.277176026126
-0.608019261139
-0.865094208013
0.141704052632
-0.610373779329
-0.507500523818
-0.350433818682
-0.0856096658302
-0.746871329959
-0.749386816398
-1.34756915846
-0.95994350964
0.630926646742
-0.611360958887
-0.834440215568
0.580814010601
-0.883325001432
-0.565947461215
0.230224497542
-0.197158492597
0.693002060489
0.0526477642714
1.01283114249
0.227200898987
-0.652054298753
0.111058126512
-0.0343181766785
0.481416560456
0.458856893658
-0.250115965633
-0.171281731627
0.043889249748
-0.629837013839
-0.425993917336
-0.412207736591
0.12847900256
0.0237423648165
-0.0140346380562
-0.806575462093
0.114368511856
-0.742500470778
-0.607738154114
-0.162162559207
-0.25345461841
0.277370404723
-0.768249123727
0.36054113864
-0.150810531409
-0.772640202557
0.424422069889
0.529825246267
0.276330439256
-0.386702548804
-0.293460584034
0.19200024307
-0.724193297405
0.312685937018
-1.09613440092
-0.017373994541
-0.399971828194
-0.0552560707266
-0.43597828817
-0.0926379872402
1.14261790135
0.341263949928
-0.103450134129
0.133728742062
-0.051499827944
0.408354768204
-0.746487870125
0.430463729529
0.580192765447
-0.709181191264
-0.84838272022
-0.330740762609
0.698585493281
-0.302249518655
0.309150927617
0.00759983529257
0.60913535274
0.964051775109
0.946787422119
0.461308002083
0.351711676159
-0.287384943513
-0.378599499846
0.560388266312
-0.651321546699
0.231886657014
-0.498379044371
-0.592808432487
1.03061757627
-0.750219125087
-0.154954180749
-0.235547823032
-0.18074427195
0.61902665213
-0.718051203727
0.0913220198843
-0.192475929809
-1.37906453811
-0.315651255262
0.123336399502
0.148504496697
-0.147144244476
-0.209456663889
-0.169993579178
-0.582910908338
0.196573954626
-0.965734437966
-0.587578164913
0.545636037302
0.566302402264
0.796381677205
0.360021847744
0.432293378653
0.28815631248
-0.0911290970171
0.194389425198
-0.797914975752
-1.30430844226
0.463280007959
0.634058851117
0.0172913637712
0.473837647578
0.0892633262869
0.439353176935
0.690235903961
0.841801974124
0.693097232228
0.17539632836
1.18501589722
-0.0260746772935
0.230985451069
-0.348664464171
0.921926672114
0.249586999966
1.29468280175
-0.328431253525
-0.291009546476
0.552718074775
-0.224393007725
-1.0302567604
0.00834476180915
0.257671892324
0.392378320357
0.0191918994889
-0.21752850904
-0.245399807734
0.525384197772
-0.924592129247
0.0194658080764
-0.515445991656
-0.672089115657
0.0794499210837
-0.0912778629228
0.365309589601
-0.348416972539
0.180701641624
0.912306819877
0.648550336046
0.0540322444859
-1.14263784938
-0.919599263087
-0.0216898690309
-0.379942262563
0.488015033818
-1.02054677304
0.390694822689
-0.565500213674
-0.202904196833
0.200243323097
-0.598801302886
-0.152645767794
0.141548340009
-0.824253805368
0.665143860042
0.383035159743
-0.732583958901
-0.054897342228
-0.642469850728
-0.851882616745
0.240164228656
-0.571133948944
-0.795631547117
0.175462215961
0.594549549199
-0.722067824377
0.407446020514
-0.0204388515491
-0.110176521196
-0.712300504355
-2.25732746564
-0.470151042752
-0.177236545972
-0.721040762389
0.603767220151
1.27389385049
-0.367646730407
0.172401597715
-0.927509851791
-0.58053733467
-0.25326843423
-0.882736727284
0.296926081074
-0.811735680233
0.28751235063
1.12959194955
-1.01795181508
0.537649704534
-0.175256389777
-1.02189223581
-0.51990707473
0.297624345177
1.40422914996
-0.935507868414
-0.173697153252
0.306088994098
-0.248575674587
0.0108977799817
0.733713249681
-0.78845877177
-0.0204386191858
0.422372074167
0.785502281778
0.123075573974
0.176125184263
-0.230873321612
-1.22270510146
0.387114615748
1.0067293915
0.402773808702
0.597358181363
-0.610918210118
1.13135810277
-0.608445399214
-0.921135215824
0.174567838734
0.2948966379
0.282326793515
-0.647198527724
-0.692947209827
1.0027554591
-0.609058563244
-0.996113330731
0.616832447112
-1.54420958155
-0.637397721
-0.662443760499
-0.0188828879439
-0.265631819208
-0.629824272353
0.455983148634
-0.874680039533
-1.1663617949
0.988590619506
-1.01655346067
-0.79133158566
0.0833230605117
0.65403333289
1.21213846618
-1.45336888192
0.166490739862
-0.857133980145
0.373235878699
-1.11074982865
-0.324112059282
1.48911365235
-0.493032021406
-0.180757335668
0.176761654146
0.649593630698
-0.0118418311854
-0.615977515568
-0.82353991051
-0.304208395773
0.275712168083
-0.964277694426
0.399923913339
0.21714346428
0.446136440713
0.847128075512
2.66176884999
1.34754027186
-1.0080871306
0.774839274316
-0.0258022730106
0.124872393174
-0.311138252344
1.85223022419
1.17067620107
0.794555976531
0.148424895424
-0.770901439231
0.275743955668
1.24851261621
-0.824300251024
-0.384632356331
1.23981561729
0.0289988956599
-0.816257134436
-0.947797554761
0.473970453957
-0.295417853911
0.133339186941
-0.195015095546
0.528542232021
-0.242747946855
0.955515673747
-0.212291801355
-0.43781531935
0.837331845346
0.464038475013
-0.789097662555
0.732053424251
0.460250428642
-0.0143124656109
-1.01131841042
-0.274870367353
-0.962640519503
-0.658780336335
0.593984442137
-0.0473094493381
-0.302716109533
-1.16581928987
0.257482003395
-0.358641460067
-0.985180967317
0.525225208648
0.886506065568
0.0363421574239
-0.393264187611
-0.0557938248218
-0.261589647972
-0.905954147195
-0.346709916594
-0.335009718922
-0.191893594448
-0.29951468612
0.547646528521
-0.694629400821
-0.506247942193
-0.745992372233
-0.445927965119
0.030965482013
-0.231118459255
0.519668067623
0.215532089521
0.779989569875
0.908148849855
-0.888346802528
-0.475015448149
0.245232085114
-0.183560161502
1.01833263378
-1.47978471035
-0.708930804351
0.652991034963
0.276780977189
1.08211926398
-0.141281090413
-0.0774881072787
0.218209540969
-0.628264216096
-0.810976307048
-0.551296819915
-0.15461352932
-0.185949523441
0.294210039884
0.610216985946
0.161428659044
-0.668748991027
-0.00244287282545
0.05930846222
-0.0266280617432
0.185069827871
-0.119250449478
-1.13356575491
0.764657462082
-0.792848560332
0.255526678675
-0.197594872631
0.199364745498
-0.0480425829232
-0.622119792143
0.351865065875
0.612498644788
0.177893637156
-0.0251620939585
-1.28807890501
0.672199967061
-0.593657585261
0.763538973591
0.728852080391
0.616275381377
1.13683024234
0.533538971258
0.00395077354974
0.746698390921
-0.808791489462
-0.89354493424
0.422615741125
-0.706541685959
-0.0294081460653
-0.985610311322
-0.452504739454
-0.450586974212
0.194400538757
-0.0861559074684
-1.11794434232
-0.778745974751
-0.318743340888
-0.894076167657
0.298768533687
0.324412206815
0.705115918926
-0.334349133923
0.222890935286
-0.125713363648
0.0392815714493
0.167987400165
-0.518862885744
-1.15923099497
0.480467979178
0.582158615075
0.652387920938
0.819614314292
0.774313571432
0.464892007267
-0.540910445207
0.137551521996
0.129265023667
-1.19517725957
-0.306467860656
0.28766706205
-1.47963232589
-0.46007801114
-0.88883214762
0.724649888981
-0.188551028108
-0.242178420024
-0.784606639165
0.173373885093
-0.780645936131
0.309501513851
-1.00407694008
-0.721030832682
0.243146079491
-0.783460669062
0.592543388965
0.442025608815
-1.12855139231
-0.26173984976
-0.738560386408
-0.415845121131
0.101124369534
0.0402245554582
-0.762296470732
-0.649231066821
-0.203275328477
0.416599508101
-0.0688510950336
-0.874755238821
-0.509839729054
1.06712968742
-0.550855184635
-0.440688407386
-0.277809780102
0.534121610203
-0.727409658512
-1.03347421325
-0.176340196814
0.0185671074527
0.376575512694
0.723482878885
0.180809181783
-0.124404152104
1.07767445188
0.665615841849
0.418012606384
-0.322535017928
-0.957647931097
0.793575014499
0.307206757827
0.476031638588
0.34233902779
0.330883958423
0.312317119776
-0.236697973559
0.325257038847
0.385510176649
-0.344781935589
0.811830978236
-0.131182743598
-0.68515406912
-0.452022651543
-0.68508240702
-0.369314323498
-0.103193475028
0.811473566701
-0.632200743414
-0.0761153069304
0.383358315858
0.515027801788
-0.133138133371
-0.481798734233
0.327489246775
0.058939853522
-0.498387947334
0.105716050186
0.177600307926
-0.474233713033
0.224524717995
0.217846677366
0.661090988969
-0.688293002304
0.156751390539
-0.864530390977
-0.4011830924
-0.0659155394263
-0.332133480625
-0.848393494467
0.872350190067
0.285417928524
-0.210491698668
0.0444929635769
-0.099948718111
-0.111448181716
-1.01742182248
-0.856593520678
-0.652782658487
0.0360154451244
-0.210830905306
0.12832565602
0.235733075727
-0.625316053023
-0.786920851226
-0.209065120632
-0.527124356826
-0.724470279122
-1.12732144741
0.0316416032071
-0.713571725259
-0.913117554954
-0.473412193874
1.94679643426
0.075068261339
-0.903220495551
-0.786604764259
-1.035381481
-0.660054898666
-0.461922230089
-1.97129208226
-0.491288499599
-0.664176779687
-1.20186013415
-0.493594137703
1.62959449733
0.579429862711
-1.03268124989
1.06712137958
-0.518935808923
-0.304445120109
1.07664749138
-0.855594078284
0.237699217237
-0.875584139141
2.14033650117
-0.410349141984
1.76070389807
-0.664179235792
0.316668458097
0.161883566785
0.261711307212
-0.120562474564
-0.593858380312
1.31758141433
0.10144755961
1.32872689077
-0.709007965443
0.937506161641
-0.0273527903594
0.139254484184
1.64675597283
1.33909068297
-1.04686369404
-0.785486288782
-0.126200494775
-0.77515801192
-0.111855664861
0.399131804498
-0.980745471499
-0.862591940352
-0.755452178015
-0.912234276695
-1.29236309466
-0.222457180814
-1.04225051559
0.789581816414
-1.0690160894
1.99699801294
-0.124467166559
1.83249298092
-1.23008559333
-0.628162063113
1.34731579063
-1.42133424826
-1.5462222647
-1.05118158835
0.153940369987
0.116047714323
-0.00121316331393
0.737018395078
3.14589678399
0.111157061226
-0.381560218253
0.341722868248
0.893355032718
0.20707096718
-1.87796039358
1.2158093302
-0.08138809299
0.203875927654
0.298638494721
-1.16962305545
-0.256565102054
-1.33684815531
0.544764339118
0.543270653446
-1.11106445513
0.98175729391
-1.47627237531
-0.684023199174
0.14606633758
0.713286012606
0.271537267351
-0.575765786723
-0.707259083693
-0.669591913259
0.631078695913
-0.823587589032
1.73475158118
-1.58347027829
-0.824422753669
0.156861422415
-0.853582855844
-0.968516691028
0.9424944602
1.23450478987
-1.19233601577
0.852538964048
0.438883174927
0.144167038126
0.953608929988
-0.163092742922
0.00845907473306
0.111090256779
0.404722632743
-0.0291450792236
0.321699184006
-0.0875150799133
0.376367766947
0.0917779080673
-0.584670393884
-0.421130763465
-0.143644301931
-1.08580400593
-0.235975349951
0.0119981106149
0.447737703147
-0.49418173841
0.300011300174
0.0251128259784
-0.975085890383
0.432464140443
-0.347183442394
0.420753781086
0.0570887437958
-0.513206698799
-0.00735550016626
0.572554728652
0.130733734151
-0.775610100002
0.509716728995
0.0280370323911
0.406879730633
-0.200194191341
0.59861989184
-0.566888469656
-0.0813588824801
0.239763802338
0.446013584839
-0.460110348658
-0.65766601085
0.496220471339
-1.09537005361
0.578653535382
0.678046098276
0.612643937821
0.615641545222
-0.267778983841
0.255402255963
0.245234605164
-0.887611064543
-0.429494970347
0.418980796461
0.86134768185
-0.836906956191
-0.137650914027
0.177453305129
-0.289738883276
0.480983686386
0.764293378383
0.497174468202
-0.437034257438
-0.672673274257
0.586448875718
-0.301481409882
0.714360575314
0.443678431078
-0.50455488394
0.289279824216
0.207106328262
-0.0604363763135
0.249370902244
-0.215930078273
-0.0227529383682
-0.0490176098049
-0.628513902569
0.0564357065924
0.379354137745
-0.132472681667
0.771392172954
-0.568749300428
0.642359940263
-0.453995752373
-0.0591664751462
-0.187546124921
-0.130788085345
-0.143010350653
-0.815969626928
0.65452174331
0.0806902430255
0.203482187072
0.828213865148
0.0255737177705
0.661037320514
0.551761367285
-0.654727452349
-0.399075768981
0.247756206966
-0.0884967558073
-0.581601404937
-0.350154850925
-0.385575453849
0.1876923693
-0.426002127418
-1.26208889814
0.101424255862
-0.326028554286
0.0819659434421
-0.927943622648
-0.694996010862
0.290417161218
-0.611955207622
-0.358857909688
0.0219584371332
-1.10816481081
0.592759237936
-0.494445014955
0.693995528366
0.261499685194
-0.232999694259
0.547072482992
0.0257856116832
-0.363351681797
0.247314881656
-0.901630037668
-0.586662974925
0.289991977435
0.212318372011
-0.982937942813
0.546770375731
0.524862523961
-0.6493169035
0.207854298168
0.866072581926
0.0293065758674
0.548174570741
-0.52804971157
-0.6128222235
-0.558777598555
0.0147603632366
0.779055065063
0.62722512879
0.712775697808
-0.515715346844
-0.111012349276
-0.19551125197
-0.545708478605
0.867433897242
-0.211935203057
0.138730254609
-0.409418083992
0.358317718258
-0.579783471367
-1.05036698767
-0.402725483265
-0.332845249047
-0.183727608078
-0.413136822069
-0.819570183235
-0.432185002545
0.13790915889
0.0823607717898
0.194929074584
-0.619738690948
0.0998341542006
-0.61341943726
0.364074688131
-0.252740323734
-0.608661447852
0.221574035341
0.261117901137
0.00409662918501
-0.469217556325
-0.129350275514
0.518666955948
-0.314924340344
0.321205372815
0.318167852146
0.0154971717587
-0.0489147002722
-0.129473374285
-0.209484705816
0.307574133823
-0.52513529485
-0.193535567431
0.114864193019
-0.72480700064
-0.382219298254
0.0340072390704
0.330352496228
-0.00800788211327
0.121396878715
0.05361151876
0.533058602178
0.0519984280946
-0.0513671575866
-0.166065808433
-0.016167137273
1.15245158591
0.219291580642
0.544224184645
0.203572708191
-0.266665556202
-0.976149012069
-0.237899567437
-0.185869762786
-0.232679579105
-0.302618511872
0.191152083947
-1.11205460609
-0.02294400621
0.0527890714486
0.0389697073705
0.195242949502
0.550589948751
-1.01229122177
-0.248689900621
-0.499884303118
0.385944794982
-0.0687674497596
-0.00658610525503
0.948448895015
-0.442915312209
-0.0254497975134
0.783510021152
-0.250679919597
-0.0570679476374
0.161443731271
0.728569556835
-0.911821689222
0.114213383288
-2.92439755702
0.521399146267
1.15396557896
-1.12883452478
-0.660719840495
0.199294835063
0.453894155396
-0.125940023267
-0.809838316497
-0.0251253844259
-0.0432566944143
0.840668405539
-0.763793105528
0.0741618824051
1.00177180188
0.822616383359
-0.639314815318
0.273022564635
0.98885871746
0.242595342971
0.667103747154
-0.720245751205
0.603784880319
-0.0502088574085
-0.599769254795
0.360641952779
-0.582598541034
-0.164356612982
-0.071373486673
0.659269735019
0.694345850193
-1.37050869829
-0.922857421682
-1.02097620239
0.0330921895401
1.985814422
-0.142560941337
0.941662266086
-0.00651938575807
-1.0301440712
-0.155401932035
0.754647865598
-0.816523778858
-0.00141225010383
-0.495584329213
-0.675053278421
-0.356183212864
-0.200375985383
-0.776898110905
0.931638195177
0.363682997407
0.861166252559
0.604344968066
-0.767616311174
0.542066334323
0.467050006221
0.802633303801
-0.344814281895
-1.34232816025
0.00211234677634
0.933878850453
-0.0176712050048
1.56386374371
-0.770454203975
-0.373308005574
0.754844856815
-0.967632638688
0.410178383618
-0.355233251894
-1.0293565963
-0.188730526891
0.492630894787
-1.28526064448
0.527131200402
0.375617917805
1.03571612835
0.162992540224
-0.293457986117
0.272655705401
-0.525140587109
0.522649156928
-0.556298672297
0.337650043533
-1.21791794501
0.35911193627
0.97560607929
0.521611826175
-1.03460005422
-0.0225427021016
-0.791237723504
-0.402481990309
0.478066394801
-1.38119512179
-0.340319755015
1.23442932028
-0.272444647715
0.92320979977
-0.53583788631
0.606854666393
-0.70947674405
0.0516077593945
-0.0843404173141
0.294587427903
1.00826561358
-0.853370752148
2.14357399846
0.167393346372
0.0139916612846
1.35123813902
0.453550848393
-0.779654881717
0.532358612994
-0.57930664272
0.297034157606
0.172882770729
-0.387431436585
0.208695661102
0.0786561805157
0.428674396261
-0.922130778786
-0.835960498608
-1.32823713433
-1.56486763965
0.227247480606
-0.06299541876
-0.396042634122
-0.554326860775
-0.0759174243723
0.462360564548
-0.247470684438
-0.710133999106
-1.43125613132
-0.688932632637
-0.0796183831432
-0.632724869948
-0.855438390928
-0.891078922086
0.662566508257
-0.648394078367
-0.623462563618
-0.761438119946
-0.440867329729
0.576271810638
-0.789555661591
-0.490140911497
-0.859366857893
-0.228415090182
-0.915380859918
0.66345604473
-0.932069256204
-0.643066480802
-0.939623704683
0.159807797911
-0.28574520588
0.622151398873
0.376817924853
-0.761427842369
0.247218970663
-0.860295743762
-1.00469180296
-0.278434683071
-0.765273042095
-0.00725973129492
0.00623843077176
-0.985535306671
0.885077517343
-1.63480550708
0.685487781416
1.12142631424
-0.225806768619
0.399610877659
-0.239066271614
0.492154292121
-0.92081426256
0.310359878739
0.896925964002
-0.653885045657
-0.112346331278
0.394670923838
0.0535914835249
-0.532597111378
-0.473730913835
0.695694473227
0.177259712656
0.624967402195
-0.298523701494
-0.589028298851
0.625993627569
-1.14326679501
0.425285406661
0.157885665014
-1.23777150658
0.298023811645
-0.710266041739
-0.439905329506
-0.449155880877
0.0913268112238
-0.0537261097516
-0.444249283472
-0.177496779152
-0.431447823153
-1.04932834387
-0.314975100209
-0.428568560766
0.864147044031
0.899206298479
-0.118650317477
0.756854817732
0.793353484541
0.606372617256
-0.0980461482791
-0.811589517064
0.136435755566
-0.367146432262
-0.223798369765
-1.19631974563
0.590759711492
0.581975907903
-0.95471809106
0.303648965936
-0.203836425568
0.892370205596
-0.248728560072
1.00050412763
0.245749478936
0.48269635008
0.205296444596
0.534996548895
-0.943420752321
-1.39117083224
0.585026499032
0.759475680582
1.00188280258
-0.845437699344
-0.0637900132951
-0.250516769042
-1.00884724332
-0.185018160325
-0.672581942294
-1.0413676331
0.126786651868
0.0520453344749
-0.603135480013
-0.231337208701
-0.968213126702
0.872089205166
-1.01540494857
-0.524877646646
-0.112162684644
-0.928604252599
-0.373357622133
0.7427460748
-0.130910444559
0.690558025054
-0.861881048496
0.179575581785
-0.0207520036731
-1.08842107437
-0.919374304151
-0.477343594332
0.179461466752
0.842018882199
-0.584747198144
0.287168367633
0.199056642464
-0.344386711555
-0.122147427175
-0.918854236012
0.3133583777
0.26250294611
0.346656951607
-0.462367662301
0.0296047349856
0.660222329593
0.439780308072
0.974051599431
0.793385390505
-0.155760820352
-0.633396413274
-0.453554039545
0.574722464351
0.313595299339
0.131775724708
-0.0395304440393
-0.452419667426
0.791984539526
-0.708201590999
-1.05870512489
-0.630625253136
0.377031414861
0.132933443493
-0.812894008972
-0.452650610036
-0.531168939832
0.435237167815
-0.187165329321
0.738857655659
-0.170378251161
0.0695295568198
-0.441694719596
-0.745661252768
-1.53905274027
-0.613790751146
0.218637337362
-0.777121124331
0.754492957336
0.642162792665
-0.393124677306
0.822792673445
0.0751733539283
-0.770137669844
-0.682977769212
0.8270866045
0.553288760996
-0.0319192994827
0.630300567913
-0.47729358341
-1.32765330404
0.92269971388
0.407041815125
-0.0561364911414
0.647784972798
0.0689829432342
0.983501377474
0.438075542651
0.165421335928
1.07622967875
0.213034147391
-0.544978145177
-0.431729851961
-0.258428002428
0.43821636267
0.255607116483
-0.700564069215
-0.857598238719
-0.28701910837
-0.613241831776
-1.25106000421
-1.15402704697
-0.726009734272
0.28783592566
-0.702589544301
0.00914278007795
0.244320746848
-0.114668101717
-0.574165950062
-2.47063797517
0.696694717521
0.756382304452
0.912352187497
-0.71665616952
-1.19720025598
0.318180568696
0.83867935957
-0.648207565367
0.937804474972
-0.476004550488
-0.247107947105
0.00461317051844
-0.975980823984
0.222873494479
0.247093969013
-0.0547659829011
-0.649016636449
1.0151918355
-0.452967726031
0.632141585433
0.529331444289
0.697594724593
-0.00745108297403
-1.07874231109
1.02584775538
0.283385796641
-0.905931522913
-0.94887384085
-0.911247579367
0.946564763395
-0.340807485069
-1.48993250965
-0.077579366495
-0.238518376834
-0.82534348512
0.509936459415
-0.615558380835
-0.557869321604
1.34170122816
-0.831378933224
0.834555937095
0.00315777788774
0.334300599149
0.475095306942
-0.74959206357
-0.733992935325
-0.734336241855
-0.168877441586
-1.20652309791
0.307269532765
0.26559056979
-0.408169775269
0.353203896188
1.62777100827
0.775473711
-0.998902386081
-0.902293412323
-0.384184655951
0.760433568092
-0.926858545837
-0.868704198018
0.0734159837604
0.524928616454
-0.875544940235
-0.948188190647
-0.729074365401
-0.322949505142
-0.611165663788
-0.664404043046
2.09687119182
0.358330563509
0.303680486704
0.853060130644
-0.632058800119
-0.551466966638
0.0873421618498
0.338760569642
-0.327207635816
0.452936294822
-0.747179376952
0.0588201892862
-1.23516953162
-1.20550621183
-0.600475835914
0.7771714765
-0.56758646603
-0.506268232063
0.995027735624
0.373598392453
0.726812677593
-0.838207182462
-0.0335875287735
1.30667509462
1.88699567942
-0.0525976182892
-1.08031132657
1.32811447096
0.756944387824
-1.00493409107
1.24389807391
1.03517235841
-0.0798458256047
1.18959005777
0.380275723964
0.851654601611
-0.592953382379
0.14671667747
-0.970582530998
0.484244472518
-0.02742248075
-0.18200012499
-0.666803537198
-0.131743285047
0.416406121735
1.64663232946
-0.853717009067
0.535803196466
-0.285091526135
-0.367156712804
-1.33356855938
0.582281921841
-0.0893111787373
-0.399532785537
0.23274005434
0.343404957934
0.24777143123
-0.0918493755053
-0.869707771832
-0.973821081729
-0.973711806629
-0.155024770212
-0.734468643735
-0.554917039526
-0.313850593657
-0.303049924252
-1.08783915865
-0.0765226120667
0.688874182984
0.410139770643
-0.957921932869
0.438132917255
0.0387433970345
-1.27038433889
-0.239900803349
-1.13481142561
0.448234832115
0.421663021541
-0.353036633324
0.0836810219685
-0.711794425836
-0.00281993601469
-0.61304913729
-0.188468233098
-0.343523283291
-0.290610628922
-0.311910892187
-1.27939757434
-0.396533199759
-0.614323703344
-0.169386024296
-0.270328144788
0.150233183418
-0.0578697192513
-0.122101206363
-0.996708147136
0.128203852925
-0.0396491709225
1.287326063
-1.34055159309
-0.126677097564
0.308287307919
-1.27459685303
-1.23379738055
0.766738098153
0.568545921273
-0.586306895535
0.418696286916
0.0816373654336
0.00592302887982
-0.992317971413
-0.705205183493
-0.58647089448
-0.439957636308
-0.598324565463
0.185111710845
-1.18462808704
0.624200436145
0.0686100324114
0.636369667499
0.1881570018
-0.222911557299
-0.432500362586
-0.410206326894
-0.639138749133
0.305320504674
-1.20309173865
-0.869939708532
0.526385367461
0.446821257688
-0.683931423087
-0.20054917258
-0.473888188755
-0.933427819811
-0.886459027218
-0.284687727782
-0.586749840571
0.874109857968
0.191314054076
0.0457206392163
-0.777453821224
0.424596445436
-0.393991116149
-0.351609604643
-0.839823758825
0.494364216973
0.504660618788
0.860491784925
-0.110342196558
0.982685975153
0.889519865546
-0.0413713431238
0.135573066254
-0.180593965967
-0.198976825442
-0.348823132046
0.310293751042
0.0645979136998
0.0615580003197
-0.0318927880582
0.385722689328
-0.197785531792
0.985582327489
1.00481905841
0.15380559274
0.820612687887
0.167384307467
-0.92143989353
-0.462167866185
0.355871162052
-0.473275064401
0.411886567146
0.21659016275
0.849188737674
-0.177903491655
0.259317670651
-0.986991818972
-0.685837165625
-0.286091430337
-0.0696375328629
-0.0181606723297
-0.766935979939
-1.20634113878
0.508445432197
-1.13397872586
0.426097542351
-0.548948259473
-0.00162244185279
0.519887032292
-1.5565643117
0.771356250518
-0.057619390857
0.500594864437
0.131046292786
-0.238697124802
0.224885026258
-0.242247840597
0.703670476619
0.882922872043
0.310622043786
0.0457709826775
0.417735446281
-0.337014522825
-0.247420046391
0.00518670032928
-0.845680263978
-0.484603914353
-0.311636922097
-0.50187924914
-0.601335290455
1.04357840384
-0.0982237466568
0.5196540644
0.210556241769
-0.0372463765255
-0.117986461648
0.468144348027
0.387009008225
0.182798627472
0.439904838029
-0.603551332535
0.194704970051
0.0939520915516
0.34604072424
-0.00601340713824
-0.293647225667
-0.747562886683
0.0135072037792
-0.679671050428
0.129520114126
-0.342487488081
0.0346982392049
-0.617266072976
-0.398595849149
-0.681365192221
-0.447209468615
0.298608697334
-0.601608646575
0.212173943029
0.346833230131
0.439982927955
0.510198991369
0.33388385925
-0.190945692324
-0.159975384142
0.47427836764
0.11526194003
0.97098238809
0.12474657164
0.717947076373
-1.03140278684
-0.740274455529
0.846135478536
-0.451443852304
0.678597429018
0.476607942058
0.890097509006
0.53735872425
-0.744542573218
-1.2527880733
0.31125780128
-0.204623593152
-0.132716704115
-0.830008149215
0.0471593376488
-0.947621606339
0.947595031851
-0.0392621687311
0.127304651045
-1.0370309907
-0.806855860971
0.493805690459
0.0818875221664
-0.545451199123
0.693648855046
0.0991722861906
-3.6326446309
-0.135893330513
-0.307981385245
-0.117897226405
0.194019249271
-1.57047366659
-0.101679957567
0.770188670652
0.0700749380384
0.955608041012
-0.969876192237
0.772029517086
-0.105444618947
0.478371463335
-0.288678409309
0.548455082307
-0.353322505382
-0.153996177712
-0.536435638642
-0.926388981285
-0.191044281133
-0.360789770063
-0.434735650172
-0.186113819199
0.111567281767
1.49476490991
0.220640272159
-0.542913608869
0.155485245445
-1.04428353853
0.360536553348
-1.11689203262
0.874747107239
-0.197166694475
-0.96991041013
-0.999520936569
1.48085597955
0.748983916686
1.36486536211
0.859341007022
-0.129867287494
-0.753559055441
0.642361395641
0.0764343675768
1.25647864428
-0.0245119393234
0.863022960624
-0.988838978246
0.50522878616
0.892654958842
-0.104625889642
0.276102427507
0.944560885018
0.599257533894
-0.320833774196
-0.817227282917
-0.0381997459805
0.656408681513
-0.431041412408
-0.605622341041
0.127544787837
-0.0863706179102
1.03864538012
-0.172519349567
-0.234561231274
1.00156820782
-0.0230902700243
-1.04616155536
-0.44474293153
0.0312817422914
0.704571783529
-0.933236756578
0.887714461637
1.14048739691
2.13593218284
1.10007733641
2.40438649958
0.605845538144
-0.725584294496
0.462695819612
-0.0565321110971
1.37815722268
1.26993158601
-0.881679750904
-0.445492679061
0.744426500788
0.608506392992
0.158303420667
-0.540950133263
-0.169393489302
-0.46180742704
-0.361006404004
-1.36405730167
-0.606810571544
0.53061551202
1.59194432828
-0.275854497774
0.19079922667
-0.269959203109
0.91043348893
-0.11000191591
-0.662594829141
0.828507086191
0.249791689566
-0.23065079528
1.03303222016
-0.349045754899
0.511309607946
0.378962548901
-0.987689445851
0.559692735166
-0.35876060857
-1.00827900094
-0.369809673884
-1.40993605529
1.04286032907
-1.03021699604
-0.427801633182
1.16196257129
0.621867690776
-1.04631192321
0.106199605763
0.129644583873
-0.820460531853
-0.919933135344
0.272737192118
-0.0372399748244
-0.927561028526
0.667301956571
-0.315671860458
0.837647592061
-0.767343963411
0.732839537182
-0.32607829729
0.299426769835
-0.78487242482
0.702847836456
0.536524406509
-0.447667250958
0.626863007709
0.179602632736
0.766498478225
-0.297370887188
0.20433013126
0.269000146784
0.369352834764
0.139263216884
0.0215167844979
0.736603251234
0.783880655668
-0.830673285921
0.421038873692
0.628353864073
-0.631742361042
-1.05732104654
-1.25363535262
0.0938446300938
-0.63145189055
0.605334272281
-0.0959489500709
-0.614061402181
-0.73461210657
-0.518575402473
-1.28508433151
0.894604081318
-1.13958119457
-0.701940482088
0.68637139478
0.394833726104
-1.00827488687
-0.629944624723
0.246978893995
0.802419544548
0.782001739006
0.195013547898
-0.12198306413
0.981303411444
-0.120955069378
0.122806495211
0.54697867148
-0.0763077801103
0.358416795292
0.351546847346
-0.983149062463
-0.26520049148
0.0499991380411
-0.945978894369
0.343951492986
0.133535293783
-0.394990975152
0.157719046951
0.4872233994
0.0610694967234
0.0851608746606
-0.116125856906
-1.36385554689
0.655102523612
-0.775439938977
-0.499460596257
-0.52426286474
-0.954553273088
1.2187783972
0.618244427427
-0.554597327189
-0.500867353984
0.420560810807
0.48791922769
-1.11041144135
0.15804439093
-0.995095109366
-0.178243245963
-0.949671652682
0.926510762311
0.217156049691
0.407098055355
0.795247962713
-0.209127925728
-0.480078719639
1.18169687506
-0.218185357131
0.644411649799
-0.695702341687
0.541625191051
0.745758863331
0.200791468707
0.531751990727
0.454619880219
-0.657169346901
0.336922825291
0.619531273434
-0.649712778555
-0.754808299827
0.315201661112
0.707255221211
0.541563640711
-0.308822772529
-0.11713059188
0.334741029032
-0.424051067071
-0.439261555788
0.669111831385
-0.527962981559
0.837211687364
-0.105040185509
-0.100715589291
-0.372208091741
0.320307207131
0.50326636226
0.425376661749
-0.261863993703
0.74299767956
0.149630857223
-0.353106765914
0.470845375883
-1.5693047621
0.707666230362
-0.415483617407
0.112768159117
0.954037331769
0.266425693892
-0.706325352714
-0.0888532950299
-0.00987003864128
0.295039560153
-0.720021097845
-0.172237188796
0.277192985398
-0.146161136014
-0.00570374924456
-0.411100599544
0.391675869754
0.199442712148
-0.339072838182
1.06566147298
-0.168905752562
1.03156638048
-0.00322451757662
-0.318858515418
-0.0749383508047
1.12721386029
-0.394552553053
1.15420768623
0.335313621849
-0.835198500848
-0.629426257032
0.69154383874
-0.238537172661
-0.112716398988
0.153602747777
-1.33162576704
-0.0501224708363
0.777623855482
-0.152415217936
0.723456082195
0.0054417987612
-0.449104183071
-0.389256859706
-1.02621761691
0.335429472132
0.851946662961
-0.739259410661
0.790560395891
0.571094532955
-1.11303956317
-0.688552744971
0.232385879862
-0.327723003054
-0.174180856389
-0.400951655772
-0.859896915534
-0.373891732008
0.104820941301
0.233952279003
0.560747032983
0.0746683310959
-0.437677043278
1.05196651973
0.0997469324688
-0.183472831185
-0.515166166224
-0.707309571526
-0.0936508424419
-0.580975291532
-0.0277151371388
-0.744054501768
-1.02852929268
0.119804941336
-0.557516498642
0.180206906353
0.0216135099593
0.31289610463
0.585944175554
0.693904913293
0.504013244254
1.18695024559
-0.0687240756046
0.888783537867
-0.28052928385
-0.285215422322
0.738942775901
0.0563729424537
-0.803724256592
-0.0929006415858
0.0902090666656
0.021426510259
0.803987968692
-3.5656788831
-0.154730233848
1.09667483197
0.48041971256
2.37692927532
-0.855927908572
1.7282152803
0.0349342350889
-0.296489862418
-0.16258250432
0.719303360231
-1.04757564557
-0.208317290571
-0.57890863626
0.241201904385
0.950948076443
-0.994844436137
0.0194428757319
0.397809550612
1.01860545733
0.655918443977
0.208588141897
-0.507961621202
0.825977515576
-0.135057076151
-0.626276894243
0.290818909268
0.296999010971
-0.601378958423
1.38091897026
0.607940596927
-0.2747021016
-0.752578292323
-0.915307614245
-0.561219115554
-0.249962875184
1.50657593181
-0.596230988612
-0.0187080936345
-0.264289301837
-0.912261875882
-0.301514191693
-0.293289180477
-0.98975533941
1.88389174687
-0.299585116693
-0.00666784246661
0.187785553974
-0.260994522364
-0.789375301996
-0.435302404179
1.03724988075
-0.595690410406
-0.185564680453
0.464555209549
-0.393486984285
0.751660796601
-0.480217484673
-0.351405658488
0.183841504207
-0.627432070826
1.03216992221
-0.188360158651
-0.168613890237
-0.554359056832
-0.86908310713
0.0859772600996
-0.438922893325
0.375297941718
-1.04203685137
0.378537310775
-0.0245323277013
-0.858402043441
-0.519132467547
1.47106357336
0.733038761013
-0.191108708801
0.740086035957
0.0882514176685
0.0816134479309
1.05456336557
0.40178531197
0.291244257281
0.596848870568
-0.231090746708
0.309774517888
-0.228661781335
-0.607349288245
0.604258227406
-0.17318389711
-0.211069464015
0.252531612717
0.868032482338
0.348793915577
0.793468221174
-1.20096164619
-1.22663178295
-0.0305062321484
-0.187200404594
0.476796077734
-0.629842274407
0.361814463166
-0.945828546446
1.07996797397
1.03693983527
-0.7092036218
0.794075255357
-0.197111167133
0.225817234049
-1.00233971439
0.0414343904681
-0.210768257563
-0.139662312747
0.891262956142
-0.969936206655
0.493407128731
-0.646474113898
-0.628987266199
0.836721766353
-0.0797280434073
-1.30912194562
-0.00309584823799
0.458004238764
0.304919628968
-0.438442173761
0.113319521519
-0.950409789731
0.419882613696
0.148245254093
-0.985427580559
0.413874699145
0.703888718573
-0.973751038599
-0.313521165015
-0.341016215911
0.733192267676
-0.679364823652
-0.0626520759486
-0.677936717867
-1.306347404
-0.981189924102
-0.0532384689414
0.133925656043
0.310785938118
-0.400563004034
0.0566491867334
-0.446481804651
0.861441883849
0.126269874848
0.0887426433773
-1.01659329487
0.578430707776
-1.01390219138
0.362640123735
-0.318702232673
0.404077248837
0.596943568019
-0.076734066289
0.143141357507
-1.1194308145
0.733818287177
-0.2693836975
0.656687374692
-0.0681256819661
-1.06695384779
0.559099421594
-0.161772390162
-0.883235977762
-1.03794402213
-1.15223419101
0.0183224398421
0.389800122488
-0.561062758224
-0.0570172862706
-0.255094302426
0.65281051819
-0.589256592378
0.189393047846
0.294292180608
0.776000233682
0.151967097296
0.121355981151
-0.812312405741
-0.0728607877767
-1.21000739347
0.429641195193
-0.615009861558
0.42009344774
-0.771705447579
0.618126478418
0.0632419453148
-0.489267713394
-0.490674095296
0.0303129429102
-0.346637470465
-0.144525852109
-0.263158285146
0.0397374602751
1.06305365089
0.00116828714795
-1.22125253388
0.622920490937
-0.829518219
0.798126961288
-0.873841991421
0.573464349094
-0.989558831878
0.670392266533
-0.529552370282
0.519868136402
0.834130058144
-1.22440263876
-0.28193101862
-0.617028120071
0.249562652765
-0.488897620409
-0.0995547124669
0.510972608454
0.408946241155
-0.695653893895
0.192345756924
-0.0248450112296
0.635393046996
-1.16377527149
-0.499979213093
0.621522240801
-0.826481154815
-0.262231237079
-0.466762894399
-0.5669434861
-0.685626335813
-0.320180470688
0.862344691532
0.1611457763
0.488848818687
0.153131651163
-0.279565202467
-0.380495047025
-1.20520565983
-0.255610138285
-0.534596392713
-0.463669578888
0.267590716675
-0.318744302781
-0.463007768102
-0.252220498899
-0.185265624714
-0.179334755062
-0.952430404151
-0.274384463887
0.436712526208
0.550778107635
0.0423157242587
0.236029495244
-0.125322233104
-0.958060348355
0.0439859926061
-1.04247293048
-0.173047078068
0.562284700236
-1.0597039813
-1.01720014594
-0.493495626675
0.521364913966
0.702448948443
0.833054209138
0.405527685634
-0.426545950022
-0.392523958986
0.808053218672
0.344406620218
-0.187366811858
0.539904715699
-0.690450652554
-0.593449864242
-0.176956516878
-0.526681230364
0.21143485116
0.00405027911317
0.328639622749
-0.566274244839
1.10331113145
-0.119686305364
0.860188842111
0.337405928417
-1.34875513502
-0.0642954720962
-0.600714374656
-0.874613712797
0.20822961559
0.755585677928
-0.116444882332
-0.402545245624
0.285332115058
-0.678214792935
-0.154410699748
0.00931143228906
0.77716368287
-0.67187030997
-0.783520431743
0.866695214943
-0.138767051672
-0.0854729987707
0.0422207594306
-0.9608564741
-1.09234337878
-0.0761981687556
-0.112749326745
0.247733235423
0.260731969242
-1.13036887636
0.0729677282269
-1.04900090627
-0.845224634719
0.664903038908
-0.251431350566
-0.575719419656
0.636358702744
-0.027095784109
-0.142998204783
0.253790742393
0.382107803303
-0.29062417216
-0.10922999422
-0.0404569483424
0.494755570094
-1.10435289206
-0.457807913486
-0.750201677135
0.735363983202
0.176096970273
0.375069604228
0.237121842621
-0.521242302465
0.240712557535
-0.103124073382
-1.01164784293
-0.0959495921354
-1.28562118465
0.710545264695
-0.7663818031
-1.10527360926
-0.0981558865004
-0.603426685915
-0.809097147402
-0.891894890055
-3.17388347017
1.06107943459
1.21639172728
-0.173488882896
-0.553285781086
-0.0857434060118
0.175585638995
-0.977377102576
0.432520652616
-0.668246791156
1.02762867378
0.406920171286
1.29035104652
-1.15464536714
0.267938951922
0.283484461855
-0.568311306432
-0.85433502903
0.393648154959
0.200840490805
-0.0176395543459
1.13082321519
-1.18234706846
0.0406071651199
-0.776711363974
0.855553082068
0.827487077724
-0.283383769111
-0.415780533917
-0.513530577331
-0.0388851913968
0.253556881674
1.11568128837
0.215153928142
-0.208352488544
0.844282718363
0.702935079365
-0.119298293529
-0.34521018824
1.59275269379
-0.858932991878
0.532610465265
-0.789463507871
-0.216224287144
1.33824518367
-0.782020873005
1.17778448979
-0.422182391543
-1.24527036578
0.0686883695124
0.235888204329
-0.972513424593
-0.865357058362
-0.790014844208
0.630541565538
0.580368501811
0.437219042731
-0.440517936908
1.34441162161
0.00334629380998
-0.189606181387
-0.0786254515702
0.178025427324
-1.23318679232
-0.262127754226
0.701298280588
1.20104433619
-1.51849496933
1.03428856945
-0.316544791306
-0.565422922066
0.569564803135
-0.649551582141
-0.588302794554
0.882273183416
0.0937691529423
-0.963408156898
-0.397171416326
1.11014752695
0.762474759648
0.948785523347
1.30393116401
-0.338606511829
0.975007052193
-1.17342962118
0.332120040211
-1.14730891438
0.0462671089179
0.846943887596
0.835880613197
-0.466977284367
0.629495281696
-0.661837219049
-0.749999330788
-0.378538665182
-1.14857148241
-1.23754248935
-0.367529293367
-0.317725553078
0.396432461536
-0.373479185207
-0.044030341488
0.981040048038
-0.53708352172
1.08377165652
0.0303613882595
-0.381701661735
0.366721897156
-0.209343081742
-0.97897727348
-0.872833209082
1.06707159821
0.239823945663
1.42120628722
-0.293119091782
0.0829253533402
0.0869706450511
-1.0990307201
-0.677854390075
-0.245179845038
-1.20384864212
-0.789919394981
-0.618018966846
-0.664402316114
-0.522984124873
0.206408178104
-0.530136166241
-0.183130506604
0.076817602452
0.181554388327
0.0669075178184
0.470049500459
-0.62709494098
0.796626836567
-0.695025764584
-0.95884146257
0.823136116116
0.403668986722
0.476283577032
0.698045405368
-0.575319930615
0.216711766109
0.906223213368
-1.45294508674
0.23628601579
-0.141341692316
0.328340768123
-0.178686878955
0.694915905658
1.14237865134
0.284295990525
-0.467487289391
-0.419645623303
-0.864518696675
0.488925088318
0.0749442308203
-0.260240915484
1.03101015541
-0.539634494953
-0.461336331381
-0.329616799259
0.59019849087
-0.797759386384
-1.45103313725
-0.367451911143
-0.411382514374
-0.68753578962
0.751977612463
-0.751372694165
0.197981351171
-0.545654819736
0.463940109586
-0.844484337605
-0.222790554525
-0.673918568728
-0.992212700011
-0.492784907376
0.474954312162
-0.809693319501
-0.758541671972
-0.796209761954
0.628829526421
0.468806047549
0.139471967177
-1.09512814385
-0.168529517524
0.835620021542
0.497725234502
0.20191330704
0.786321068862
0.079987999622
0.550809324359
-0.362115407514
-0.557115203479
0.811929566986
0.752189058701
-0.43350136614
0.191403359188
1.15116684734
0.10503113631
-0.948042677014
-1.03481165344
-0.936468250708
1.22460095325
-0.571045277404
-0.775500579894
-0.212060328521
-0.793720828949
0.236631730721
0.739834562431
-0.477217105355
-0.734300399625
0.0243233460963
-0.181607650102
-1.12567642288
0.248676285851
-1.12263886837
0.0248115755005
1.13495003499
0.534917650207
-0.962108142701
-0.730276958805
-0.100957039622
-0.0770980895495
-0.0981116423421
0.458713217979
-0.00123792284137
0.10888656569
0.0785671752414
-0.203435687131
0.116525536125
-0.882143081939
0.900883830855
-0.0981719127631
-0.535062896314
0.803637741045
-0.17116101983
-0.86760195416
0.141013983013
0.543226803578
-1.4245014397
0.136279115586
-0.207817439072
0.516800786679
-0.983545496195
1.23927360308
0.535511019456
-0.795551066922
-0.0908914326557
0.125314598658
0.617198515702
-1.08539887962
-0.565584718216
0.524521431745
-0.39645392992
-0.103426337483
-0.574472521819
0.390042146389
1.01990966199
-1.27589731852
-0.778313968471
-0.0413618181392
-0.949932506218
0.672232368151
-0.371805072667
0.0331461876291
0.161439553289
1.02589898407
0.244310959155
1.03590317054
0.310792906358
-0.0286485318204
1.01460373846
-1.17074157485
-0.0941615190793
0.393714064521
-0.969291413923
-1.08066997886
-1.05238058889
-0.266573364545
0.833574064623
0.115574009227
0.689614706105
-0.787655923627
-0.925712444283
1.13952880682
-0.101199973689
0.47195666373
-0.600290874692
0.467689573358
-0.260669932699
0.777629627267
0.464318382526
-1.20701825775
-0.4202063241
0.556460422253
0.651712334434
-0.997785281016
0.505176023864
1.51817830777
0.220740835127
0.382886427813
0.513288865568
-1.33962189609
-0.320046432674
-0.634911690122
-0.198627373899
0.119791360689
-0.610806396265
-0.256737282104
0.132934374379
0.401603536291
-0.871402200365
0.256566534217
-0.861986601112
-0.62372482216
-0.121205966249
0.194552180746
0.486140489017
-0.15407863203
0.680078020033
-0.0468385233421
-0.168469157646
0.877510460238
0.297859800559
-1.19522557764
-0.0302326923614
-0.0415495957486
-0.463027773376
0.10913147713
-1.05946094716
0.0627711813827
-0.857670964149
0.376939694167
0.511165911168
-1.0233277928
0.674729198501
0.684013181802
-0.0825438842934
0.0568669422686
-0.0567439049744
0.0314870256914
-0.218584756912
0.571752354938
0.0472335336542
-0.0971089261027
-3.34171644654
0.0265656700502
0.33003054557
-0.505533444445
-0.386922369471
-0.430745268464
0.924406619286
0.728445365523
-0.257520959851
0.0177751390109
-0.159615324387
-0.602753542836
-0.508579327879
-1.01811492822
0.858042485083
1.0045568517
0.237390172224
0.987737819046
-0.838975781024
-0.358460701054
-0.251368145159
-0.554542257085
-0.901817506631
-0.678375996094
0.0665399020591
0.844456290812
0.309857686946
0.329313715206
-0.427780084519
-1.00236217596
1.44825492534
-0.0876588874945
0.68172159908
-0.32260948258
0.019209916373
-0.0852357862318
1.24298338003
0.359968487212
-0.182588389612
-0.288225809732
-0.706809394764
0.0822013443679
1.31980268896
0.968219230537
0.128283689029
1.24184418293
-0.0490257066925
-0.415305704779
-1.25871517335
-0.339156256652
1.27965432314
-0.815520501518
0.00562167534731
0.594554207204
0.842565516883
-0.789277739343
-0.502105295123
0.829265997253
1.32641133874
-0.177347482651
-0.504357430337
0.787961062613
-0.408585889641
-0.67115987181
1.02701842298
0.242203018052
1.01628146884
0.656735165251
0.659658337544
-0.359456841544
0.209788140973
-0.707349117584
-0.902183960533
-0.736215992911
0.94956061129
0.0967768627489
0.222879817471
-0.505519826995
-0.0326399039267
-0.406569976231
-0.189683352474
1.6730474679
-0.162694400035
-1.18175293277
-0.954832385246
-0.877559180289
0.736804166303
0.128896003533
-1.00903759231
0.569103556234
1.2871847308
0.142379926329
-0.739282812585
-0.577125648602
1.80349547489
0.852245856934
-0.395643909366
-0.378315899688
-0.928512873711
0.281574842426
-0.270139757702
-0.989904560169
-0.917814275213
-0.48239920479
0.0694565516431
0.134796269751
0.788899692004
0.108196266687
0.257181030776
-0.0264976597949
-0.456940083354
0.51647603238
-0.893915959211
0.987624250988
-0.45079166574
1.25968849052
1.1192444694
-0.993036650796
-0.0312140231835
0.61724010503
0.300808791632
-1.0996271031
0.358096422916
-1.03934529388
-0.122026279004
0.334897061273
-0.592472265281
0.512466013534
-1.17652493814
-1.2601805098
-1.12935571409
-1.1551890974
-1.13359039713
-0.250793468204
-0.882142914435
0.640526302017
-1.2225199262
0.598472654186
0.459222871668
0.902041667793
0.0594577451942
0.141826184915
-0.128315097741
-1.24602306956
-1.0986914403
-0.639144650837
-0.210462359768
-0.204848459368
-1.5268403049
-0.180128392496
0.539068918072
0.397325538835
-0.064574386314
1.01819463656
0.618519087713
0.459368660624
1.06713298514
-0.484598962998
-0.269376072494
0.709975984972
0.200838236185
0.292383758242
0.468791465864
0.0306723602925
0.587122918378
-0.0893112056808
-0.399200793908
-0.55734296665
-0.0773070497987
-0.0787909911664
1.11700687288
-0.916134493078
-0.585824236855
-0.470250128433
-0.345863732883
-0.489080989119
-0.177139982017
-0.154039714064
0.625446060687
0.168493517979
0.49629133125
-0.015826451324
0.442960201581
0.378450697484
-0.450521481136
0.57583012815
0.874959974956
-1.12779746611
-0.0940889260598
-0.536216125636
0.0964298270121
0.704514670557
0.603853670537
-0.0589467516929
-1.14619193685
-0.948495336301
0.0730423203351
0.690736370793
-0.103623664355
-1.09849551091
-1.07391918194
0.946513518356
0.19960718327
-0.273434755815
-1.19167894856
-0.351362145986
0.134329858056
0.230827427403
-0.252328145052
-0.972274000687
0.344204076674
-0.58661138206
-0.448993573728
-0.281972170531
0.178626713042
-0.667343242806
-1.1555892353
-1.05640873595
0.780798255497
-0.615236245295
0.370339831761
0.321979415282
0.57659437582
1.11712818671
0.576585118939
0.680377505258
0.308343472806
-0.728971243071
0.626035045414
0.562725240679
-0.44287389462
0.760990056579
0.383518517852
0.46563103716
0.629663254863
-0.588664579924
0.269968132853
0.326633373359
-0.948738816601
0.417087931779
0.0464332159789
0.119346461534
0.531498193491
0.386035491353
0.159291874374
0.196332410494
-0.854555702162
-0.247153140309
0.353068092267
-0.713533856048
-0.819019143318
0.614922255852
-0.935421968919
-1.12206206438
0.00408365561082
-0.607797416066
-0.795315058046
-1.19749239072
0.714914841332
-0.28495807995
-1.55527621039
0.339828432231
0.226565370126
-0.356388443558
-1.27042287229
-0.868977324522
0.042375297693
-0.175324386978
-0.163730522269
0.242166879134
-0.702582327915
-0.52150061126
-0.655101148576
0.413173639958
0.503668701644
0.664773512692
-0.530810244662
-0.359584006922
-0.779822750281
0.362726545286
-0.300556654029
-0.686161230951
0.0282435130316
-0.0607359148001
-0.434994173599
0.803390380965
-1.34576654579
0.355805385916
-1.34287692867
-0.207500825865
0.470579931904
0.814051136385
0.330521853994
0.152274211744
-1.02343139083
0.429907035589
-0.721243503072
0.482954483717
-0.262727482958
0.371882239888
0.264744636072
-0.272699136935
0.496315620155
-0.370136076104
-0.447806009402
-1.49539713297
-0.0151439166363
0.616971440213
-1.155099383
-0.517014717277
-0.333668095053
-0.186177375813
-0.664326037317
-0.907622654388
0.617650689826
0.209055508632
0.422985176344
0.0983050923228
0.694776078191
-0.0714007291372
-0.637070567356
-0.685479817006
-1.04124932275
-0.0898164494915
-0.241684255909
-1.35545410737
0.698415690072
-0.309695472751
-1.30634575496
1.15721806683
0.655006179012
-0.586838568907
-0.652065583257
-0.600912228858
0.275006151649
-0.488527286553
-0.151044568308
-0.935282171423
-0.701554279146
0.932925305127
-0.847376308027
0.443743521898
-0.510805213735
0.151201724993
-0.685082194785
-0.190336145904
-0.589167804965
0.495714293442
-0.911086225685
-0.757500130997
-0.841493844864
1.33852636548
0.457622932485
1.32071830254
-1.14083288085
-0.568547147771
-1.22945424444
-0.0904913734344
-1.15352657615
-1.4022363744
0.516720332332
-0.829506079122
0.316216482357
-0.908860807788
1.86303394051
-1.03462222415
-0.746947482574
-0.467504352766
-0.861916290004
1.02211509146
-0.505993794101
0.768211321863
1.34441070301
0.887538673615
1.01701236656
0.344729720278
-0.38856319769
-1.37765750833
-0.452232122137
2.12560170401
0.533456346343
0.747940741597
-0.206852690277
-1.03251674081
-0.575083983206
-0.382474562398
-1.10549711413
1.15743668606
-0.483943530943
-1.21619449702
0.456187388364
-0.549096596186
-1.01672496135
1.89780473439
0.487240900259
0.380284188356
-0.531264605024
-0.389536287949
0.195965051487
-0.357912704213
2.0336788761
-0.11384587382
0.498711244933
1.82046035859
0.299786174469
-1.12438753473
0.938671553399
-0.294940432888
1.71755196666
0.0829218852624
0.410556736633
0.0299149470038
-0.939160499069
0.188966154858
-1.05736293778
1.12954289708
1.32517167752
-1.22730581184
0.292874407535
-1.38005365886
-0.948774962799
-1.01858744118
-0.045641325736
1.21475355693
-0.169195373228
-0.910508792211
0.563092615253
-0.978423609332
-1.03830047812
0.691618193461
-0.769258309359
-1.07282459837
-0.485591366734
1.58487340914
-0.870102755725
-0.635947014285
-1.33659365486
-0.709663759512
-1.4138120661
0.249717089253
0.354549832877
0.251966961035
-1.38748541569
0.545056251402
-1.3953104406
-0.935027757635
1.58473897732
0.187723273556
-0.702924764172
-0.579632649903
0.447550661536
0.348266956827
1.16236484895
-0.380916937228
-0.939595639839
-0.17981350457
2.70012301428
-0.0488729152407
-0.106971977616
0.0687359298877
1.12479778675
-1.39928898001
0.0636857838446
-0.00429066738172
-0.469563907407
0.318869637891
-0.892079537432
-0.0803364583217
-0.441267746669
-0.0105060389807
-0.241018557626
-0.437087555132
-0.0190389947251
-0.227247262684
-0.457497908374
-0.130677761736
-0.00783681930071
0.137334222066
-0.782788454722
-0.665255757824
0.121144533582
0.162891983498
-0.454949514214
0.03188313726
-0.123375789574
-0.0870505076972
-0.323855423268
-0.579976297626
-0.443302692892
-0.923846687586
0.0588442079978
-0.372595212368
0.752038106832
-0.329596336604
0.533582820683
0.92208581512
0.160874995637
0.00376898141697
-0.555784578143
-0.0640268930588
-0.197222169613
-0.00272739468134
0.804452241221
0.285538805936
-0.592516013649
-0.131984035432
0.380176504921
0.111901873278
0.190497798273
-0.963319560647
-0.937409729639
-1.1615759275
0.475677902006
0.863274991151
0.453786543385
-0.0710818725465
0.903318499354
-0.381879105486
-0.199430747557
-0.0427541407188
-0.380349463901
-0.00880251333508
-0.726388561234
0.0621511889198
0.455844009458
0.228083943122
-0.486628770639
0.25517419931
0.819797656644
-0.0112213976983
0.7340983446
0.132419792841
-0.139203056397
0.215947982128
-0.356843450293
-0.362284292142
-0.0480471245355
-0.0131882251703
0.102418842614
-0.603813135582
-0.238344836765
-0.257982268386
-0.301430123578
-0.266378270398
0.805478755183
-0.731398705247
0.347812366858
0.722024365007
0.50121019582
0.361132832902
0.303159862208
-0.350476059421
-0.685727813281
-0.246831345125
-0.420153616339
0.310589389016
-0.0916910784189
-0.144966479322
-0.0496323895849
-0.0186257142628
0.226690264252
-0.428764102894
0.312864437784
0.0629429773598
-0.440930528362
-0.566965328191
-0.58706374586
0.712424692511
-0.348492353381
-0.500296809355
-0.378075389721
0.160431372102
-0.564191610396
-0.317266049525
-0.246172634229
-0.451430814129
0.413234178734
-0.945827336647
0.0938482098568
0.0594530552837
0.371225131948
0.984184886274
-0.374249669584
-0.212310594072
0.530060028945
0.176357917116
0.0925958877917
-0.230204460989
-0.0889380126308
0.556227302058
-0.812123216943
0.414399882702
0.0321814007785
-0.084339966084
-0.602520246515
-0.000401371342348
-0.179234744882
-0.70253793266
-0.437613805021
0.312730524177
-0.26529764011
0.453125891336
0.589780747884
-0.0632523733436
-0.625480705055
-0.26527593273
-0.0566849517682
-0.268481365822
-0.0714062454265
-0.574021929584
-0.661377644079
-0.581035299171
-0.107002739237
0.858074134477
0.518150394549
-0.501144172351
0.0819635713604
0.409403268164
1.25935598122
-0.754125724251
-0.0959530652731
0.293444622064
-0.173660417789
0.0877256172847
0.346860975441
-0.200074600216
0.0738327520967
0.605270589511
0.0209577139675
-0.433786238944
0.393456466763
0.0188298659306
0.388111905476
0.182999861612
0.0763220064796
0.6692503175
0.830183881981
0.401839595216
0.306102560552
0.347418988776
-0.764134972271
0.114886892836
-0.745886994202
0.73507912172
-0.222531384638
0.171972720628
0.0368176802137
-1.04109817253
-0.137053258309
-0.578898985159
0.917511104265
-0.323292445302
-0.175765663481
-0.466987448777
-0.247198148193
0.152712803872
-0.624988691898
0.283272241308
-0.217225497547
0.452750244705
-0.130018071611
0.258717354199
0.507609637294
0.286507906987
-0.435037037628
-0.450500536698
-0.133310821725
0.811627736511
-0.921947399479
0.336948941371
0.328430987357
0.182274946965
-0.272028945169
0.235204673279
0.0845221433268
-0.068892891499
-0.831596123965
0.243960698443
-0.0880108217323
-0.234453921004
0.308674139219
0.10023579035
0.799528740409
0.412845320998
-0.290514116577
-0.00170430485006
0.320470998328
0.381972981187
-0.207111346233
-0.379949518986
-0.0497244867409
0.461582030231
-1.76835957555
0.166510123383
0.709544303241
-0.841020785348
2.20964667166
-0.409289494396
1.76271732467
0.00164795686403
1.91864314811
1.45633324372
-0.304147837585
-0.335845384716
0.526036449019
-1.17773867255
-0.898499535974
0.909966344124
0.511332759892
0.331135713479
-0.881501751037
-0.381475076594
0.0912389862497
-0.385345959835
0.346498783802
-0.826733112186
-0.741075228418
-0.582257062484
-0.427387787013
-0.199007353276
-0.49656287368
1.92957726603
-0.37286406256
-1.11041515529
0.45875801517
-0.215141433528
1.92669119036
0.479070365176
-0.90386838187
-0.28782194157
0.331811069688
-0.727606331569
0.314176459913
0.276917507921
0.472131866826
-0.376194341135
2.5864434832
-1.0223612068
0.420246468303
-1.21957614568
-1.04981774003
0.06600384976
0.309021658677
0.0788951207279
-0.245506065506
0.540280642229
-0.0333245972091
-0.711559192569
-0.916518442704
-0.515648310188
-0.868541270756
-0.0795891654225
-0.51671948517
0.337911053622
-0.0958524600372
-0.281563233385
0.853050833644
-1.33033318024
0.18837005413
0.658177851084
-0.5390258141
-0.517238641053
-0.608416663157
-0.0311377235401
0.508934335562
-0.642097784404
0.710599827628
-1.16625253494
-0.781555415124
0.56713759234
0.266305628
2.50280252638
0.824564482229
-0.813885835402
-0.610701190151
-1.2922006668
0.655794721657
1.61539260064
-1.05429113251
-1.20104035712
-1.26736273101
-0.500132662047
-0.879894025533
2.44626390354
0.520281211941
-0.301510063099
-0.539453588427
1.10170497843
0.352554314707
2.76836083602
-0.802902563742
-0.12950678852
-0.475178460544
0.447773977855
-1.2486156485
0.376770362866
1.27048014223
-0.571099898378
-0.10648755549
-1.38277819402
0.277534997595
0.306461704779
-1.04404458331
1.64734544208
1.21539402595
0.62172940679
0.24294480782
0.84920472526
-0.177378864509
-0.557158712273
-0.0898175075955
-0.0494555045639
-0.205611770553
-1.31128970802
0.294835821447
0.168431398806
0.155776040434
0.0734262356677
-0.0455193467156
-0.484148862556
0.735558793824
-0.769884833416
1.16609314517
0.205907988458
-0.672322982079
-1.12249191523
0.697534214309
0.448747944869
-1.18958781061
0.182746621222
0.797724987813
0.503833691842
-0.231234962003
0.00823032878087
-0.124689838294
-0.40159978173
-0.524850258425
0.298928245669
0.598306638598
0.745713987127
-0.488765222269
0.0630958487415
-0.722176382774
-0.205987178758
-0.433874229574
0.612788076679
0.168875170509
0.159297333908
-0.00560206389921
0.205911889889
0.486917749927
-0.0643218529699
-0.880462059105
0.189651768172
-0.970648781279
-0.481387213482
-0.445581814335
0.244623809605
0.242615042754
0.997819948365
-0.0474794152688
-0.927638749968
0.49556460381
0.42101657424
-0.554469179054
-0.493953032819
-0.684931522056
-0.757360666178
0.674001181979
0.381554627998
0.109509081032
-0.017347323588
0.0750820049804
1.01269450204
-0.389056339457
-0.306925275103
-0.00825427645615
0.528266632162
0.281203287052
0.362667657016
-0.187154161781
0.337384235259
0.0448332322211
0.0185438412787
0.30301126903
0.323363150995
-0.446751222668
0.583683538402
0.155883335242
0.124396887224
0.242457133821
-0.453982059528
-0.847728513578
-0.981479624024
0.276305528973
-0.0141732988406
-0.180633814683
-0.0320497324937
0.542140624659
0.678495513359
-0.659588466987
0.240715326063
0.243849056439
-0.996399705161
-0.0943516529153
-0.484558459511
-0.555132535054
0.110106641096
-0.318603353894
-0.181122704475
0.351610059545
-0.415412005375
0.367210662221
-0.0352089084179
0.245651667893
0.446042357413
0.624747361525
0.372243271656
-0.595365299465
0.213119620387
0.110138826302
0.535459488124
0.0799737662106
-0.485723008445
0.602973315209
-0.565818150891
0.0447213132969
0.795688553923
0.0623213444895
-0.551920727663
0.425354247938
-0.626485210774
-0.977482775851
0.142273252945
0.361259152375
-0.711561157911
0.244513259804
-0.0450582473192
-0.109110718778
0.352648436108
-0.147623403802
-0.0529901628424
0.446266423624
0.290831834908
0.00327220794952
0.138789884596
0.142244355159
-0.107019254233
0.122703554202
-0.463097204918
-0.621219826089
0.0286240678443
-0.891515538912
-0.729963420704
-0.560154103063
-0.425147578816
0.103581787051
0.00138230025038
0.264270958465
0.539508281818
-0.232611935877
0.00478336893807
-0.35011061294
0.151673271481
-0.373309348646
0.0912033648103
-0.0722930503428
-0.503234631969
0.360494132743
-0.244886281712
-0.540386285585
0.159437222217
0.836066446412
0.352637759311
0.393393061238
-0.500543596719
0.0414933612856
-0.517981978744
-0.539631360734
-0.139263201203
-0.169770950939
-0.121177791765
-0.272264172076
0.998395386324
0.429399574833
0.390239812988
0.150203666306
0.0178038025698
0.260106038448
0.392569687947
-0.197357650204
-0.0891427465533
-0.366906248994
-0.332152235936
0.296247455693
0.398689877726
0.518394287108
-0.414176198293
0.141190468928
-0.671902461992
0.497163201403
-0.313724918483
-0.793502212783
0.0360404580274
0.12272450278
0.123137343183
0.277815558119
0.160345891261
-0.58155879483
0.109798285459
-0.866163991798
-0.286532197364
0.487330387841
0.49685481637
-0.908004745901
0.0882211362437
-0.20743974305
-0.786919626944
0.353376914166
-0.0484819653418
-0.210680033957
-0.0497620971852
0.498915926822
0.39232953638
-0.153965311351
0.552574005749
-0.655550153951
-0.587893219027
-0.260157579896
-0.406721726987
-0.465698752686
-1.06154823142
0.310354611079
0.38107740966
0.535429697726
0.154680486702
0.59129721429
0.808569029082
-2.955930652
0.434346719091
0.603295521975
0.129530391388
1.46757993285
0.835969556431
-0.0492713608131
0.319286778067
-0.92414692614
1.18971889662
-0.865983182317
-0.540278633224
-0.587435135697
-0.669435060426
-0.441050452453
1.07968274774
-1.05230331462
0.943083238018
0.834847114383
0.028529468678
-0.467677073746
1.06778019944
-1.22057567903
-0.367013096805
-0.952167151698
-0.379702472263
0.974436544162
0.457493587936
0.263412039456
-0.528411883765
1.11596227784
0.120489765266
-0.109795429855
-0.0675079302998
-0.58755130569
1.34827021994
0.439161296814
-0.890437856201
-0.501943749978
0.808012522365
-1.08594687232
-0.212352268197
0.499021184331
0.0702001902657
0.181628236706
-0.10516040443
0.292704313795
0.0700253066249
-0.374250930803
-0.849748981911
-0.312012404519
0.544848961109
1.79500025031
-0.548442359235
-0.189054517011
0.932949168025
-0.695016464494
-0.718916419513
0.530374530422
-0.528517087755
0.691628212887
-0.510275104009
0.338595698127
-0.62596857998
-0.581717984964
-0.799482812713
-0.840037236023
0.0929625786768
1.07584335947
-0.449243280358
1.74828878172
-0.149032503136
-0.249067738361
0.947115602124
0.90947236842
0.187512285539
0.102159528274
-0.847753021445
1.25463599181
-0.312305128142
-0.994881415268
1.39114795413
0.486710785885
-0.494333512173
0.184981045263
0.439005412295
-0.625283356419
0.970816439777
-0.193857930004
0.470759668222
0.0491901866238
-0.339156694973
0.563562853167
-1.0104899885
0.429300596698
0.567077196921
-1.27223029455
-1.28815864805
1.34825927468
0.580597820546
1.00713470219
-0.0789003830155
0.947803872809
0.829961147836
0.0492083843346
1.60085577135
-0.930321481794
-0.642339741939
-0.720611546715
1.20329620805
1.42452278316
-0.357053793375
0.779354218729
-0.577493679119
-0.848214835485
-0.0706512035339
-0.359120490456
0.382233000271
-0.960936606968
-0.498136096467
-0.859207303695
0.235926076629
0.0644287008008
0.675341223637
0.304221986022
1.32078117142
0.0184517903518
-0.807794804741
-1.10874755982
-1.01495287408
-0.0353305240238
0.0727733906309
0.740443377463
0.745227474354
0.695801554095
0.273465571509
-0.83024086112
0.923179681971
1.04298589621
0.571741628736
-0.201006711374
0.960264285447
0.516537836378
0.670554596414
0.143679426076
0.70741454501
1.17107886235
-0.467506240681
0.0137589075058
1.0559565831
0.489510354556
-0.451995749992
-0.486305053552
-0.870885942457
-0.324650205374
0.4764964264
-0.349013005001
0.240068246136
0.662509556693
0.555693998859
0.650292984473
-1.04239931565
-0.0309361258586
0.242875453232
-0.0609659160298
0.442835491012
0.0170840510868
0.141419292027
-0.383886021281
-0.323711603113
-0.909799982503
-0.673802217757
0.454393791204
-0.291897604364
0.711280979209
-0.0659886629232
0.0388651861135
-0.322159982242
-0.100483402968
0.117469393355
-0.218837672635
-0.0373969291763
0.474648407655
0.450379486294
0.542650321025
-0.365250703504
0.618812740081
-0.481550070323
-0.945687136259
0.474632925444
-0.435806602951
0.194572733963
-0.118667965719
0.152532683767
-0.822880861899
0.513474899557
0.936487763789
0.0662943749439
-0.697772251039
-0.967459089933
-0.71104739474
-1.00431852762
-0.637599620156
0.796976244315
0.287548541495
0.180941817842
-0.772093065219
-0.91073127922
0.33151329444
-0.0909635466574
0.235839791828
0.611347974413
-0.409342630575
-0.295897656973
0.125230488963
-0.420143782357
1.02848731741
0.900852881832
0.000702340696866
0.462409845964
0.158527739765
-0.244593002193
-0.977705822348
0.592824308836
-0.858684848049
-0.712716595041
0.801035978741
0.238867581254
-0.351099850059
-0.762707699317
0.824830619893
-1.10653998042
0.5891997283
0.433281880515
-0.461163770874
-0.264520280534
0.0309917882231
-0.939239347945
0.553676959552
-0.573749771858
-0.988927190585
-1.19462118502
0.0667825274005
0.783636685449
1.25704754168
-0.376826664209
-1.14271845239
0.120421278428
0.460722670762
-0.668511669166
0.879259010019
-1.05704697514
-0.970303669692
0.201004272942
-1.23147044707
-0.618432203477
-0.52418155467
-0.246501826313
-0.377458025435
-0.800577466341
0.413156590325
-0.0756153057201
0.428218647746
-0.656945897292
0.132062962236
-1.04447048961
-0.979542619876
0.035097353136
0.49483048475
0.671734857089
0.380450254476
0.0818561543099
0.867308736439
-0.486912701927
-0.932145824418
-0.232579940694
0.388350388969
0.090352046199
-1.06696195846
-0.0813824880878
-0.540016595838
-0.431682343495
-0.0378163639671
0.0756715255552
0.96426462984
0.190599264942
0.187877068567
-0.931490075336
-0.671273152878
-0.689736553857
-0.979009179403
-0.495054465837
-0.394007894427
-0.366005279274
0.64357554458
0.211012800484
-0.768223136739
-1.01928761143
0.444272155327
-0.36672068511
-0.924992207364
-1.13480255455
-0.806000473554
-0.0547404645122
-0.767960274695
-0.298278944196
0.149011077135
-1.06152074283
-1.41587173673
-1.01458500295
-1.08344019121
-0.707644247641
0.175288824885
-0.218011607924
-1.18322858577
-0.24261118564
0.856967647557
-0.0947546048655
-0.755514030596
-0.126750265968
0.0801605323812
0.345947405434
0.547732778772
0.342606581109
-1.09238083305
0.738245270592
0.94961011974
-0.415637783514
-1.360008954
-0.457183927171
-1.02214480042
-0.413642162656
-0.0442995555694
0.339262686694
0.204436879309
-0.855665175958
0.729850016384
-0.63057163685
0.268480822366
-0.934280881742
0.371109779636
0.518866883562
1.12913122982
-0.262336484629
-0.831981066678
0.272595494553
-1.86252717381
-0.565011531007
0.0835560824751
0.60067765268
0.323880163481
-1.61538353093
1.19104902147
1.24880479768
0.987848249473
1.67538668197
1.11249152855
0.789851733429
0.189932253492
0.522596176585
0.423628034461
-0.195079321274
-0.824470421548
-1.00893959796
-0.512254474063
0.0263922288736
-0.229112577824
-0.548206705053
-0.87499570444
-1.17346353151
-1.08737479571
0.725191912929
0.488194694827
1.72809633186
-0.956804189326
0.838990340548
1.49318558164
-0.799484606849
-0.330290059685
0.139542868463
0.208137977693
0.273327682234
-0.206298679725
-0.475007125113
-0.290538580275
-0.78617338525
-0.241251138012
0.666588061326
0.433656408759
-0.0546281220221
2.27703095867
-0.842420571022
0.38267037087
-0.387841380268
-1.43207530202
-0.257023682445
0.302550833265
-0.389844420558
1.03666497674
0.113236680808
-0.973041597207
-0.487249008231
-0.795644189747
0.115170169408
-0.910200155121
-0.00429117171873
-0.313183922011
0.298680767697
-0.218525479629
-0.346868423806
0.882882858957
-0.642350989372
0.85595779514
-1.1504271926
-0.325651937753
1.26495530206
-0.781033114979
0.41212612829
-1.14792944342
1.66399684138
0.163114725418
-1.01082247234
-0.782399797732
-1.25408903755
1.27970104348
0.356596003487
-0.98593087977
-0.829598264962
0.438079792973
-0.0898784409274
-1.23444582163
1.44612570068
-0.290982812316
0.223414278887
1.00575935281
-0.660613955995
0.424552812789
-0.455540980198
-1.1535434422
-1.05726912602
0.610634711755
1.60469551366
-1.02877126911
-0.632617485013
1.26009083043
1.07747575837
0.49942522163
-0.473333422252
0.556390780579
1.32314996146
0.526761937903
-0.836764805307
0.391641445793
-0.650298191457
0.696345481991
0.290670447619
-1.23516380899
-0.403022258589
0.836486619185
0.303198536161
1.35824513094
-0.439762938659
-0.494008134417
-1.13610761782
0.616644789323
-0.32619868505
-0.00397955946128
0.514210105821
0.208055330962
-0.312483466058
0.527151906543
-0.204235577808
0.141961148689
-0.341165313028
0.70403771639
-0.391165298582
-0.299570884023
0.031743883334
0.204657722376
0.100748599658
-0.192620048436
0.190073909748
-1.10092832744
0.681661620786
-0.387055068808
-0.266539067937
0.283365169975
-0.625695110162
0.997111674745
-1.26501761809
-0.263149825895
-0.853066417824
-0.644168645576
-0.387793198731
-0.498990577081
-0.25610661947
0.0552401116389
0.177157157553
-0.951800380554
0.0114326632901
-0.683687650489
-0.159384135096
0.71136647245
0.768647108989
0.0929015410497
0.322436597419
0.548688700966
-0.698113066202
0.207345425352
0.355336925096
-0.279062955177
-0.0153426250878
-0.705353535512
0.166584732121
0.984782599048
0.12506645563
1.5044227985
-0.762248548965
-0.1206855994
0.180294602989
-0.000819805912158
0.0396100961568
1.11422035088
0.434729657403
-0.157723292436
0.014508924374
-0.0387845104029
0.0245415722408
0.265622358063
-0.49175537398
-0.972300628598
-0.916054615141
0.66725648301
0.354354180523
0.0129211790377
1.19826600525
0.348426669936
0.238440762002
-0.880685646837
-0.020864843681
0.091526774793
-0.620911599149
0.754294182732
0.392737915515
0.410469652893
-0.334363939933
-0.768088154522
0.320430197175
0.174245048648
-0.227199251343
-0.716767958663
0.395996870614
-0.932012086322
-0.686158773026
1.38672379271
0.273328590051
-0.659773666846
0.03185307839
-0.0943212743146
0.397589915367
0.0406576802428
-0.973489381021
-0.0125529649129
-0.213007022901
-0.713539586309
-0.427363744872
-0.328335006799
0.287672142282
0.788428934661
0.997418212825
-0.272970899753
-0.596128414754
0.498089070992
0.255999335207
0.249325411313
0.615207978172
-0.670215217869
-0.681588770821
-0.4964176773
0.134372885348
0.75182692611
0.252460644374
0.204216510065
-0.0416151170413
-0.137574319313
0.0427343468953
-0.829038239796
-0.533151914415
1.15026013838
0.269862712834
-0.276366640901
0.153204795041
-0.506752654344
0.0460270981819
-0.561478044258
0.851998643887
-0.339792447581
-0.715480231461
0.121921928637
0.0231626729388
0.781493841471
0.592604005123
0.276866593254
-0.770662884053
0.370452853939
-0.473883653239
0.031586414581
0.392157892901
-0.0734416546015
-0.243534275494
-1.07146529749
-0.704826624189
-0.163669217218
-0.777115925672
-0.460415685876
-0.42683460943
0.19577161227
0.573308973869
-1.10194211701
-0.802729890999
-0.400366308515
0.581724813329
0.412623392906
0.755802794236
-0.461756895561
0.639298592947
-0.945853021702
0.555465175385
0.390865831056
-0.569705253966
0.0412331237837
-1.18497259676
-1.29988182219
-0.835295838268
0.701314282243
0.562585998464
-0.354975277171
0.631972295804
0.436641595464
-0.0713447345029
0.0257608815478
0.262159416151
-0.368136591254
-0.287715521528
-0.157083017646
-0.243374722847
0.235642236109
-0.726373474733
0.0194684481963
-0.789454437712
0.534823488491
-0.388759569181
0.0479802266133
-1.1935553028
-0.312929271614
0.373397972596
-0.306554132878
0.316611625378
0.636528654701
-0.394450947065
0.373501144649
0.601835784882
-0.91883584948
-0.0426433549103
0.64463263117
-1.04315143741
0.457530892749
-0.895294152461
-0.0453348802882
-0.131489382305
-0.856945095269
-0.874736174287
0.12463788724
0.101519318415
-0.265706201926
0.029568557226
0.4467284585
-0.25288731956
-0.424717448862
-1.26691607927
0.158471664287
0.117753093729
1.62377021898
-0.433367140368
-0.180081542005
0.921675414258
-0.586204809607
0.631459482546
-0.803791858214
-0.542857559787
0.0588667082004
0.144998449908
-2.94607605887
-1.20815225444
-0.35968592313
1.48850188961
0.890509832889
-0.718291673762
-0.524884923899
-1.11373284675
-0.515325156852
0.408546411467
-0.162185877101
0.892015028351
0.825810164337
-0.235162332524
-1.42538907156
-0.682098868759
-1.2825479627
0.57702525773
-0.0687248367872
1.61639250934
0.738980633429
0.756578474624
-0.902549160993
-0.718662638176
0.216486418767
-0.112811928399
-0.871549274166
0.0552337364555
0.393059954778
1.15252983908
-0.155995645034
0.947262102049
0.53685932499
0.307280591728
0.882561837896
-0.2783038915
0.494253785356
0.238925346086
-0.833783726813
-0.585699355273
0.806371229834
0.560356398289
0.600473741095
0.121986113797
0.0983802763577
1.02402398722
-0.628259742296
-1.34730474957
-1.36234890802
1.33872799667
1.19945333976
0.41575823181
-0.897276422194
0.121551761463
0.130640141139
-0.0295613778734
0.744010949451
-0.928737828565
0.0674315243961
-0.51358353311
-0.225639830437
0.638076841467
0.496277435076
-0.597629554939
-0.00214814463095
0.953969746145
0.186016664442
0.784333388711
-0.865001595986
-0.94005291725
0.212962012288
-0.34153435143
-1.27327561234
2.17418781169
0.234593656831
0.592967447629
-0.012149442654
-0.379381729048
1.25879022397
0.243526919722
0.502704948634
0.0362963435531
0.119621344243
0.910687291618
-0.599548075693
-0.615457301976
-0.100230437765
-0.227276165194
-0.537890633656
-0.962307660506
0.781816614394
-1.37945593058
-0.931834170447
-0.689785107024
0.36146182568
-1.09564059164
0.33283843002
-0.361402463143
-0.636940107167
-0.679077415023
0.595786159158
0.117760649829
-0.310668585242
0.335056598583
0.744287678679
0.709444285551
0.349179595015
0.880012194408
0.420526679456
0.0477715029507
-0.697012406084
0.0269683636347
1.05229745518
1.38612410393
-1.07171141277
0.0623581578342
-0.586224209371
-1.06831281115
0.440875134725
1.03089039849
-1.05283294783
-0.0709711534007
0.00440270543949
0.741284484608
-0.735630025712
0.849298201232
0.330393700767
0.522869369505
-0.408210568219
0.384848091198
0.453290096531
0.367188156028
0.173628859533
0.68333684927
-0.0207805290746
0.523291481396
-0.5817238921
0.908606718843
-0.238039269688
-0.909418793363
0.192902914399
0.133184786669
-0.296223388163
0.0712077362166
0.265150585953
0.0070595235285
-0.0575737644343
0.0734170513871
-0.334681455423
-0.359870636316
-0.326718242343
-0.0516035605917
0.636756610984
-1.07551404158
0.593076708328
0.658526014037
-0.1582608714
0.0354568072999
0.0411624501723
-0.88710917314
0.577504317645
-1.43285705837
-0.257229786824
-0.607046660178
-1.07854361833
0.755457492388
1.06184086307
-0.802103474603
-0.244999995766
-0.776492017876
1.03731604775
0.262912193637
0.353177960861
0.418974668942
-0.56946627376
-0.39114797386
0.683172794416
-0.235405158827
0.271809672431
-0.419566257269
-0.946841542697
0.292045570825
0.973050072981
-0.836861424998
1.1702221612
-0.702322713528
1.15799575764
0.544175531328
-0.317502580529
-0.935895440827
-0.598231610046
0.973745715766
-0.562111514717
-0.422324480872
-0.63767142065
0.367757854927
0.865894823538
-0.907249540704
-1.00947687298
-1.16270801712
-0.507889193322
-0.921671057391
-0.0562897353285
1.19290780864
-0.661899135894
0.563436210688
0.281619876875
-0.374688866768
0.502138086242
-0.53742896118
-0.915352837857
-0.095714393598
0.135888154276
0.33281232275
-0.570630925057
0.616064770623
0.107307060265
-1.12516801897
0.603381559831
0.212635466565
-0.674459017531
0.674585718032
-1.01344623865
0.0928121050216
-0.172258383806
-0.318735976172
-0.766235738322
-0.241169109016
0.44047533723
0.784682020372
-0.880293365916
-0.96978264235
-0.192810977548
-0.626585055259
0.491159491611
-0.68558000234
0.0621194433789
-0.494413105393
0.386122269486
-0.144015603583
-1.4563984707
0.368024347194
-0.363096144483
-1.16480689165
-0.571768859939
-0.791694216972
-0.926208882966
0.548281890278
0.172354251688
-0.57613448406
0.916059469345
0.110805621813
-0.610357002417
-0.996038518655
0.785201835097
-0.308193061968
-0.532251856374
-1.47371404776
0.502564214631
-0.212461099661
-0.0628720879613
0.0207311694315
-1.40256103874
0.276911906956
0.170265685173
-0.621335901362
-1.3582183094
0.391937509943
-0.311207604443
0.708183250499
1.19118901255
-0.449426251602
-0.58559569206
-0.87898685337
-1.19270766097
0.0454686952563
0.279943701071
0.414948517839
-0.57676326151
0.35398428706
0.672380835886
-0.339909909596
0.390105696224
0.885666972213
-0.337235549861
0.958430020238
0.741903337111
-0.19459929349
0.2394990425
0.760915729424
0.087335408176
-0.660660906701
-0.15256123803
0.766174997835
-0.718369198902
-0.233960641084
-0.490111318449
-1.22062342541
-1.26710318056
-0.50430282043
-0.864134453313
-1.35818386587
-1.11919186604
0.118722157589
0.783833233207
0.0729341614427
-0.647752057536
0.05349854851
-1.35927727337
0.740521018349
-0.168473184412
0.644957814556
-0.0630817242485
-0.0143914643202
-0.107170139522
0.609014385065
-0.721276599907
-0.361546656539
-1.22498313543
-0.217990248861
0.501107845706
-0.132426283829
0.276925414564
-0.564893896917
-0.768123565777
-0.6431119076
0.528685793528
-0.978582669389
0.566821156985
0.272797015374
-0.513178328675
0.297944643363
0.886068152167
-0.85253990995
-0.162402716537
-0.435290417472
0.571082949581
0.124976292866
0.140342006458
-0.497003991709
-0.596369088362
0.358221680423
-0.956237493103
-0.571523762265
-0.747374272281
-0.82381060694
-2.71165625536
-1.21941346204
-0.506010240496
0.88628277905
0.0357514060534
1.1419272697
-0.91336496667
-0.66013440469
-0.215686328164
-0.155651922563
-0.350387670101
-0.449636177498
0.157899730671
-0.273154267695
0.514091906354
-0.442620171348
0.868475862719
0.348286908814
1.15974668922
1.41100289711
-0.976574830309
-0.832584585084
-1.19114152978
-0.351197481469
0.297345068748
0.520722030949
-0.167360701947
-0.821445618845
-0.173662567041
-0.994425759742
-0.41425551699
-0.0253667038536
-1.00823244022
1.34549045785
0.15270632386
0.044998366254
1.28703160746
-1.1640140417
0.336005920621
0.0442512477077
-0.0252348738143
-0.465906025424
1.17433230201
0.622590616173
-0.742154003349
0.00206274184323
0.0903346182361
0.416385471383
-0.436692149169
-0.195158254258
0.704886168872
1.00175291287
0.87477326498
-0.051935137188
1.59220622055
-0.729773887738
1.37969754856
-0.70344334753
-1.050323276
-0.183533147115
0.558385557114
-0.469775984437
-1.15914089276
0.573784570115
0.365649491117
-0.22439535259
-0.956061285687
0.405819585324
0.428386450248
0.546896787994
-0.984420859138
0.240292665287
-1.27447947008
1.43879966988
1.10888430538
-0.94739863677
0.248952678564
-0.279842307812
-0.63757511352
-0.941697553062
-0.778510554163
0.565728166095
-0.0502766608014
-0.824756582495
0.377099265033
0.122152384024
-1.28729181571
0.945137405317
-0.126201762522
0.299285144963
0.946447156343
-0.333617963612
-1.1659779933
0.84075184869
1.21723224475
0.0393655374675
0.293195490804
1.2191618259
0.231136526841
-1.41254829876
-0.555126245117
0.705465469164
0.179496387994
1.16697036569
-0.642312594413
1.49150777977
-0.92317635241
-0.250367336457
0.694595236468
-0.245100509996
1.01187847041
-0.443605968624
-0.499733455385
0.437614406375
0.778090334206
-0.250970559841
-0.223458469047
0.865344508526
0.905465374934
-0.45623839262
-0.145512455978
-1.19794111196
-0.824090876498
-0.675910080033
-0.195949211732
-0.70949289317
0.252913106712
0.0715253770606
-0.16727862463
0.438356073876
-0.149877291622
0.719040338339
-0.822032875945
-1.24383870135
-0.12290199812
0.480604453882
0.688098310588
-0.665603779542
-0.171214364409
1.2329887799
-0.73046263562
-0.231532426206
0.466319752035
-0.445673270611
0.626145589694
0.680890333236
1.24169828844
0.0958703406749
0.242026303211
0.257397422409
0.213027943541
-0.637729571434
0.373493900456
0.569704036385
0.264303931985
-0.658947759554
-0.604731072119
-0.565895433849
0.284733015687
-0.508775648127
-0.362585929099
0.458864850353
0.426073390136
0.107646263106
-0.0941352794973
-1.15980976147
0.313572840183
0.568777786218
0.843678332919
-0.790222942639
0.0485566388929
0.706411233314
0.155407413782
-0.124489221103
-0.147871092055
-0.0445346624784
-0.0574184414986
0.0330349350138
0.520873652709
0.394101595406
0.127039864221
1.06258489658
-0.123946633252
0.475750445044
-0.101871689122
0.360118174532
0.0122484872722
0.0531277015764
0.311913573465
-0.943154602967
-0.695395013836
0.615431101646
-1.17773913607
0.00648931344881
-1.15360337314
0.143038614413
-0.942137403898
-0.00572821982917
0.668422237489
-0.0841036057861
-0.521861496299
-0.205220453539
0.766171638638
0.194918123696
1.12336894907
-1.16139559053
-0.151643637046
-0.260904977757
-0.940456547926
-0.100362872126
-1.16282330929
-1.54219106462
0.757369547554
-0.165005285083
-0.870514012447
-0.236521954598
0.359168473341
0.15455976852
0.57784372789
-0.218885794145
0.0557211341274
-0.768621783938
-0.720717499951
-0.766639604316
0.588561049294
-0.294416809615
-1.21595924762
-0.76879534633
0.113103920822
0.356855836747
-0.473137972192
0.418372812322
1.23287322577
0.591731423102
0.346478404338
-0.103204469948
0.167160856215
-0.52992360678
-0.527278521956
0.00996049342749
-0.140429665189
-0.854999135051
0.857028813272
-1.29546183033
-0.772169364769
1.26961443039
-0.643765027153
0.511894184323
-0.27246655918
0.687132774711
0.56796611445
-0.983176477755
0.609769474101
-1.20877135655
-0.0725556619633
-0.242738493564
-0.674687279694
-0.652205690523
-0.980109500225
-0.50979749141
-0.701314506381
0.673662873512
-0.312748401208
0.681799927389
0.659169994477
-0.803899410951
0.454024387505
-0.878571692938
0.567952465028
-0.931785122432
-0.119774035765
-0.170522413774
0.990191088644
0.0700404271945
-1.42356233984
0.547541432608
-0.828577772714
0.055263130518
-0.61980974588
0.0196298949882
-0.304850644938
0.0686206411978
0.168752597931
-0.959456464924
0.354506200862
0.584648314699
0.175366757632
-0.541153382714
-0.882080870549
-0.595950972073
-0.265529372676
0.0415850626437
0.232856436956
-0.374460620225
-0.403663286813
0.403162612912
-0.693465021445
0.27808882826
-1.0240569144
-0.443749370948
1.01668933865
-0.399534934789
-0.306108705034
-0.808759605453
1.02848294424
-0.650349956964
0.0481372628664
-0.569924834577
0.207195495618
-0.610731505471
-0.655559422263
-0.367819761276
-0.642013561681
-0.372550333622
-0.573667374514
0.844183541199
-0.0339446554663
-1.25985330292
-0.369723698364
-1.05582128426
-0.117695382284
0.302372697871
0.881868153463
0.0344648574959
-1.01454010172
0.285314253463
-0.799524526143
-0.768481608991
-0.313688365296
-0.379457874148
0.187982388858
0.436262948752
-0.275025928328
0.490435518321
-0.0475930580222
0.00387505461716
-0.101515453913
0.698297910251
-0.140236709929
-0.84587893923
-0.364483751469
0.641057907304
0.798622909117
-0.477035129816
-0.250694204194
-0.904864494183
-3.53150489206
-0.880663291455
1.08190425016
-0.792106665649
0.320447889128
0.593127466413
1.04062052977
-1.12491239107
-0.434273542976
-0.192233717053
-0.691309047707
-0.420448326731
1.19053058213
0.299409886472
0.388525391866
0.885281688601
-1.01013353826
-0.674596999216
0.140315335695
0.41198495945
-1.43811279213
-0.94144649075
-1.03885395535
1.00157497763
-1.00245463375
0.209948840956
-0.475133193202
-0.890878544146
-0.787323251097
0.271193850996
-0.400454744722
-1.47734328252
-0.069999822958
-0.732357545855
-0.541653210125
0.239977750684
-0.788415004125
0.181200252589
-0.570008100938
0.595868382125
-1.07248082893
0.143977911026
-0.820025926473
-0.837770644627
-0.910178384174
-0.941771153441
-0.93400054531
-0.331889407231
-0.692042176142
-1.26874891703
-0.183394448266
-0.464765121403
0.30787764485
0.413717129038
-0.360266360583
0.173275298948
0.44147499312
-0.189838392787
1.2860414214
-0.126433252659
-0.967706389855
0.104423507457
1.12179418121
0.918796755843
0.852955775497
0.600368638218
0.588784526837
0.955115301876
0.484080735048
-0.833223655225
-0.218359822182
-1.31585299242
-0.660577255534
-0.393286100226
-0.453607868339
0.206905752853
0.079340331759
0.95442756607
0.68710036413
-0.477603535907
-0.583436131833
1.41184006951
-0.0357137343104
0.862896527164
0.842638500041
1.04973449404
1.18868882113
0.524955098007
-0.146350878832
0.201629695172
0.777381841669
-0.373302764911
-0.369336792216
-0.127970249967
-0.155658806521
-0.646565570855
-1.25393123182
-0.282925010602
0.214174166276
-0.973911090618
-0.845200604533
0.952861915205
0.475269995893
0.0262018019954
-0.27266225559
-0.404469627867
0.433479987628
-0.898941388386
-0.882350298543
-0.822804382849
0.942991329412
0.624787201319
-1.23106345607
0.529360302855
0.7873246799
0.35652758273
-0.686258561131
-0.312858018523
0.369907535004
0.8137346467
-0.949460605396
0.400766016377
0.5587686095
0.152669488604
-0.973069515638
-0.311495236118
0.150995484857
-0.98811782585
-0.764960898815
-0.111318964517
0.63113911713
0.40969178216
-0.493057794565
-0.893882049639
0.607627370326
-0.881909098562
0.804771218466
-0.706080390122
-1.02091699357
-0.492865599311
0.0319371468795
0.335963930599
0.712608160064
-0.80717098838
0.0930643082601
-0.719381426312
-0.835424323559
0.243766254597
-0.741433648146
0.40153769275
-0.782401928765
0.727526149964
-0.0634348813709
-0.785454043925
1.01854042544
0.925192757659
0.18008686937
-0.455679549758
0.473093417014
-0.798421298814
0.142216790252
-0.147595962522
0.187485745728
0.884761045306
-0.170898752673
-0.00816262207453
-1.0395830173
-1.20204958191
-0.941194157227
0.313403135771
0.504520843021
0.853140434472
-0.420975923286
-0.810460309812
0.634417851928
-0.932308166404
0.429085514947
-0.119416126705
0.732783332106
-0.575911668009
-1.22889775702
-0.862460158851
0.915701923275
-0.796232759141
0.805567177051
0.593675123558
-0.792684599981
-0.780216780144
0.0376676223225
0.752715791625
-0.522541439651
-0.0751137310611
-0.685876631078
-0.474755075539
-0.095668087442
0.361890337018
0.597721390035
-0.569939701872
0.805184138522
-0.14766523968
0.173360081088
0.683984809162
0.759981265175
-0.572814608639
-0.694117345218
-0.0946388888942
-1.39068617857
-1.09121304485
0.190076911488
1.13610843579
-0.100225167242
-1.32089248001
-0.94526406416
-0.0867206372798
-0.0885761983965
0.46247305644
-0.770493149331
0.834076216636
0.755481578335
0.267704974496
0.104618615107
0.396832062264
-0.910624217297
-0.554777473054
0.405333949698
-0.417786489267
-0.136012831409
0.146722192541
0.307509644975
-0.20260373677
0.379724121952
-0.0947530897346
-0.606168551515
-0.602373535196
-1.06349683421
0.376955346165
-1.20897928333
-0.11920543594
-0.2902884388
0.223092835855
-0.496347381963
-0.827456971169
0.277473676962
0.424069616579
-0.126254943334
0.228805070994
-1.3342081991
-0.574037610279
-0.600660416227
-0.543305972575
0.313541930575
-0.504705710072
-0.758737912104
-0.35440449857
0.459855510834
0.305819528807
-0.577229133481
0.323700935376
0.949897407355
-0.176575274908
-0.84256176783
-0.045486017962
-0.166041297232
-0.397574324471
-0.19592731684
0.567557516926
0.315008787988
0.744920007903
0.692590278122
-0.572344323395
0.111401470912
-0.254583309593
-0.561675691862
0.694808548905
-1.23232333794
-0.1817471226
-1.14002910296
-0.747865245386
0.234546549403
-0.229510713678
0.691923790402
0.0530395199854
0.933908670416
0.575872488202
-0.766394269727
0.258786747268
0.473902143719
0.957067462004
0.132014394106
-0.729858573912
-0.242679346491
1.09478915937
0.339098336892
-0.718098733054
-0.311375183775
0.079591395037
-0.192633685398
-1.30163075525
-0.977445342108
0.0337171753795
-0.832008257019
0.719624545196
-0.334112085745
-0.987243528191
0.343247445636
-0.477419428803
-0.970919085788
0.700951839398
-0.719459904422
-0.153612691462
0.0472157498487
0.609797056527
-0.835926558796
-0.288456885617
0.5169983526
1.15605970927
0.408810024866
-0.399116478655
0.916722354609
-0.103275120991
-1.05455602097
-0.848895678245
-0.0409276275607
-0.524280993578
0.129721882605
0.197577824573
-0.74869532845
-0.97213945001
-1.12886115378
-1.19614695276
-0.704238393316
0.914459069578
-0.558478127295
1.11182166531
-0.287676329459
-0.86056600704
0.901347665148
-0.96775611176
0.555887256317
-0.656234301716
-0.944627815407
0.6820479025
-0.42764019817
0.527116940255
0.817026577283
0.539346545889
-3.18704188244
0.466071207168
-0.754067788652
-1.02109111437
-0.262769819729
0.15278916056
-0.0500967850675
-0.0990775884552
-0.575043120246
0.303466128174
0.282142460148
1.11962709467
0.640944308696
0.876443789301
-0.274729347672
0.643195865823
0.814746611602
-0.450710983336
0.762339731266
0.95210996729
-0.200266553703
0.567342799994
-0.531538972807
0.6822820703
-0.14124934202
-0.765129546453
-0.0155987625134
-0.894465864957
-0.0157954050115
0.91933571365
0.800561963484
-0.187773092365
-0.37573686548
-0.65277459229
0.328047033359
-0.437716432378
-1.20838019539
-0.226646757177
-0.734706738569
0.414328176667
0.261321006006
-0.0686975845185
-0.649299433369
0.381619360997
1.19726454767
-1.11258853169
-0.488587686814
0.651098379973
-0.60722286395
-0.657311922462
-0.311018528372
-0.423993827388
-0.475566289369
-0.585994524201
0.274946537716
0.723578632098
-0.622897701371
0.622868445079
0.213016002158
0.162695051257
0.996827975319
0.468950602743
0.146455233801
-0.148829625648
1.44587832191
-0.901054982299
-0.929481072958
-0.54367410311
0.872111011469
-0.434656515194
-0.424272420322
-0.849598626045
0.0515933535477
1.98768504287
0.882734164514
-0.51317377914
-0.54902358699
-0.583231578478
0.789344385365
1.49616365002
0.0931163024417
0.0174347164566
0.802190487901
0.270188517642
0.306985316686
-0.424969332674
0.625325355495
-0.938803857941
0.453248746747
0.910708951979
-1.15691733719
-0.703701309173
0.777378250695
1.54659583078
0.245016412001
0.201874632356
-0.753900105806
-0.160505014139
-0.552854363781
0.379589557104
0.304112466483
0.805710195148
0.0895885616075
1.08544949306
0.0121088399038
0.11866541534
1.05286249304
0.669116566994
0.141487947979
-0.334589473447
0.245439620294
0.424106353014
0.765029079728
-0.2360928726
0.721597577333
-0.741637203976
0.500463565825
0.875721548977
-0.50272885381
1.44511704545
-0.698410861149
0.25698823093
-1.25798231987
-0.2978575791
-0.766472125494
0.762669089075
-0.544690156504
-0.115939189379
0.234866403569
-0.0249239273823
-0.589755985217
1.16941101623
0.718951027841
-0.510652292837
-0.744224812307
-0.376173109409
-0.422739946933
0.322620648782
0.566170010082
-1.25826280088
0.105863496419
0.348712315397
0.211653072818
0.839964275894
-0.724383017652
0.262393614601
0.221337671132
-0.060315219646
-1.31069959023
-1.13539821344
-0.295200189844
0.515228251664
-0.329651769012
0.789900784288
0.274995279995
-0.425454601062
0.930653817243
-0.852491106244
-0.676639893614
0.0441968384185
-0.260083741538
-0.370052487649
0.384733410613
-0.362284601294
-1.21667894016
-0.386979495495
-0.544065398699
0.234707913493
0.0471776186414
0.0670009695142
0.237178929343
-0.908341865283
-0.0999994914682
0.426136150524
0.13296986291
0.743298731615
-0.537313556472
0.113850686693
0.158463987433
-0.401939543064
-0.144837667516
0.160632750778
0.125723245908
-0.591134308607
-0.632971077752
-0.516487794167
-0.973935500787
-0.322289359479
-1.36635625135
-0.94809044102
-1.14155910576
0.691199437878
-0.607044358238
-0.310899821081
-0.557169066879
-0.260991201795
0.417356850142
-0.0172542550449
-0.863594181026
-1.29331864285
-0.950648199145
-0.447378242104
-0.862122607539
-0.554131687764
-0.329969059775
0.1490714945
0.132032891668
-0.0533904954137
0.219976431342
-0.57144385823
-1.25291939692
0.286142728406
0.545455328757
-0.590023398569
0.0261960136355
-0.296462552071
-0.862064403108
0.757488966014
0.654232121451
-0.965403155598
0.464592257547
-0.275521897487
0.394905960078
-0.66633498712
-0.857870758382
0.908172377031
-1.04287595737
0.5332310232
-0.00120839899069
-0.154260019918
-0.170340577339
0.207652438888
-0.15897172674
-0.0376311498424
-0.102353359164
0.742232937253
-0.559919854231
0.234483248893
-0.432787803128
0.697133307225
-1.03700342176
0.384962771552
-0.195813035745
0.403324632745
0.745980766688
-0.939266408296
0.278484754776
-1.22212122838
0.243625769263
-0.133776465902
-0.560078098642
-0.144338463701
-1.23137643503
-1.36029015006
0.0863855069425
0.0631725086021
