#[345, 250, 164]
-0.729040016461
2.46610356939
0.349987000134
0.167799412121
0.748202974018
-1.52816911713
0.404832096291
1.44102745013
-1.42411472992
-0.256910726361
-0.0381449943738
0.157793210019
-0.837808723329
1.23391928606
0.177250984767
-0.594688277053
-1.13362117914
0.245637064594
-0.28146174199
0.0517006466156
0.338967472531
-0.614012578475
1.37261228829
-0.545625094463
1.0387178851
1.38158797473
0.847923183326
-0.393584524092
-1.13559609571
1.18325641584
-0.180004472024
1.102844733
-0.464134277884
-0.517307003782
-0.657425610885
0.227376702611
1.54579867678
-0.0865299153571
-0.941918498939
-0.233161115057
1.35373215495
0.506987252355
-0.394061485854
-0.337354013601
-0.795466228026
-1.42575294249
0.388508929136
1.64078874951
-1.29354009708
0.963114718286
-0.632762379347
0.0124835802275
0.285218601842
-1.18063013759
-0.286214467387
0.891291778588
-0.0815540585196
0.623715156526
-1.2920951802
-1.12246274905
-0.950022604262
-0.752574943475
-0.605957512419
-0.428979254877
0.947493494881
-0.726342231714
0.0583641621736
-1.28404192452
0.50961634549
0.720899181352
-0.645449626147
0.717125327632
0.0484917096631
0.253896880078
-0.564501242847
0.00999318969148
-1.15278369618
0.482519494883
0.625033853713
-1.27284175968
0.638666723507
-0.798319114623
-0.207554657806
1.24920806743
-0.464234434925
-0.0332927706366
-0.598329613155
-0.290388547737
0.233482637735
1.24785594358
-1.61840456594
-0.999538988705
-0.752087382632
-0.761646557541
-0.541866573889
-1.08357078991
-1.33958206179
1.19416619488
-1.01425273233
-0.985496981598
-0.382515532634
-0.698711304868
1.2534915206
0.497622767958
-0.182247671153
0.994640029542
-0.878173398918
-1.17577317137
-0.00918429592856
-0.926898829287
-0.114082512642
-0.433675421612
1.46791533016
-0.45550055126
0.388236688222
-0.522747793495
0.471447369722
0.371780256489
-0.205596359233
0.0401752883474
-0.367816522021
-0.704972412903
-0.314741110844
0.153824301805
0.240015020038
0.213293755697
-0.130144891154
0.336111545383
-0.0226636365925
-0.714676806092
0.0060393616734
0.812593148385
0.154643334928
-0.618945054827
-0.0108857775975
-0.7258139815
-0.890388839338
-0.580889340032
-0.559443381737
-0.0202851321045
-0.37423515302
0.123459538228
0.381762083288
0.346342910273
-0.0885029483516
0.326342782369
-0.227448426141
-0.151299914571
0.0925224593063
-0.282197668913
0.226576769088
0.2835008839
0.446191209741
0.386092069645
-0.536130378616
-0.429647709675
0.355751410911
0.325226457831
0.127078920899
0.320864243651
-0.307553480419
0.149754641158
0.361075914755
0.190599718313
-0.0363084583359
-0.593788732555
0.0602007260835
0.264288509707
0.657093656009
0.453360769336
-0.668089660657
0.688767287022
0.332241518347
0.0342281942065
-0.847992255086
0.541249704862
-0.509933574257
-0.0631309544976
0.171352825459
-0.223158614301
0.366435383644
-0.587061723904
0.32640245631
-0.19730586927
0.253603497789
0.552011079281
-0.426564234495
0.39899561336
0.239902039919
-0.231214650953
0.551997580416
0.349177083458
0.433130545858
-0.343574655369
-0.0288651866235
0.103623252397
0.606276548899
-0.533247520699
0.193567923256
-0.619351032393
0.236139948817
0.250461759834
0.75432855254
-0.0151638408679
-0.15892469443
0.351219391916
0.182359066066
-0.149434289051
-0.136851613809
0.542467918505
0.367232182388
-0.198310551247
0.630170801594
0.225387675744
-0.446177417522
-0.45033303636
-0.118216162639
0.104728162006
-0.580225395026
0.0787376004268
0.0700807559963
0.218354961958
0.692435883583
-1.18234148548
0.443254333043
0.110733751886
-0.484276453375
-0.548812181709
0.080206895482
-0.0309772555517
0.486408679761
0.149538635231
0.204688552563
0.166478499718
-0.220879555675
0.316353783247
-0.218113672732
-0.203966954492
-0.617149047015
-0.320913456817
0.129306015157
-0.481282346721
-0.461645522535
-0.128136627457
0.74021675869
-0.729186672953
0.0530192647333
-0.0852193419049
-0.641760413435
-0.047808655949
-0.202115980911
0.134910794626
-0.0709928255502
0.566960973677
-0.196175411983
-0.082916778963
-0.0704680346773
0.0203195342446
0.239285768927
-0.236446533479
0.0793824104846
-0.0846776313902
-0.42801489664
-0.20956319252
-0.31544379445
0.531196740671
0.138834850625
0.186479405165
0.281028633435
0.47651531307
-0.367410053856
0.0168678696352
0.183200395807
0.39306948145
-0.0921595551941
-0.0373998406703
-0.183028706815
-0.0453457047387
-0.0141186738663
-0.398150978497
-0.531160012039
-0.0807172428626
0.459486940291
-0.436187668687
0.122408591534
-0.5309112334
0.26484642792
0.394688370422
0.0389123738615
-0.43646995587
-0.0388032742393
0.500624090775
-0.152251688154
-0.27328509949
0.346201772626
0.0709006951038
-0.610169900603
-0.104986335059
-0.0578637396738
0.508276499657
-0.271855715003
0.0385195426628
0.0150336829196
-0.087418888059
-0.274708135537
0.161661555757
0.3088941079
0.544112981053
0.200939666935
-0.146980825245
0.29085619056
0.087075654553
0.145874968938
-0.292085779006
-0.503817120571
-0.702987526009
0.599970355795
-0.643397939049
0.239554006061
-0.250900464591
0.0221689223398
0.252565556561
-0.854775890846
-0.153019131829
0.410659497347
-0.0876550283676
-0.163338535741
-0.110855604142
-0.120235101477
-0.121703069805
0.125729301023
0.404629412968
-0.534894665033
-0.258888249028
-0.0295761704861
0.352636881205
-0.605178397814
0.501960430476
-0.518841938032
-0.532468975505
0.586828575662
-0.25778753576
0.0362616438727
0.460710484131
-0.11718490493
-0.20779672781
-2.62012941984
-0.454461685095
-0.446305023715
1.08582452162
0.854574241566
0.903199619059
-0.785623575619
-1.2581327913
-0.906531947345
-0.582028803624
0.0357496609006
-0.00646714658874
0.104965365599
0.777858208079
-1.01552811114
1.1516043639
-0.5606205248
-0.0446185394039
-0.0204934615821
-1.28622050928
0.0220024513743
-0.0345896614554
-0.46269392401
-0.433948721718
-0.429320188306
0.486056501812
-1.13410918333
-0.74130928615
0.142467024237
-0.615198966807
0.619153349569
-0.224563911577
0.262412222466
0.0773998435134
0.263318525221
0.728008688578
-0.211652563438
-0.240305081399
1.10330853002
-1.15812763672
-0.864016223024
1.15095881736
0.154342004531
-0.795785398578
0.893668688024
-0.851716548184
0.762854107105
1.88634457835
-0.237757366708
-0.811613829736
-0.953223050884
1.08378289045
0.507820522013
-0.761977231478
0.0864402082399
-0.735758054888
-0.806129379522
0.876486794975
0.880917175035
0.524201976402
-0.0671586126302
-0.140469248835
0.475053915413
-0.46497804967
0.335965735112
0.22577309006
-0.729256784245
-0.000152270917747
-0.445731191501
0.294828316257
-0.14266491002
0.710388954912
-0.861800144499
0.230588948936
-0.47927562908
-0.901556670376
-0.191075351588
-0.102705613834
0.433294917101
-0.287558979805
0.191662122765
0.814475536695
0.505760015638
0.156214462129
0.635224826751
1.47867420538
2.2221855649e-05
-1.01470419638
0.154438884556
-0.723749657259
0.504394553738
0.473745810172
-0.829663420783
0.775415454199
-0.764198922849
0.194465735024
-0.251067075885
-0.49098990467
0.92251778304
-0.552453942082
-0.0818803000668
1.15441262954
-1.00537752144
0.315044678454
-0.518376451998
-1.10170864999
-0.180388599991
0.349577368418
0.258361465813
-0.142833826421
0.186849056129
0.65502967986
0.0341824306704
0.436602843598
1.87349560228
0.279860469211
0.261668769855
0.796364400285
-0.622511505257
-1.18580704974
0.655662030674
-0.550473505614
-0.0340452937882
-0.952266774026
0.383306705741
-0.122442331311
0.667372541684
0.594933035311
0.755074013556
-1.06879561459
0.281606347325
-0.343672492925
-0.826495204617
0.613229559832
0.755924528811
-0.254416588944
-0.0352389055523
-0.573158022357
-0.757870987011
0.0375544936084
-0.414927048098
0.370392133194
0.247604870242
-0.133887409893
-1.05509514501
-0.282441955773
0.921868994465
0.706023090445
1.2864530562
-0.677191572106
0.221114443588
-0.00555891177797
0.461336610813
-0.307866752125
1.13287605685
0.183671749396
-1.31009047202
-0.701574185404
-0.421400062013
-0.687230138797
-0.255321564506
-1.11631578327
-1.1593825403
-1.12848823708
-0.785561562374
0.682458636805
-0.197193958038
-0.224751466915
-0.598647646757
-0.448715973509
-0.567040392936
0.201613015199
-0.425318441389
-0.679759036176
0.0761842952068
1.03995724811
0.174884249008
0.779698029324
0.880578733826
-0.747485083959
-0.0224634273503
-0.234089075936
-0.313920768756
-0.386508992091
-0.840962272793
-0.307416965306
-0.114470755591
0.769132804323
-0.871996731004
0.88816444877
-0.294209049413
-0.521628069787
-0.852496857697
-0.0096876084531
0.610818429481
-0.263834761127
-0.068713037712
-0.738856151282
-0.463896658643
-0.734728878281
-0.148297805029
-1.21184501358
-0.464522727512
0.550392273178
-0.907074247436
-0.200002947382
-1.12606313895
-0.361113309002
-0.33007516985
-0.878168513388
-0.892419926243
-1.10000895039
0.0875354798688
-0.422946733914
0.534267606576
-1.09262436524
-1.20024962054
-0.0302984780621
-0.993631301797
-0.688865728995
0.492247893754
0.764888753478
0.245446799518
-0.376601962331
-1.26807118959
-0.098438340813
-0.194063528335
0.628312749971
-1.42534902854
0.184253520121
0.180069539711
-1.22449692549
-0.852465784098
0.817853913217
0.761302987856
0.354937969765
1.051469729
0.119201419611
-0.423792861501
0.0924665006132
0.183843170048
-0.17735074434
-0.125426838813
0.348237034746
-0.915446104875
0.107687041772
-0.494131201893
0.394557061236
-1.08231313454
-0.719484048858
-0.0475595255505
0.478472631365
-0.774699134236
-0.226283566831
0.501431796856
-1.06913276466
0.00154772596942
-1.27867787908
-0.289722178329
0.279797041199
0.0306734036502
0.559975223806
0.438451120995
-0.828919080981
0.817338242405
0.17410632142
0.406162913342
-0.536643927825
-0.827624494866
-0.622701227978
0.319393576055
0.916177619602
0.0166085633167
-0.307581432957
-0.642730314168
-0.207301001039
-0.84955591067
-0.172314874729
0.811275823872
-0.59330435156
0.326922952099
-0.664342662407
0.179745473752
0.56697778944
-0.718309887715
-0.469054703954
0.137040654702
0.665258973069
0.192597613633
-0.511819133621
-0.417058706854
0.334806918703
0.3720478866
-0.539525458416
-0.504835041131
0.270185669477
0.594104815524
0.0532794140809
-0.0437827336027
-0.15998940615
0.5189587441
0.419656364777
0.0995393537304
-0.03594423142
-1.12958743262
-0.897403089017
0.495239312692
0.0420905920078
-0.0604458984485
0.335910024723
-0.446040733416
-0.40668858548
0.490689841021
0.365043374536
0.262539856145
0.469637603429
-0.330148738742
-1.26814643717
-0.993517052065
-0.858975168291
-0.133640308166
0.516000609566
0.81331135988
-1.01337741886
0.366244581739
0.357161346094
0.105873677485
-1.3233349512
-0.158479358282
0.405650248174
0.315237879313
-0.627240222029
0.136021887305
-1.13857016853
0.655537357804
0.536208243982
-0.3522054546
0.521252004009
-0.878166708252
0.285029404353
-0.00539449714077
-0.793526444019
-0.0371182934646
-0.16099049008
0.733977865853
0.360900111364
-4.00687915086
-1.47905971703
0.301690464686
0.509294488799
-0.0316408791301
-0.00257291053696
-0.855904600547
0.144506320963
0.369770950989
-0.897539525828
0.346434160226
-0.740237801914
0.966626354565
0.205865169592
0.716877447482
-0.631576324948
0.890934422441
0.77689584292
0.910143882265
-0.6354344565
-0.979521846604
-0.367568238131
0.331921741713
1.08672212872
-1.05484536923
-1.19381451998
1.10523385576
1.20800330284
0.440043089524
0.319293092172
-0.0665136675199
-0.63376699609
-0.632647206904
-0.577650547108
-1.05261367019
0.0399564522443
-0.457072059181
0.134238874657
-0.402132654621
-1.11363713
0.843853093454
-0.270114281274
-1.15879420139
1.62444807116
0.648089385689
-0.010122754272
0.48467861616
-1.37760604523
0.907272697907
-1.17340330282
-0.193376505421
-1.13638956038
0.344103429965
0.937029480625
-0.11991416326
-1.31455544365
-1.18663862464
-0.675088000194
-0.593708637663
-0.121442559528
-0.436145065286
0.394703232506
-0.359799927622
-1.05855910291
0.0961375445558
0.0548230910604
-0.0156327153691
-0.523882038041
0.470260825199
0.842152857732
0.0254847825247
0.608354906641
1.01637766751
-0.0737186807845
-0.0888836311958
0.316390042578
-1.00005707286
-0.129543801078
0.217545935805
0.95260599975
-0.955241253652
-0.947421756418
-0.745327826654
-0.196452177923
0.344272407382
-1.05253903327
1.18335852765
0.59228042279
0.360717689538
0.103640251402
-0.830761768426
0.081023794377
0.822290407548
-0.358470538134
0.574765268658
0.999556858213
0.839758172989
-1.1034070648
-0.287110378991
-0.0667750818638
-0.366148456782
-0.83162283433
-0.767409893393
-0.766960025486
0.295239357738
-0.981572078473
-0.121594371823
-0.958534645527
0.493852762424
1.0825311909
-0.221390610125
0.923017909657
-0.858502707397
0.348759899905
-0.643865164727
-0.30973100575
0.656568198755
-0.20197778856
-0.182850083815
-0.971298429722
-0.940296148578
0.72099356623
-0.141363247841
-1.20515268109
-0.729345418022
0.240950068412
-0.894391754016
-0.858160468372
0.661555842353
0.344651703693
-0.836982479597
-0.27689441568
0.71430337222
-0.893856577376
-0.305805392555
0.283448397285
0.0507728329016
1.00684722023
1.1321778408
0.0783440117636
0.122206308911
0.513046352582
-0.916770325994
0.0139805837497
0.248709290165
-0.544501709002
0.0260162158083
-0.813760480593
0.476368211974
-0.794262483856
0.293057961672
-1.11068714238
0.304794439103
-0.817939596609
0.501131650213
-0.356965166725
0.256877323868
0.209026357243
-0.797573857312
-0.758344369463
0.300103030403
-0.0239332795822
-0.760998417701
0.941944684217
0.244293503012
0.492519599632
0.856048380544
-0.893351442572
-0.418199110913
-0.701451328121
0.385953017188
-0.245089273739
0.476558794342
-0.346548911649
1.37800049705
-0.191539341874
-0.39462883694
-0.305193566139
-0.901646278447
-0.788167790757
-0.973184166813
0.413910851891
0.726761373481
-0.253654212696
-0.11112005381
-0.955384848227
1.17735770292
-0.629442949483
-0.872400418039
-1.075610738
-0.646031713126
0.240028994558
0.539191004236
-0.781082041944
-0.253983687375
-1.32694544702
-1.53328297226
-1.12349118168
0.0639175681841
0.0163296558865
-0.0329038184119
-1.11477887475
0.608119604648
-0.930776719901
-0.0372644999223
-1.10062472657
-0.098209732438
-0.0868698238503
-0.236861443649
0.304818844275
0.942953039103
-0.137564511861
0.592624070264
0.668033898165
0.40778183394
-0.748054376558
-0.213959810025
0.104017447006
-0.596570141452
0.298807066168
-1.24334823461
1.16083118544
-1.30743212757
-0.787981348925
-1.26319318585
0.0975851626659
-0.724266559948
-0.239865296279
0.172341682518
-1.19922090746
-0.0531664568068
0.193939492626
-0.921406409019
-0.916666928635
-0.573705043944
0.244064026878
-0.118339050811
-1.36692549463
-0.0768960523732
0.743504870109
-0.207884133845
-0.89508061387
0.565174771661
-0.666752805029
-0.401589835964
-0.129607371614
0.723883361729
-0.100824094537
-0.684729520343
-1.48168619395
1.00209242949
0.692587975254
-0.98759778244
0.698077771531
0.713147798383
0.533936174245
-0.797346043404
0.75266738508
0.1280486655
-0.415375949665
-0.455735400833
0.448184038244
-0.139972922662
-0.303467794977
-0.451180664581
-0.843244559382
0.10397070537
0.263287289085
0.757923426226
0.510049288562
-0.566994967301
-1.01520043907
-0.724430009483
0.470943258133
0.613961725633
0.976389211785
-0.454829933351
-1.0254309978
-0.718552657111
0.439208418067
0.569854049225
0.404838226759
-1.10293452355
0.580755293218
0.42303957628
-0.39434039589
0.405109961325
-0.614764087158
-0.920603878115
0.959971200369
-0.397411047989
-0.299382962003
-0.693499445948
-0.622813370439
-0.494182275634
-1.01918388448
0.468763308426
0.310766218349
-0.22512755532
-0.368866243986
-0.977542161145
-0.59730321578
-0.221316145602
0.549544139862
-0.745634715881
-0.0391072333378
0.33282894262
0.365874246077
0.547003294149
-0.954021284562
-0.867605385614
0.548947944653
0.0314264484647
0.452398774252
0.855818035246
-0.694418494355
-0.284366704844
0.675808226607
0.847253666588
-0.420326714228
0.720417930159
0.219366105094
0.110627343835
-1.08260265678
-0.390394462517
-0.774822394588
0.533383447886
0.137686922718
-1.42875382775
0.805249610734
-0.629298103922
-1.15275953946
-0.257147212586
-1.08730254573
0.016155904184
-0.323281624987
0.599909882163
0.718012664573
-0.964751022944
-1.14816939674
-0.543110900054
0.197846459898
0.785485115066
-1.07072514136
0.790648451495
0.203055138144
-2.03179705611
-1.61901024892
-0.838461396847
0.939146579903
1.89483695902
-1.20039972382
-0.82085218215
0.839825371165
0.287728721553
-0.258914751152
-0.0811575411531
-0.514345077683
-0.983452429533
0.479983003172
-0.798599397061
-0.380453855791
-0.121885974131
-0.82664785484
-0.691068332407
0.138807814483
-1.12487217006
0.177327029018
1.72378195437
0.950978412296
-0.90753598045
0.45980689652
-0.305236308992
-0.850968307279
-0.300189376266
-1.54513319278
0.661822754013
-1.63873197658
-0.780699574958
-0.98225038598
-0.602014964758
-0.283963062359
-1.02892319355
-1.21638812513
-0.157513784279
-0.448094818811
-0.949390547493
0.296227422018
-0.00224136239626
0.470541023567
0.0137991531789
0.368828773906
-1.22803257748
-1.22527979969
0.0625428781444
0.248340946245
0.125476756763
0.0231655204224
-1.25402253796
3.43690689809
0.723742446661
0.841159331522
0.092602451562
-0.620839257931
0.66804191033
-0.413365844141
-1.20885807146
-0.445659183383
-1.56287708184
0.0731005132547
-0.961645143508
0.124659700926
-0.804538921039
1.72030477412
-1.20170198299
-0.916442208139
1.06143485231
0.508768754292
0.532295543282
-1.13226807676
2.10680047933
-0.470746104763
-0.677713925993
-1.15023260002
1.50211398847
0.460245150963
0.646550277426
0.272266173866
0.55935256918
-0.584606522376
0.921723948939
-0.369957254437
-0.0521170858451
-0.65563888536
-0.259687220724
-0.0850743235741
0.622462785753
-0.577253497576
1.16431626457
-0.35552038851
1.95189423073
0.85194914913
-0.316469657489
3.86365304893
0.643826949928
0.479322579072
-0.6593998606
-0.146771580974
0.0659352808261
0.0798924298403
-0.281687653233
-1.33831939969
-0.103757312846
-0.538668524191
-0.128115895015
-0.506325019087
0.209995828063
-0.056824227131
-0.376556069831
-0.589486087826
-0.720712368647
3.27087659812
-0.579527516802
-0.400097131024
0.0190224504725
0.241598189093
-0.337349736231
-0.11786229954
0.00294946733069
-0.875906084823
-1.27544865436
-0.10734765804
-0.126684411935
-0.0645598417801
-0.90682506816
-0.0508549768445
0.44113433673
-0.0164617780851
-0.365883274463
-0.0254473179251
-0.342665000302
0.312756194263
-0.46257895748
0.481219130518
0.0895647076906
-0.273517660901
0.242926486444
-0.33481589667
-0.37647579334
-0.748637874279
0.396386243362
0.377120796529
0.109004275071
-0.338988277505
0.091219801392
-0.707028971534
0.579228910522
0.70571920983
0.343422544334
0.301765800102
-0.725696855927
0.0454798661754
-0.885065978941
-0.234761602049
0.503327255807
0.380609467971
0.0226599212521
0.13521819842
-0.324866163614
0.166795536777
0.136613533341
-1.04163260516
-0.227301374845
-1.18550168618
-0.02120764584
0.552960209356
0.122936444407
0.206875410587
-0.0530431911946
-0.323352514557
0.0798130912794
0.0255792049309
0.147273435782
-0.0147835518724
0.0222071573764
-0.0430843126778
0.25851828537
0.627743279916
-0.0141115041592
0.207308660408
-0.49749998546
0.156281239178
-0.293508784549
0.214097735234
0.0613859486714
0.6148412282
-0.19936770259
0.00221394414551
0.250482401433
-0.29200121092
0.0562375749088
-0.127721113739
-0.759726879351
-0.230123149314
-0.209617866873
0.573899469538
0.540224543863
0.177266359409
0.289271160957
0.335795272124
0.0237101762779
0.0226941546769
-0.618578694266
0.505363337258
-1.21681576128
0.14317545975
0.0221385760233
-0.124676907671
-0.303134037768
-0.410270415813
-0.0695984604344
0.346631800807
0.391002363891
-0.285464416235
-0.17498840344
-1.10152376723
0.274886058572
-0.0957821268919
-0.876785808309
0.0169418704369
-0.470068458207
0.147366598423
1.03671866752
0.0593237787312
-0.265662792053
-0.481832057156
0.468050085006
0.137314692077
0.552197028564
-0.175072162611
0.740606040873
-1.0445659981
-0.395160142537
-0.189157097583
0.0933333001655
0.790693391275
0.253987685948
-0.151484295987
-0.520899671922
0.126728984946
-0.119421077189
0.186116348718
0.424221837358
-0.360845734199
-0.253104514303
0.330509065754
0.409449651592
-0.698360170664
-0.110804628295
0.246388643506
-0.258990508938
-0.178593082191
0.121884740702
-0.700726700339
0.7656418291
-0.501656219017
-0.131393886181
0.546515009759
-0.0705534938329
-0.136400228823
0.306644580824
0.718296757198
-0.160293542376
-0.70549226457
-0.0642934737745
0.795655585849
-0.488742240578
0.503830437186
-0.436560691666
0.220911418209
0.478908218936
-0.307733364529
0.319810318989
-0.23753568704
0.288376360659
0.0677188331835
0.047765159675
0.944442223882
-0.460066338466
0.608053186731
0.485625251112
0.332807912818
0.238036390783
-0.153588482955
0.177361708343
-0.856115794529
0.627885683616
-0.702891178092
-0.599013514033
-0.544853311817
0.475262118905
0.282428241103
-0.0778645178835
0.339883245038
0.130906033978
0.350687243534
0.399541666282
0.764595771673
0.323358795183
0.222971669227
-0.337340539697
0.343357355007
0.0353557081365
-0.407915691917
0.0357392613849
0.042497109831
0.253956191886
0.514697108082
-0.154548332001
-0.312607461434
0.34253713146
0.116222676544
-0.224189567793
1.26814501349
0.309184752868
0.307671335998
-0.216882807805
-0.0789110470059
0.0279542097988
-0.476380421094
0.0410402408131
0.203129454862
-0.97283388973
-0.263367139286
0.335098781206
-0.442278832925
-0.280555205798
-0.0598818954595
0.693932254182
-0.190799457002
-0.507803218156
0.251791082414
0.290805185121
0.032744786419
-0.578564266476
0.614359038114
0.200031517008
-0.262930002807
-0.292952795079
0.272444572003
0.0814338251417
0.302527139411
-2.68538478133
-0.699089356765
0.346493673713
0.467685535569
-0.767841090792
-0.960021255399
0.745290458761
0.559765103784
-0.325468323163
0.706240177701
1.01974983926
-0.0370997601758
0.794406269416
0.775005355691
2.00374642448
0.728321844434
1.04056122252
0.598544831092
-0.856357664216
-0.584065181987
0.0475629381348
-0.709647925557
-1.02593465682
1.03493845482
-0.954094397218
-0.526242822482
0.643050802415
0.520206841969
0.852310707238
-0.812540730951
1.28876274364
-0.303203834462
0.196780802852
-0.82283626491
0.407428605715
1.03549659017
0.86317909199
-0.947285930438
0.488573309766
-0.320389549862
-1.19667656174
-1.10537998692
0.147242966284
-0.291701011953
1.19927812172
0.481467380411
-0.512828021026
-1.37791082417
-0.396655623651
-1.19281781648
-0.317474370898
-0.0924962270603
-0.122425841244
0.0421160894101
-0.560522540176
-1.12415595577
-0.0923533808529
0.162743405209
-0.935439223964
-0.635131460055
-0.263572559375
0.415921212977
-0.0342871660273
-0.588745816076
-0.753390148582
-1.0682739602
0.861597444689
0.593287960558
0.393681476736
-1.23189025855
0.737149710657
-0.436065681341
-0.0127404145197
-0.252967401461
1.04531637503
-0.178060580461
0.167469063337
0.326444686483
0.736359917275
-0.57214731285
-0.378820549804
0.83686946038
0.697032167502
0.813026101004
0.773397434601
-0.161401658495
0.676763488102
-0.489466154748
-0.863007003904
0.605669733024
-0.00840395286681
0.867345667385
-0.769699258717
1.04998031492
-0.383818769908
-0.315720539165
-0.274088645972
-0.677750868788
-0.0780577583082
0.0689875679499
0.542683134285
0.334665235614
-0.883868097686
-0.0700376150796
0.673935916823
-0.145511460827
-0.411100346641
-0.629673277362
-1.0293118853
-0.290803407712
0.0949492023365
0.805322117577
0.144310635014
-0.829073323061
-0.744799451446
-1.07291388083
-0.193341116303
0.144806932866
-0.779768509631
-0.10327232658
0.642001246721
-0.0775132604589
0.78803605089
-1.42991439187
0.0835455591677
-0.972148137238
-0.930932503184
-0.201730510674
-0.891677990019
1.0193527786
0.937554475203
-0.65558389185
-0.62640748412
-0.270062096785
0.268403200632
0.676445755369
0.0809677708216
0.276780363965
-0.504768181027
0.159339050555
-0.302816551345
-0.379226067167
0.068300534092
0.49445926335
-0.293041085261
0.135203839736
-0.684101160469
-0.521703172064
0.327345614617
-0.840035754258
-0.849468752465
-1.2618413371
0.432412491231
-0.934872414817
0.210081103377
0.181329333768
-0.42111707796
-0.940400822397
0.218100003383
-0.640859237628
0.169251917799
-0.637847118231
-0.541825019328
-0.0974481157567
0.303687834174
-0.90280466983
-0.284300023238
-0.97856351149
-0.590054751596
-1.35480602952
0.330889138466
0.0658012026475
-0.969651001993
0.774592828609
0.903135856959
-1.29784791993
-0.176961863317
-0.00176929479843
-1.04549054446
-0.731839611821
-0.451440229115
0.181015740106
-0.590639421236
-0.55628535108
0.333584141502
-0.593110447627
0.944021785599
-0.346699177357
-0.291812032653
-0.165313328158
-0.710362003139
-0.649447608538
-0.808044790509
0.644945029029
-1.13672066826
-0.625725544512
-0.962209835801
-0.542673810465
1.05396542276
0.193685598699
-0.981529697688
0.344088375309
-0.666596617088
0.220238870096
0.759202931799
-0.939198514788
0.0270407345214
0.796685266957
-1.07975422232
0.356833934344
0.123873748017
-0.352809597755
-0.215885105448
-0.253288462949
-0.957519563757
-0.0719680362826
-0.122641689448
0.6643729431
0.131045795802
0.419719825373
-0.835891722894
-0.832566443596
-1.32954096212
0.596586667588
-0.430582137743
-1.05795411225
-0.275836870914
0.376785873479
-0.996694401256
0.70048852442
0.704534910475
-0.517699382415
-0.481449009152
-0.484589322382
-0.54261851178
0.361137947505
0.325139529282
0.435753807972
0.620578977577
0.636997094131
-0.700286093835
-1.08899012587
-0.127420967934
-0.592250715757
-1.07439626711
0.720153857237
-0.061139069485
0.464710919828
-0.684181551193
-0.252618333319
0.590199860026
0.0423692586592
0.548680804193
-0.552447499336
-0.288545378027
-1.25935814096
-1.18236751589
0.467014305051
0.803596677427
0.625581566191
0.306821125949
0.861817997947
-1.08354904918
-0.981641235702
-1.06641470322
0.377378693806
0.581824193513
0.754374568797
0.722655641699
0.304624331438
-0.270209491637
0.313540967816
-1.03226668994
-0.364691099595
-0.43654996522
1.17317241899
-0.23763385919
0.0646074362253
-0.885406585175
0.345029953025
0.755677199544
0.599608870981
-1.28868948647
0.700060799957
-0.267158850285
0.658364623146
-0.257752209215
-0.312764705728
0.639340652605
0.21904940648
0.476326821041
-0.952354407486
0.221031570427
0.819869831583
-0.481162796914
-0.101296758023
0.497082972486
-0.54859258958
0.994011945604
-0.97624102441
0.319703289893
0.419964051396
-0.862829630527
-0.73740458974
0.709851215782
0.293398244362
-0.413991743808
1.09539816302
-0.892421821986
-0.385862103049
-0.159119976148
-1.17353582339
-0.489956877662
0.279262213435
-0.768090290212
-0.517619236593
-0.397510648818
-0.491009838344
0.340302712727
-0.716082682073
-0.148410674845
-0.0837363066506
-0.773467448179
0.0865670174191
-1.04660349847
-0.749188398004
0.107843210663
0.255712453292
-0.592625720487
-0.427595803454
-0.784125244175
0.039627511525
0.247805001203
0.000801587196535
-0.696966375733
-0.474050017192
-0.133370341568
-0.941776756541
1.08548843085
-0.611256615108
-1.33632156082
0.11664858023
-0.319728876587
-0.929901258747
-0.923963175179
-0.920137771248
-2.42751974694
-0.856685420169
-0.897926160882
0.544701716663
1.583218901
0.775185073384
0.369652971047
0.611733883102
-0.746535031253
-0.231795891238
0.989698065743
-0.327879533108
0.777558023691
0.609549089032
1.59956298822
-1.09060282229
1.24093485451
-0.233388683008
-0.512067958101
-0.529335689281
-0.948827847005
1.31249195567
1.00857708591
-0.514825502729
0.478119194342
0.412360999374
0.551597102435
0.442163965381
0.939480164404
-0.809962020119
-0.821846527422
1.45714774594
-0.425193623001
-0.375494018471
-0.553008756648
1.75853451848
-0.938705866376
-1.07907303062
-0.88782417864
0.293984128527
0.315548076792
0.78922702961
-0.289180829302
-0.108038442523
0.515625002468
1.10320966576
-0.917467801659
-0.494939497886
-0.996938820181
0.426719902382
0.985742144348
-0.672487330438
1.66458617794
1.10963829347
-0.680133259631
0.399005155177
0.0804651434291
0.737606298465
0.473195994131
0.294644286527
0.0760370211685
-0.170661086491
-1.05516791751
-0.133320739811
-0.845581835515
0.363710133874
0.226102706722
-0.812745202077
-1.24073676927
-1.0643676918
3.32834971949
-1.33153853347
-0.981936030311
-0.698267000231
-0.26784279647
-0.936604575844
-0.742616016639
-0.817719330472
-0.80680340266
-1.05166904407
-0.791707216605
-0.0123002507408
-0.522438548597
-1.24525079303
0.297272954524
0.412751229935
1.29225975439
0.496977143313
1.52500246737
0.119696084402
-0.0431750414673
0.015658549557
0.552763980257
0.462775230306
1.65065148512
1.24852126204
1.4674022049
-0.951045994735
1.08462762497
0.109197054559
0.701890260892
-0.298815628
1.00276790515
0.39129706039
-0.755827703063
-0.783211204898
0.312000088214
-0.555249032369
0.92701422104
-0.0201758537135
-0.828315457931
-0.410128041443
0.459589028362
1.07059172351
0.876446272575
0.337197277354
0.686674227369
0.444416063084
-0.0940781320997
-0.620051628836
-0.248672389354
0.536972726261
-0.137631302454
-0.50388017212
0.756920955188
-0.472324435075
0.740606172318
0.72614102582
0.40226853011
-0.187473247353
-0.879366514518
-0.70068087137
-1.12672326087
-0.34385970029
0.369078138059
-0.287313522304
0.251809328985
-0.576444736721
0.346472726208
-0.884166580385
0.0596107846612
-0.0271457913162
0.76060528725
0.180734063545
-0.0756451245462
0.830998077744
0.188070390368
0.68471692895
0.110481677039
0.431637430921
0.0460965542221
0.12468719492
0.113010245196
0.469414969849
1.23321470492
-1.06769465636
0.205396027392
-0.843037532271
0.169970993493
-0.654207965099
0.175736692992
-0.15621037201
-1.11325283292
-0.228723137016
0.103761969658
0.518631033048
0.656293820288
-0.545053943601
-0.169178219177
-0.353425178892
0.762089862116
-0.716176036188
0.848959287748
0.703540033057
0.548725857527
0.48473782708
0.212322011288
-0.320946156088
0.00416026319056
-0.848022234734
-0.322358634121
-0.273128808064
0.337591538838
-0.0977567274232
0.215100930709
-0.861238217522
-0.00363567268301
-0.612012693674
-0.474355503595
0.139473263897
-0.0681405917696
-0.796204506554
1.02495803556
0.0929569631757
0.422240156369
-0.589051931549
-0.611015000485
-0.274313115286
-0.291045155142
-0.378316980222
-0.489773499681
0.486958718466
-0.568963326285
0.289357412442
-0.319719789576
-1.06290807183
-1.39464671035
0.829367546594
-0.130375512518
-0.00916677512936
-1.40220487623
0.191863161721
-0.805729627093
-0.29840994453
0.466915413471
0.35916802738
0.832490688197
-0.399225411621
0.255239226083
0.850993265509
-0.341853595502
-0.515710609882
-0.319076555783
-0.818940485109
-0.58328743993
-0.504794317805
-0.653701331249
-0.346691460761
-0.73436093163
-1.02661457252
0.155373784703
0.545583284778
-0.897519887815
0.0399024482049
-0.653657782615
-0.0653591334686
0.597068786295
-0.158986353378
-0.351925327298
-1.12247197734
0.51114563637
-0.150471911974
0.402151713315
0.786937573197
-1.16059969665
-0.445145240208
-0.965469337581
-0.250480183554
-0.315237218569
0.0046445765915
0.643389098442
-0.822166052938
-0.841515076531
0.00304170709307
-0.379752412491
0.189679722138
-0.424506635596
0.0978659043891
-0.962770724069
-0.347840329421
-0.571426572846
-0.0565780004802
0.457774672497
-0.182125589368
-0.690349186936
-0.533657371187
-0.469061633269
0.298290907258
0.0724236487921
-0.437873960551
0.296499198695
-0.570189049974
-0.252320418027
0.0480287391252
-0.365196698909
-0.635442532074
0.685637478677
0.171477499924
-0.484981985069
-1.03645539393
-0.931907636929
1.33623362541
0.0862291499266
-0.115710559007
0.204552512817
-0.307018966293
-0.596371179983
0.522603298975
0.822271361053
-0.216622411889
0.752089709142
-1.0144021337
0.470541218675
-0.223928577614
-0.912675561871
0.253348046973
-0.876278848545
1.08356209251
0.878976729235
-0.64331078373
0.964232641076
-0.805648145021
0.00806429734079
-0.461426366097
0.711489395541
0.147886393971
0.0818837685643
-0.00240141799029
-0.499841794203
0.096133325859
-0.21132802962
0.197298463028
-0.286764029175
0.377543646646
-0.213252761384
-0.497616122644
0.490750677874
-0.599040889148
-0.422871589188
-0.304417285269
-0.510922496272
0.346902150178
1.16921882009
-0.935710158251
0.37242470467
0.382495590579
-0.50337001473
0.44857586503
0.240821615303
-0.454078993434
0.137395679409
-0.162514631004
0.322562492322
0.395370332619
-0.90547307518
0.0622213820465
0.692104294831
-0.789633717339
-0.810825663958
-0.997718996972
-0.340468319294
0.305111865461
-1.1962454632
-0.0789211583993
-0.0769005391207
-0.210339643308
-2.55441956702
0.477796932937
0.499613987306
-0.26291700087
-0.58103368435
-0.893129318349
1.31244492324
0.626730582306
0.353709830019
-0.129945076922
0.758665519581
-0.151446057698
-1.17374079559
0.670630528047
-0.844428777832
0.0446033470989
-0.838331006217
0.868951738808
-0.362205490875
0.55988650384
-0.703261530699
0.789201852777
0.185870999536
1.30888995441
0.97571328728
-0.418955889882
-0.113213737809
0.582531169529
0.481434305417
-1.21348061447
0.958627926089
-1.21037196439
-0.647313945434
1.53928340397
0.650457770022
-0.533909386143
-0.101362956516
-0.407960226445
-0.32737637287
0.408155416364
-0.50350431153
-0.820030256599
-1.18793196361
-0.511157510678
-0.580286745975
2.16418170457
-0.8887454719
-0.817430163925
1.04479288439
0.371616399226
-0.221467488354
0.481860102557
-0.699125980446
-0.700374034601
-0.671035702284
-0.579554442338
-0.470704951086
-0.338026983436
2.46559208059
0.8852547167
-0.246052552463
-0.226511234164
-0.660293175965
-0.767775919782
-0.437453287409
-0.0657409382432
-0.122723563169
1.23684024964
-1.02856256443
-0.84395875527
0.213656564965
-0.400551430146
-0.206757540843
0.380568225196
0.941195862001
-0.41098014699
-0.65086528677
-1.14198109217
-0.270832433565
-0.972134947621
1.17562010929
0.300971462482
-0.444184503275
0.233398628719
-0.596384965355
-0.653537915742
0.00188445584015
-0.0626284743861
-0.892325274432
0.363641203151
-1.00421943469
-0.413064314324
-0.64050830012
-0.295443758349
1.80454376513
0.443934054054
0.179930376454
-0.060023549679
-0.42368335703
0.516298632968
0.245494575588
-0.0675230292405
0.706560311142
0.651294077025
-0.389137397392
0.269882903954
-0.754144397024
1.23265244496
-0.521900774707
1.13331071304
-1.09456022572
-1.11147284223
0.311725529021
1.17539502463
0.640355001896
0.0103172207124
0.801644296518
1.0082625791
0.470358872281
-0.276822842504
0.525344904156
1.03402659588
-0.213684012073
0.520627861271
-0.155187488262
0.862368200337
0.152520826998
-0.631243153878
0.275278577768
0.313296659563
-0.0380091199668
-0.124125251343
-0.0921789850927
-0.660394665681
1.07609647018
0.461920261957
0.659045904036
-0.999828162751
0.0280260827502
-0.464903101389
-0.209142977112
-0.432920111942
-0.749595598772
0.09589678408
-0.24647383661
0.599256687772
0.845436064901
-0.305693423198
-0.650222512856
-0.686127264713
0.432549450757
0.029380049311
0.879775918842
-0.795243072514
0.457287466061
0.108759472337
0.355934993321
0.866052977574
-0.105344756949
-1.20800975178
0.282267902575
-0.0300577512558
-1.05841987903
-0.286087588039
-0.296854571233
-0.678824439317
-0.145621237162
0.70697596268
-1.14264566395
0.748295583451
0.174662605029
-0.364255341295
0.252891566117
0.35003033069
0.809302990731
0.878225732019
-1.0932779308
-0.0351004340955
-0.910699473312
0.0778486733964
-0.481235405266
-0.725541416144
-0.474337795631
0.826339017519
-0.876376085259
-1.11780462533
-0.237447913844
0.606269427701
-0.111448001586
0.125145154198
-0.246589433087
0.430537341357
-0.725307062327
0.0878039680977
-0.359341428598
-0.571519281309
-0.085416751298
-0.427821537103
-0.910257024917
-0.533136613626
0.694808615455
-0.234802442346
-0.224644034299
-0.769390214519
-0.0365782472652
-0.526187690479
0.0298803982553
-0.980085967054
-0.61322024577
0.198749006667
0.734806207041
0.369475084354
-0.401726527347
-0.00401934894954
0.845469046197
-0.528740049251
-0.58330979286
-0.509638417677
1.14915438748
-0.174693224697
0.00686089609088
-0.0597972647994
-0.666780117204
0.386573502115
0.676127602902
0.366669975679
-0.461007780764
-0.78144673435
0.35665800086
0.203663046805
-0.29640174828
-1.11119773096
-0.167355986201
-0.476295023537
1.28388447412
-1.00276640623
-0.987292419023
0.176681835548
-0.485881245308
0.783411354683
-0.102463212286
0.149650556076
-0.295286048776
0.360013672335
0.953627646818
0.764614755515
0.0723091971355
0.332939811957
0.421561031143
0.0511025666835
-1.00150681553
0.139533358967
-0.418689757069
-1.49528719591
-0.571207067257
-0.448438220747
-0.371590500711
-0.501030354312
0.380835121281
0.42004550231
0.400887865686
-0.334989659133
-0.144943064747
-0.727544403575
1.0007905229
-0.416267081262
0.230497250908
1.62057497429
-0.0791325750598
0.251001607434
0.41577018981
-0.0213931137042
-0.89357327174
-0.72093739119
-0.685420523606
0.200740042284
-0.738453613557
-0.561611650547
0.75337305381
-0.772371453553
-0.28920670294
-0.434403523715
0.129549986853
-0.104049672854
-0.259441053452
0.061641524861
0.164700612389
-0.147184083918
-1.36898710131
0.1043275429
0.177301790346
-0.938820320697
-0.235250508187
-0.338792004098
0.678715288238
-0.916850316232
0.0735054763985
-0.81577951659
0.258903285606
1.26224871576
-0.673861398805
0.76244326816
0.214432459866
0.176979585665
-0.654667489837
0.364623142236
-0.538968257859
0.187197487966
0.344020857524
0.122227617669
-0.799246674842
-0.247039976873
0.212691194008
-0.149090505442
0.559014612586
-0.254034980701
-0.0106123579596
0.170569623462
-1.11583530573
0.214119142209
-0.52824113995
0.338822095612
0.72423069382
0.559392396511
-0.571919999006
0.216830986514
0.0776230551794
0.847788084159
0.282009540112
0.153635490709
-1.18207136313
-0.441687558876
-0.192213716992
-0.181863662042
0.36689008594
-0.931428007421
0.30573828887
-1.12307757573
0.277161448607
0.808721917955
-0.959788018552
0.963940181708
0.0493341209197
0.373387588694
0.0404239294211
-0.298019847257
-2.19268135234
-1.21928795466
-1.01000074174
-0.758488596693
-0.473233389955
-1.14341033987
-0.018012330892
1.28325242715
1.0160382346
0.597686608523
-0.753109357347
0.784554464594
-0.527181495573
0.463577109477
0.0769846436898
-0.785782898132
0.621519199119
-0.355785405653
0.254218244567
-0.190970852987
0.656940842938
-0.244679384086
-0.667854050979
-1.09286929824
-0.934639289848
0.601367601267
0.130556386476
-1.53542375218
-0.529229521835
1.02663538082
0.0419164922653
-0.543384173649
0.909471120484
-0.925642507921
0.62032984064
0.907215674611
0.00782699280961
-1.07203614085
-0.512205751073
0.639835756538
-0.602732437064
2.03321921318
-0.527875908938
-0.900873641133
-0.947353220624
-0.17001049335
0.663242367802
0.116789482481
0.309036163791
0.961571580806
-0.45994001456
-0.390113216122
-0.282979706865
-0.356261814717
0.857089802744
-0.885801496228
0.523960792949
2.01319051313
0.0693142280035
-0.884670352443
-0.527269869922
0.0173280424944
-0.67552737665
0.773800335344
-0.396216176248
0.624261342874
0.171526961292
0.281220198078
1.5169252076
2.75168343554
0.487018363876
-0.145774135007
-0.597209113514
-0.23008576719
-1.05092027705
-0.20033725741
-0.317280888833
0.991189485404
-0.575507434658
0.476980311455
0.581102732994
-0.187775725671
1.55900872959
0.405356680383
-0.286949412546
-0.962542378848
1.98019749788
0.22877956478
0.685163680826
0.201594621155
-0.912141861223
1.01079401766
0.201065151998
-1.10415587905
-0.475931952918
-0.29563623346
-0.574459874028
0.481878871656
-0.404783386992
0.0273993112907
-0.815461492135
0.848373514554
0.0995956907915
-0.591566285096
0.855806902688
0.0751723055688
-1.25591855546
-0.166985887879
0.205046642237
-0.127979027988
-1.44086693274
0.0951471835164
0.458615886537
0.661044082878
-1.29190004316
-0.827916761442
0.30609437834
-0.405683201273
-0.829835253916
0.879468867469
-0.413213511594
0.917185572041
0.217725280181
-0.493517958751
1.07341834342
0.32154765273
-0.0220019787999
-0.153001493497
-0.697889114601
-0.478074323979
1.01485870118
-0.0856450495388
-0.0793212595746
0.637463537635
0.426264839902
-0.667290884034
-0.685075147445
-0.69516807015
-0.235313163028
0.562129030023
-0.654123229224
-0.0806871201325
0.949729853927
0.30018514715
-0.0075776822638
-0.928221018707
0.0899446758829
-0.515191625229
0.935810274221
0.218449247293
-0.761417516126
0.333412817411
0.138698487191
0.136125800163
0.131964983542
-0.110815221594
-0.633307456572
-0.946337600402
-1.03762566452
-0.0304726269266
0.798377142583
-0.237006991517
0.436417764892
-0.69888477181
-0.177965333652
-1.16695272161
-0.419204124402
-0.473439960178
-0.0767445451742
-0.560890574272
-0.866503209907
0.153022705933
0.29353211057
0.012975985501
0.271984606161
-0.0360279498216
0.119389896655
-0.280603798231
0.52382538338
-0.141184336741
0.666094476908
0.52510675009
0.372952995581
-1.00287950772
-0.299071072439
-0.109413291975
1.08437551219
0.248107770181
-0.429552013127
-0.697715869976
0.392928076506
-0.968158440409
-0.702785038062
0.388661177786
0.664385049482
-0.2897662782
0.311321764048
-0.0904698708114
0.325642721878
0.504279173131
-0.484645632417
0.233200901616
-0.119388457725
0.58761721856
-0.56985828079
-0.172551391947
-0.352183360243
-0.948678858778
0.0114388820921
-0.456189358333
0.755808196408
0.946136576066
0.0802254976165
-0.449695308297
-0.34303683002
-0.382333418477
-0.0204151084904
-0.745277658764
-0.917625791714
-0.0159863851684
-0.0848121394977
-0.998139638497
0.231780302508
0.79695340288
-0.324212719674
-0.690090933398
-0.175726271135
0.114900853729
-0.57407542887
-0.141487629573
-0.610044648882
0.117864337594
-0.306655472523
-0.705076872501
1.12923366571
-0.181833864357
0.0129875358585
0.39049123818
0.575612496832
0.228563944574
1.09100081914
0.359640638385
-0.904773545578
0.0181222032024
-0.985620547641
0.172985305056
0.632638164346
0.183648813599
0.785908637429
0.150528518817
-0.0187513024636
-0.286257255152
0.731102940188
0.421630086815
0.34426283705
-0.150443446948
0.453443554289
-0.00768880920454
-1.0063010694
-0.524869946486
0.0180308196024
-0.20503686094
0.657329748718
0.603953883495
-0.0157322951194
0.0250252813256
-0.573583187859
1.03782773733
0.155986890861
-1.04021980869
-0.291326166591
-0.731463172191
-0.742010576527
-0.140922201667
0.0331288871851
0.965661648946
0.322378729859
-0.0857503403935
-0.959415830968
-0.32190005467
-0.381122523044
-0.0249005944889
-1.06359039764
-0.874412540805
-0.224972183929
1.15481558959
-0.593076521118
-0.353123022962
-0.416564164049
-0.222159759143
0.393590300968
0.881516092672
-0.0834172271324
0.370327408806
-0.987144529053
-0.645487508165
-0.555885532305
0.332948059678
-0.818768937697
1.04158576207
0.447717778287
-0.690246445167
0.329979801286
-0.41002846101
-0.577410031228
0.274592503004
-1.16787068324
0.0547465908403
0.0382160544505
-0.896060968374
0.376087401551
-0.317472492726
-0.229907897955
0.290196715961
-0.871782830001
-0.828387635592
0.426197739326
-0.29146482428
-0.394615690946
-0.358070191262
-0.49324649342
-0.577209171202
0.0886195906422
-0.518137786708
-0.417053134814
-0.123684366984
0.605089940949
0.526659064253
0.321290032826
-0.378492030568
-0.167001546957
-0.632110848719
-0.243933748499
-1.15186252363
0.113454699887
0.68325098749
0.305694350805
-0.490884360285
0.875136429106
0.444397323935
-0.3166929329
-0.972729694333
-0.0298213205226
-0.367599358276
-0.102400083286
-0.436304309056
-2.98170543076
-0.486401261618
1.10061211509
0.915913099881
-1.0292839069
1.80268872876
0.736997086192
0.680753206849
0.0810495829788
0.933223441217
-0.535994195937
-1.03393708012
-0.234836858106
0.612681579159
0.184139922189
-1.00471482385
-0.428808293232
-1.10493677275
-0.326597112191
-0.853205504044
-0.885179626225
0.512015472181
0.676789361489
-0.603512205394
-1.29085080539
0.649390346769
-0.642170466088
0.12929184548
0.809313669477
-0.728012166008
-0.0735360183448
-0.138995382088
1.15010517674
-0.199047301807
-0.64248980021
-0.503499166869
-0.926674664861
-0.540967030644
0.0496648629989
0.779112995386
0.515412734095
0.331076998917
0.89968711658
0.793005039632
1.91529172075
0.455314599593
1.02700142503
-0.115821510921
-0.364756000578
0.744499753506
1.12584471177
-0.714556156485
-0.493559054651
-0.848201151734
-0.418408136257
-1.17583858973
0.267409261212
0.0627843200425
0.173887180495
-1.0378898224
1.35964994053
0.775002723291
0.746435789344
-0.911867833832
0.606646275453
0.867946629532
-1.10008956646
-0.639919167998
-1.06240818774
0.44762130713
-0.567188597267
0.185406513183
1.16813390848
-0.423928096454
0.48643461523
-0.911861047254
0.360534816423
-0.896038632229
0.494799146564
0.14086951946
-0.659317742725
0.310989844586
0.873926996253
0.378116780564
-0.23840325436
0.177969480418
0.678814581367
1.03257211895
0.551738444181
0.179084891502
-0.285369844833
1.24186214943
-0.0304814793799
2.85747918979
-0.224586148668
-0.337137035191
0.697882800972
0.973086907252
-1.10137852978
0.990463096604
-0.00145230358806
1.25457713396
-0.813011329252
-0.308376386032
-0.035875536615
-0.715007694243
0.213341130467
-0.684675049683
-1.23796122162
0.651533832606
-1.27746756719
-1.06146506624
0.872520571444
-0.2777505005
0.0895468274796
1.57197977735
-0.295588424468
0.59307981228
-0.738714556461
-0.102386306515
0.71556900337
-0.931816400939
-0.451465522858
-0.554715456918
-1.25953981185
-0.92361093192
0.559765678582
-0.217807051767
0.521310161094
0.216844239726
-1.15626479027
-1.03430193494
0.331439153007
0.355476704809
-0.566038500854
-0.594107949381
0.332768185786
0.836671150977
-0.541944716171
0.738670642196
-0.411088985212
-0.727302523324
-1.35835467073
-0.617158439664
0.258586221472
-0.132338552795
-1.05512295324
-0.231109898811
-0.435187676438
-0.0538788220864
0.331077717587
0.724534224496
-1.16820448771
0.368179431586
0.510792180753
0.843486902083
0.425129483277
-0.342328060963
0.116703166783
-1.08448941778
-0.175237200497
0.842468393384
-0.860894224561
0.148101332021
0.0477295909781
0.157811559123
-0.13236242001
0.46284052417
0.124806951753
-1.30329022484
-0.671666924381
-0.468548129639
-0.403621558683
-0.287138436797
0.410021267909
0.986713470376
-0.595975094575
0.0887060322921
-0.573112058207
-0.369187911173
-0.39008756435
-0.83710115169
0.590819832917
0.110425254391
-0.819235980717
-1.15440939626
-0.566860625211
-0.693090962913
0.384397596597
1.13190453755
-0.674943916757
-0.979869122772
-0.310506519624
0.500550463459
0.162703484931
-0.231366516551
-0.188831361977
0.205768935987
-0.604099046083
1.10036547527
-1.33116535323
0.448696226165
-1.18650455782
0.146242627148
0.970204492109
-0.209564884894
-0.0316685659158
1.20940624166
-0.389751866344
0.0343103264628
0.467750234878
0.906205466924
0.793632650051
-0.364891202226
-0.44203307173
-0.524273935904
0.169189042992
-0.132939982377
-0.488971611309
0.974669637108
0.883683454556
1.11905283566
0.240013614038
-0.434733648738
-0.2432387755
-0.595827805783
0.889394375985
0.197736172474
1.10225293071
-0.690221696467
-0.346814086252
-1.28395835265
-0.802262626667
0.335534132223
-0.361716216959
0.576644271501
-0.226621642702
-1.05814376554
0.573165621177
-0.356068154397
0.166205449663
0.00034667586577
-1.17365299827
-0.577266018305
0.543121453143
0.733343730267
-0.239551622924
-1.09147812269
0.949460310777
-1.45125178265
0.115729372238
-0.926853603014
-0.150369251601
-1.08016575522
-0.98900650784
-1.22586809199
0.0835236093872
-0.41254752003
-0.0893795297221
0.573757684293
-0.400861257011
-0.0393948402249
0.900781765901
0.391982778722
-0.994498533786
-0.77850009602
-0.0431732045022
-0.635138075745
0.318068128652
0.524480742454
0.414904290508
0.327072480124
-0.707693571137
0.193771462498
-1.33708591452
-0.684425824087
0.577883547286
0.452601312416
0.0806131831302
0.354764939127
-0.468706690286
0.429492974803
-0.666257088174
0.517211181381
-0.544957038575
0.0254635943557
-0.694509432585
-0.711446468161
-0.953018047243
0.261107641833
-0.308942024524
0.220427452006
-0.863572741656
0.32511521725
0.557132795266
0.412164925064
-0.978178145726
-0.0874093388719
-0.339469773922
0.528350541521
0.533014965135
-0.458118312586
0.988367347066
-1.15296788622
-0.640859412222
-0.320217911777
-0.181928998591
-1.01615532806
-0.529628736755
-0.871875888657
-0.237615968166
-0.875513794021
-0.658142939334
0.427451859395
0.603107202809
-0.884382369039
-0.578316761837
-0.782988202139
-0.0958048658732
0.487791152625
-0.185435248515
0.852069029772
0.654631213588
-0.6017263676
-0.387395979394
0.871884845185
0.321695074271
0.426579673933
-0.35303163341
0.63702034557
-0.988810307357
-0.761864176044
-0.570753833385
0.566163446269
0.278189153979
0.0110407204911
-0.619827460285
0.0778186318787
0.364622554565
0.804488663103
0.649667605616
0.00780119915284
-0.88843728979
-0.914633081105
-0.506447576293
0.181036881143
-2.78574695573
0.463801376053
0.902402534302
0.604745350223
-1.32427305832
-0.138229677552
-0.112031256538
-0.412732683214
0.155859555594
-1.06328537281
0.89644360586
0.596337093712
-0.411128998964
-1.2366044867
0.217991041895
-0.259214119346
0.374824790545
-1.0266861627
-0.441353675495
-0.677150221977
-0.884591135284
0.815354132289
0.757820405681
1.0028476756
0.0587256117933
-1.19763989966
-0.309457673601
-0.191455186089
0.719647052667
-0.194267950349
0.0236515344135
-0.146561694856
1.30856377659
0.630943621912
-0.600720236361
-0.889029098711
-0.0996333352261
0.0335553646276
-0.777964440504
0.121024176687
-0.444191541312
-0.499032083386
-0.103625649054
0.750590231702
0.0165831149663
-0.309487545509
1.01367506022
0.970962571059
-0.604422925053
-1.04502362643
0.279513206692
-1.0371682186
-0.202797571238
-0.944548941712
0.278959482404
-0.819568322371
1.21504023823
0.61224948007
1.62784225151
0.716286204518
-0.0911701585207
0.558043607413
0.956146763065
0.826456474185
-0.70499752238
0.156686644939
-0.73702007511
0.698740667291
0.242884798724
1.05084980052
0.353892919698
0.0714232174458
-0.386158548249
-0.5819272898
-0.950949966233
0.547258097997
-0.0412035138344
-0.670863410388
-0.550022479833
-0.482501456207
-0.590099960087
0.522751708514
0.198127273225
0.230202096424
0.182125017364
-0.258664191662
-0.623028553999
0.671753548502
0.586791171514
0.17415795538
-1.29905134211
-1.05910179101
0.971888147263
-0.0807323353883
0.534463314843
-0.820709163202
-0.201929277045
-0.621296994665
1.10812587793
0.894956227561
-0.124154633542
-0.541692489812
-0.690014235682
0.552300278617
0.6653071039
0.266681540269
0.41741273294
-0.835952062661
0.317064018682
-0.720361173147
0.560514586658
-0.15911282615
-0.514206840056
-0.130648432885
0.364707906541
-0.605674211947
-0.773557703893
0.462507850648
-0.761893154933
0.448718039446
0.0616317030782
-0.719628819003
0.0104593201607
-0.499590016826
0.613540457661
-0.548856430151
-0.616757798686
-0.99818009215
-0.304092988091
0.630761304195
0.229496190183
-0.812480814466
0.627187250893
-0.596670399388
0.105066985962
0.068703841439
-0.592867039669
0.00886515699682
0.871370454522
0.107242373411
-0.046489120249
-1.39639983187
-0.929715863316
0.807436324701
-0.540605379191
0.359107738703
-0.145255867944
-0.866292688912
-0.0551051551944
0.519663671234
0.282306472422
1.28852014138
-0.562109774941
-0.472711960405
0.662831589975
0.131724276063
-0.796608804773
-0.622864491891
-0.631835776185
0.688682824484
-1.00082678924
-0.0610482922741
-1.16957641761
-0.336998513422
-0.71955626154
-0.229783062458
-1.06477031267
1.00086278599
0.106798693304
0.734102977384
-0.0150211063331
-0.732985416715
-0.169856412487
0.758851096987
0.682802048246
0.114696175166
0.549587719558
-0.0723375948299
0.858743749703
0.335678390266
0.258186110126
-0.754442898541
-0.0613675661373
0.203000079609
-1.0221623246
0.271265465805
-0.772364966289
-0.552381627907
0.264870738951
-1.02673665539
-0.296056941796
0.528217678999
-1.05684515296
-0.463608493487
-0.774488883186
0.244284308137
-0.606347770121
-0.0526543369025
-0.0988324507468
1.27338041758
0.702105288881
-0.101560040865
-0.335582782622
0.102133669303
-0.725918186971
0.262679947085
-1.3503972308
1.19970775768
0.340924578451
-0.242669270383
-0.893828249665
-0.303453011194
0.0239436298012
-0.925991970846
1.10461939011
-0.0934769019234
-0.177599196334
0.421145645211
1.01819362368
0.96551912334
-0.624291940898
0.530998634864
-0.71938028593
-0.596473809401
-1.21315210796
0.773092041577
1.02507815814
-1.54221865444
-0.155650169787
-1.02867712636
-0.354941556662
-0.283337252069
0.300782230938
0.751863234181
0.616747802677
-1.17933538426
-0.778510937463
0.414016155556
0.434314540905
-1.01285926007
-0.317043071189
-0.605559869193
-1.13866458929
0.695743178765
-0.876994436478
1.17180637262
-0.223169503995
-0.745746687095
0.70644102195
-0.00613769847905
-0.123902952981
-0.236187186793
0.851439499274
-0.190103817427
0.420410645751
-1.15229003775
-0.879141552862
-1.10249240488
-1.06556605433
-0.676313428792
-0.0677005278539
-0.377672070876
0.812707407881
-0.461015018898
0.214156449157
-0.448074786436
-1.06205234689
-0.39572447286
-1.21857431568
-0.18887276345
-0.149912138904
-0.835674877353
-0.699741236087
-0.559387081719
-0.0935483906867
-0.987413451176
-0.284755471127
-0.507881676993
-0.115936542212
0.375458419034
0.419070003773
0.0646202460674
-0.522007370534
-0.119418389486
-0.968779229504
-0.171911305885
-1.09084842845
-0.522432104885
-0.111930396254
-0.0682191133365
-0.0854614789734
-0.292429665187
0.288806401997
-0.356447446482
-0.508034337546
-0.877986921411
0.37636743002
-1.0374332185
-0.907988787117
-0.929417984468
-0.752592015378
0.0832488228287
0.564911112967
0.363858731011
-0.350251160321
0.466464925836
0.499893923365
-1.39413232422
0.332838060354
-0.271079733671
1.04825720038
-0.225717683666
-0.520252889139
0.622822825708
0.502878744822
0.107716521711
-0.878372014471
-0.104392863063
0.563613565676
0.511338704266
-0.988246582966
0.685883059129
0.264251488937
0.0127520800437
-0.0496535239747
0.0084199403005
-1.03337763953
0.211225119976
-0.209240250164
1.04695360387
-0.197127958616
-0.459648017238
-0.579358273103
-1.11934719524
-1.10004669156
-0.159747119208
-0.839321827147
-0.652309942111
0.500755533314
-0.0188934955625
-1.03650345752
-0.0900844760189
-1.16130712785
-0.0945745346729
0.0758461519315
0.0799836355304
-4.06406964742
0.486865908692
1.08985341301
0.567934876971
-1.14208964143
0.697222866656
-0.754468477529
0.20680567328
0.938513397616
0.315534776061
1.27961262467
0.289014003574
1.08579080782
-0.807747337494
-0.440675693719
0.235821366869
0.860988000722
-0.719253708997
-0.96811094688
0.00465246021097
-0.33114405789
-0.746276655789
0.537228570212
0.280027436965
0.148068833025
-0.716373070766
-1.07803030002
0.0746837036286
-0.755665925972
1.14881799949
-1.00039166907
0.12326510576
-0.42360081135
0.134052835077
-0.718088614079
-0.941177801518
-0.0370489144677
0.610315937969
-0.830719363538
-0.807145156754
0.381477101646
-0.960293299934
-0.851718762022
0.50260917079
0.825153947315
1.30246060971
0.9297063156
-1.19842939154
0.614304215995
0.28453550596
-0.549063888576
-0.703201953608
-0.583850468402
1.33606758952
0.610624245501
-0.900917754736
-0.421003480643
0.100556841895
0.356085942297
0.284304311115
0.0304936277695
-0.566903326678
1.08889228757
-0.960811276808
-0.727120107143
-0.761929608562
-1.02238087549
0.111787051234
-0.865086759483
1.068380989
0.0375608851368
0.0172694455607
-0.0192460297214
1.2839277285
-1.05829092383
0.420334888123
-0.225088019543
-0.44106335361
0.930337947199
-0.00455022327936
0.806298217889
0.896316475692
-0.565870464412
-0.765050520832
0.227041152931
0.903042969126
-0.641678531649
-1.02263621013
-0.114688242904
0.979933885802
0.936285235643
0.762576968187
1.12849211385
0.828356198161
0.337817573753
-0.430441061231
0.216758797477
1.05429296038
0.302320493989
-0.0511919513064
0.800216394885
0.663307383661
-0.294846748601
-0.564264532932
-0.575449218067
-0.169254715332
0.671687467031
-0.44644735231
0.375921115152
1.17251206972
-0.920080537857
-1.22934177855
0.133998793203
-0.778002601347
-0.390797668842
0.96094533722
-0.297071756017
0.31362441561
-0.207972238239
-0.771610491466
0.658675402733
0.0307849100384
0.559474737383
-0.709286041277
-0.593354231236
0.279776771641
-0.0213935374905
-0.417743961516
1.09436754788
-0.418835617681
-0.0939731840319
-0.243184635143
-0.0660538396764
-0.111537391764
-0.746501554365
-0.411075299752
-0.508271419528
0.603118376682
1.07571388188
0.225866647138
-0.683859098279
0.113216298453
0.229939519148
-1.29941916232
-0.0259525678581
-0.969798365326
-1.05910093208
-0.802978037324
-0.318501944611
-0.433334145395
-0.742222296621
0.398073055655
0.0988545696877
-0.970415045644
1.21615514862
0.586420272324
0.460279045139
-0.258161476153
-0.822681182893
-0.98107557372
-0.798265771404
-0.217529642143
-0.822643831736
-0.724206922961
0.164777808847
-0.345245584596
-0.869669902456
-0.147351127132
-1.34120181855
-0.148354220728
-0.195211289816
-0.412466632757
-0.992991691066
-0.162955447723
1.01854390225
0.544809698052
-0.666598767804
-0.678254797949
0.309249738443
1.00069955597
-0.0521525361535
-1.08845833785
-0.392522917828
0.355281897428
-0.311394569702
0.399014017573
-0.465622115047
-0.479561724323
-0.236274761289
-0.560046199048
0.878024444905
0.182790474551
0.3130897695
0.514214574015
-1.27458173585
0.847427062563
0.247218516495
0.358470115637
-0.451270166608
-0.102422921656
0.553714563771
-1.14155868842
-1.18824349623
-1.0776278505
0.0203617983365
-0.399595438985
0.0234513149938
-0.477327096429
-0.174224927558
-0.0140228698218
-0.0421615797026
-1.00464402523
-1.12827767941
-1.1499184723
0.533133630108
0.281018053353
-0.0197550598669
-0.216701419352
1.33709722721
-0.70310004419
-0.280799958566
0.154355210141
-0.421338236952
1.00581240366
0.834901141585
0.796193849386
0.637083675119
0.551642524499
0.307856058363
-0.917397185297
0.515357730646
1.1922729502
-0.652063468584
-1.11318170791
-1.10339652895
-0.387319152695
0.953523537444
0.140156199966
0.465021641215
0.305146361029
-0.670312159796
0.0268731029802
-0.746660296049
-0.868948750625
-1.17141535571
0.408668269748
-0.559466545416
0.832576542577
-0.328365073367
0.115167265111
1.24449893271
-0.91595244731
-0.0538486751964
-0.341604895192
-0.419813950366
0.210923127998
0.63473206389
-1.26784669997
0.772428811179
0.278352625077
0.801219948604
0.947512105024
-0.409559280398
0.228466839435
0.210275782995
0.336817747619
-0.411855738972
0.364711619745
-0.831980908165
-0.254890627278
-1.13186239293
-0.110565864344
-0.363762318863
-0.0989289994983
0.734945708882
0.963907614383
-1.17848164675
-1.30787346601
-0.492884580331
0.124585488493
0.215467948843
-1.10878285051
-1.20976186135
0.478294864322
-0.0877610006027
-1.15414049827
-0.0526450899617
0.241240092183
-1.08906989853
-0.730209138611
0.119424381277
0.801299238617
0.0123803944394
-0.987401779305
-0.849497333587
0.374242827407
-0.333488386053
1.42712367665
-0.905522569797
-0.104141360395
0.0993336664931
-0.750850222202
0.196180744459
0.124389587738
0.877784776759
0.226245557999
-0.138380236494
-1.07141514007
-0.165238214108
0.0628200815295
0.00884040601163
-0.179847219626
0.461818854764
-0.373970263156
-0.732888517797
-0.572137899743
-0.142280502758
-1.06000000649
0.735702973692
-0.00604610129296
0.181363021039
-0.142687806529
-0.803044364337
0.536780936092
-0.511264916412
-0.517818098995
0.450077721074
-0.176503953193
-1.03903116649
-1.20739805065
0.347088522943
0.216973895783
-0.0292028882351
0.654413081453
-1.01058716243
0.741604926903
-0.882014821342
0.163010628528
-1.03358275187
1.23291562089
-1.18185779379
-0.199493854065
-0.00977002856675
-0.482816967956
-0.318460414685
-0.500625992626
-2.78287290654
0.40782680126
-0.0630792644355
-0.784356284095
0.473364899828
0.417876121499
0.0579773413427
0.351841892525
0.266242405641
-0.85806257765
-0.960080040834
0.343314710254
-0.28008563117
-0.0807888003376
-0.827186645062
1.07320413746
0.657999748675
-0.191673264342
0.271525267285
1.162296303
0.67223866659
-0.31125357124
-1.23097053639
1.23314677154
-0.374894434203
-0.691072741924
0.989294029566
0.44102837689
1.12370901603
0.691113655634
-0.22031485106
-0.106565090742
0.173881798752
-0.0620056907129
-0.662783746495
0.426954151185
-0.804087244798
-0.0916404565102
-0.879974990156
0.385446576332
-0.137742577646
0.497130755651
0.980915344224
0.982841774929
0.866236519777
-0.466653478668
-1.17786078078
-1.44263400821
-0.808136772498
-0.933240356896
-0.80282533893
-0.122841693942
-0.0659404925522
0.919820127371
-1.0108957532
0.402524522266
1.16669783309
-0.111279384278
-0.296059103816
-0.974742588956
0.536648866566
-1.01074380753
-0.314913939242
-0.928319471229
0.320525173814
-1.13588642791
0.632010667756
0.645632721173
0.368592132361
0.586638705943
-0.024428893008
-0.704765790159
0.0334227188456
0.407147765605
0.470330209564
-0.464369837823
-0.753648272703
1.03944828743
0.334497180722
-0.857516426585
-0.706943875486
-0.0608632379193
0.878822260511
1.07605791765
0.575600185959
-0.968010479798
0.63794985656
1.29878755355
-1.02635957542
-0.658957535331
0.157183410241
1.57339890501
-0.32040142711
-0.990867828953
0.719335512341
1.39482801015
-0.112874157928
-0.793202792769
6.06762218143e-05
1.22281030357
1.00050928186
-0.549583241761
0.0461719499715
0.973354613805
0.725920601998
0.210049946764
-0.35154667978
-0.904030688137
-0.550670611239
-0.795452282001
0.773950001485
1.1685895256
1.11819214059
0.88588298899
0.790283647683
0.536848786455
-1.08194064026
-0.271244986296
-0.283138212517
0.175321627099
0.902889446828
-0.287844143885
0.0567274127701
0.211273294904
1.07643762496
-0.195971064436
-0.806612205525
0.591591305553
-0.583777006424
0.177197185647
-0.426758307823
0.476276530219
-0.036382211581
-0.0374622503434
0.785290545117
0.564395195988
0.54193126162
0.0278643465473
0.569677398977
-0.424467475155
-0.187111364587
-0.490442326536
-0.364550926922
-1.10415200378
-0.146418606045
-0.499594734158
0.585985986992
0.157824216713
-0.244828681675
-0.110404544955
-0.136846196879
0.738656675335
-0.564414444732
-0.255438312105
-0.019546714325
-0.420950085629
-1.05580794909
0.612516108385
-0.501134434633
0.18130603767
-0.505976186296
0.302089901637
-0.190600387436
-0.883271582882
0.3360533603
-1.15673988738
-0.657109432113
0.511638539246
-0.846704786114
-0.995292986113
0.94049444268
-0.869679118132
1.44060611545
-0.493003171171
0.862168388909
-0.56367256111
-0.607435997744
0.433110495215
-0.720305500684
-0.701742000766
-1.02980641456
0.30103934157
0.439929937222
-1.09547259917
0.415534040042
-0.145020718066
-0.910640247253
-0.150754152194
-1.53671403391
-1.03219232857
0.00856007380939
0.134816951349
-1.01146617195
0.607090146271
-0.222561815216
0.822663231562
-0.948910867868
-0.282610352718
-0.405984472284
-0.252734871125
-0.724877706154
-0.778330109337
-0.556253872453
-1.14976258714
0.184596159722
0.709421885878
-0.371277670812
0.557741409162
1.03763156963
-0.846177225631
0.583805792712
0.710013435044
0.396952438516
1.08666558916
0.721387726035
-0.852769789965
0.113946206704
-0.180092403302
0.296503573158
-0.229314925425
0.689610193987
0.313476450026
-0.56391391039
0.410361313015
-0.83854980294
-0.906419325153
-0.30421082327
-0.671479401594
-1.0898888303
0.962798499964
-1.03935780373
0.0828804712902
-0.279816833237
0.107860079169
-0.585874099129
-1.08860015942
-1.0818475114
0.158821673609
0.085012043451
-0.793681462442
-0.679373529004
-0.686595442846
0.17667096234
-1.11639258222
0.442660110945
0.744916020462
-0.43328475565
-0.811066040672
0.949042628926
0.0955535827997
-0.23584272131
-0.0620060372033
-0.0202024355335
-0.899278542436
0.517714349194
-0.25939385573
0.02819060465
-0.579481596708
0.0304790124258
0.233617565491
0.834642818855
-1.0698120429
0.503832969925
0.823563024835
-0.314570645492
0.49888850971
-0.557761320006
0.344557491018
-0.566096425335
0.589019951989
-0.025560632916
-0.674644856836
-0.635185975311
-0.624921611802
0.56733544796
-0.764740377306
-0.753157339282
-0.153245244057
-0.275165600602
0.504699543981
-0.562112226264
-1.22788771459
-0.652628415736
0.0950142930655
-0.26143357967
0.0511537933607
-0.149872544511
-0.738245375098
-1.03227491248
-0.146916670302
-1.24740975461
0.413144063361
0.694412866987
-0.538555626405
-0.303586377642
-0.0389019099636
1.18585965651
0.718611695523
-0.662496421137
-0.751458731575
-0.372742163392
0.729422102514
-0.391295025454
-0.862853892068
-0.901021201625
-0.993139108288
-0.767449252068
-0.547923076069
-0.0409846924116
0.141897421387
0.192572715466
-0.750307036101
-0.464063206427
-0.921324920998
-0.973201363327
0.190045318692
-0.764933824659
0.0930968065739
0.247491517915
1.36146149609
0.955239578591
-0.909268323087
0.718728162535
0.366766758631
-0.750948249208
0.32796656396
-0.923864079093
-0.676611637905
-0.909366728692
0.997163165446
0.843472982888
-0.849650221713
1.18191439399
1.01614204341
-0.0561635970176
0.413046358118
0.209057028854
-1.05841123412
0.812594892453
-0.453184616049
-0.964296819162
0.498853604378
-0.161049863724
-0.734279707139
-1.03810589205
1.07286604049
-1.13813844627
0.784729647293
0.627284555163
-0.845237616552
0.123287149211
-0.9081746601
-0.716899756187
0.779045504549
-0.444215464613
2.65778394777
-0.335991647786
-0.709966717754
0.637740537987
1.55908343097
-1.20638369973
0.124876127893
-1.38625438859
-0.182154223214
-0.604968738852
0.819166773675
0.598279663198
-0.326099583773
-0.865107121945
0.0900277748423
0.542480522904
-1.13036334037
-0.854672942326
0.43756629303
-0.350618007071
1.03909996041
-0.188944575131
0.526116774716
-0.680670018915
-0.753466092157
-1.49295913942
0.46902961548
-1.0314618359
1.03938146227
-1.02788404591
-0.575536756819
-1.06289389985
0.242733224889
-0.979769374187
-0.815588323281
-0.337099047184
1.88378213347
0.38314985349
-1.47665284073
0.380412807378
0.216630299493
-0.925797961239
0.504331751309
0.0769637770764
-0.119687552268
-1.19168174482
0.565777751053
-0.095964866321
-0.355989229689
-0.306062943739
0.363158899189
-1.11987884726
0.779365062851
-0.0535894320477
0.241794452772
-0.503422126868
-0.117905628626
1.01079815367
-0.908428260413
-1.19274821451
0.0272843922051
-0.697508364527
-0.543546439755
0.822411562969
0.334048010662
1.196050347
-0.497998466985
0.958000228069
0.0334969794134
0.0665344206927
1.8480349642
-1.16271673156
-0.91574515252
-0.57337100599
-1.07008093231
-0.0968525933366
0.7307740033
0.185302229134
-1.00196201345
-0.558254843086
-1.18490695653
-0.231127782493
-1.05547036352
1.22666881786
-1.02674395776
-1.11794615227
1.83751480721
5.21892653662
0.206941452157
0.127519034277
0.270950409986
-0.845174474446
0.374817708799
1.83195678195
-0.489328505252
-1.5431368718
0.300687928999
0.801351713639
1.00229488303
1.04348344716
0.869552815603
-1.34626247931
-1.28658892144
-0.663275813198
0.100932782576
-0.579834967677
-0.588219094473
0.832727380713
0.6210146304
-0.56988177317
-0.443403876005
-0.257811570567
0.0746589256815
-0.102776238003
-0.559128727644
0.0208710517363
0.385435797541
-0.277186236699
-0.0709667741999
-1.16437910741
0.318154594963
-0.455231476641
0.089512643757
0.844985379798
0.58007546621
-0.293047473658
-0.318638297706
0.32716321742
-0.205423169928
0.0905586886225
0.147206456214
-0.560154228994
0.209224974367
-0.704411874838
-0.268388929851
0.154702062625
-0.582660725045
-0.635386086228
-0.633136059533
-0.455506568966
-0.195857326277
-0.96407297407
0.656736306914
-0.318068881722
0.0645222335678
-0.160042844347
-0.127659127938
-0.518000585113
0.388749366824
0.112277211506
-0.397907427136
0.819488184328
-0.569844700711
-0.904558450797
-0.208934842222
0.167620441022
0.368215673697
0.069568519439
0.165954924659
-0.699542278113
-0.0840535025367
0.117692955435
-0.409923314372
0.00883021430535
-0.416138723024
-0.268161314342
0.556404881389
-0.245296895932
0.184801417668
-0.304176919531
0.321891952121
-0.0445488301632
-1.12838764304
0.253494986617
-0.43436683114
-0.23934673104
-0.747718244893
0.0720426870664
-0.289784235539
0.189899945664
0.54976830286
0.215182816207
0.251608631475
-0.305696689079
0.614917608132
-0.0364616339058
-0.102374816779
-0.418011020848
-0.482721627256
-0.385382805897
-0.904082964616
-0.66842514716
-0.298166091405
0.892886829095
0.0780800503322
0.229153990579
0.597850278417
-0.0449300825695
0.526558960512
-0.563340453248
-0.635761993718
-0.253934083262
-0.787119242309
0.391192186098
-0.350497567559
0.554345411306
0.848633103397
-0.0665927722978
0.368857606742
-0.402552497562
-0.415216584776
-0.201690793932
0.0246294681476
-0.415214345833
-0.429755566928
0.789477248917
-0.865587464231
-0.405130224836
0.272685501425
-0.138516564775
-0.925411758425
-0.619763314233
-0.930163026935
-0.602912374045
0.109945091384
-0.695447244009
0.199573605312
-0.724401510813
0.0691854883486
-0.0591317199626
-0.538190720841
0.538244328765
-0.467598032239
0.504917274353
-0.566047033358
0.568426951783
0.733841625724
0.397929703262
0.0477361529835
0.288445518494
-0.276174350679
-0.363998646152
0.524117759809
-0.899545308848
0.389767748162
-0.319679831269
-0.0238868922016
0.204345476387
-0.245557645499
0.979080486367
0.168591914911
-0.692341006469
-0.397760324828
-0.50226519903
0.569426786686
-0.824970616712
-0.0720474078826
-0.545211732074
0.440602948947
-0.225922920306
0.383196681325
0.00857783391768
-0.0731775131084
0.344978879459
-0.474455284581
0.4026480355
0.329802983484
0.404548749414
0.0422572184837
-0.255958266687
-0.66246465793
0.558684335205
-0.0364784802334
1.19385682313
-0.0681380607322
-0.379177431651
1.0288950492
0.18382233937
-0.231216684814
-0.262483710894
0.301094438051
0.314335592521
-0.189191682397
0.181059353932
-0.383317842923
-0.0538512400287
0.112688995672
0.109757395061
-0.503050006663
-0.0575695725825
-0.139417402456
0.793729083196
-0.643013957231
-0.0465278762304
-0.441502625987
-0.253826238099
-0.201850521237
-0.212238810335
-0.52374522787
0.0572941233047
0.220084158199
-0.340146526749
-0.0966436175269
0.252254920691
-0.444271367376
0.315620301684
-0.0433964924984
0.184966178583
0.501414267496
0.628044287167
0.158823731239
-1.2991340001
-0.18495599205
0.0777846671393
0.705705555577
0.604714991027
-0.324351713351
-0.553541865088
-0.337733083888
0.473646599595
-0.0514542663748
-0.568323162467
-0.294762582013
0.0370820503842
0.431737300397
0.164606527392
0.171004518445
0.24378031782
0.11819676386
-0.116860128271
0.0492072996341
-0.753473221256
-0.00396754604561
-0.755527657444
-0.355733728648
-0.391871119182
-0.311132292094
-2.19211509785
1.05433592025
0.493017636685
0.411649800283
-0.79996054393
1.74616154935
1.67519342395
0.898588813498
0.492543089769
0.749629863675
1.86956261955
0.983447502516
-0.77102545222
-0.786426445611
-0.823520342292
0.552614573907
0.406595591391
-0.354241666295
-0.755794564431
2.27613754824
-0.403231678868
-0.570650409572
-0.54873547819
1.24801247253
-1.21222536383
-0.878444831474
2.48764892651
0.894197200001
-0.721276268246
0.304950098886
-0.289195498421
0.102853435015
-1.1299521702
-0.551415153103
0.562143383991
-0.199962819794
1.71453858354
-1.1147735209
1.8845110606
0.013160639784
-1.12966192016
1.83662898534
-0.656413419898
0.48348075831
1.52858683394
-0.827588730895
-0.380641564369
-0.234388432112
-0.20065322443
-0.903376753395
-0.095537990141
0.711703549404
-0.351393002383
0.235871443127
2.3804519093
-0.493777311194
0.374227121147
-0.93859195647
2.53445433065
1.38927158592
0.461422928496
0.7286562628
0.531837245631
0.78483701405
0.931252985541
2.76790239328
-1.00369245617
0.63859471518
-0.256724960958
-0.199449514892
-0.350243427946
-0.489712389157
-1.46276749052
-0.644786873237
-0.113870439883
-0.459137195666
0.0518192327161
-0.223004409992
-0.193613135697
0.209630732057
-0.431701708822
-0.056025156024
1.39823371274
0.414697670351
0.13019029955
-0.862945019403
-0.520756632161
0.316323580809
0.772604027664
0.525799882063
-0.65531324668
-1.00708679589
0.235656510624
-0.762371396235
1.53140780211
0.32302701809
-0.679550490772
-0.700163623889
0.753924085211
-0.983405947603
0.105403610408
0.38875513523
-0.607615521942
0.546102925412
-0.811606505704
-0.890532012513
-0.871916095331
-0.6184055972
0.684454326217
-0.320031677676
-0.731844854171
0.657255507698
0.930626765761
0.381650021032
0.128339353772
-0.264892168054
-0.104584468127
0.765257233643
0.212654684059
0.609211603084
-0.427456209528
-0.145391658107
-0.126902567485
0.182869758499
-0.905028062687
-0.541606145289
-0.347475497435
-0.336444346982
-0.345470025317
-0.871489235684
0.334095284543
0.0108485892416
0.167602814348
0.0935268898522
0.107585372026
-0.691281481443
-0.446690853738
-0.231204859288
0.534269691319
0.0634360645501
0.645762990747
-0.300032141424
-0.226020444339
-0.421532192635
0.183978777458
0.221075832746
0.306961242968
-0.386966558302
-0.248707412966
-0.482552550635
-0.778869615051
-0.35683965221
-0.200095922851
0.266244908471
0.853405089038
0.592920452547
-0.366344496408
-0.112924250539
0.82216703852
0.0319384071502
-0.103956146958
0.320623623523
-0.780828425571
0.193312653602
-0.153016313598
-0.25355518774
-0.592141389183
-0.702875069043
-0.108738859172
0.145599370396
-0.664443278086
0.741978374198
-0.130024310682
-0.605076678813
-0.0638403249479
-0.398676196689
-0.530319908209
0.154306551782
-0.233276841551
0.0423750366544
-0.139076958058
-0.0850014699792
-0.767888094105
-0.299640492275
-0.515130220406
0.03049934546
0.295325531324
0.521007341269
0.461346561792
-0.123689400041
1.34359220564
-0.250746083219
0.0205121622469
0.514664204933
0.0428835890712
0.147168134966
0.254021308575
-0.0886755948602
-0.302834832677
-0.267742436157
-0.846195765676
0.60502875433
0.323771027738
-0.0725148559755
-1.20327495216
0.442744055335
-0.452786188093
-0.823604786857
-0.480035396586
-0.31170872617
0.0641485461031
0.372558353327
0.651831120861
0.0856338322216
-0.355467184438
0.305701910975
0.251451583852
-0.138465699725
-0.51061323644
0.0935075116696
0.519664563057
0.432591298613
0.688854318778
0.619606800779
0.611107548515
0.35906265208
-0.0303733688166
0.202017392206
0.334246877421
-0.267584994402
0.636533783273
0.204474886416
-0.945510615907
-0.0720597621913
0.219801019615
-0.108459082473
-0.465992844959
-0.116449740034
0.10283181785
0.797344583917
1.14779925159
-0.563777745004
-0.48374277822
0.117290945918
0.0618208979848
-0.109110655244
1.10644652833
-0.602699996576
1.01089480376
-0.607729048516
-0.849074183241
0.526063079593
0.00428733159667
0.409765065942
-0.732495989296
0.551148731957
0.954394220758
0.204892840591
0.183551758545
-0.435576345419
0.461209515482
0.54150921624
-0.425512761197
-0.328570912476
-0.538572431231
-0.624689102535
0.423004436191
0.325039157655
0.135826393996
-0.276962853008
-0.34904979134
-0.724918078793
0.0355996381373
-0.486582559481
0.265409135182
0.525743365205
-0.329971178803
-0.0205972737144
-0.117741491838
-0.134352158884
-0.773832443378
0.0508018080095
0.168849947153
-0.841481160893
-0.353803804009
0.364762286671
0.165935464752
-0.280186220912
-0.760210242021
-0.234534015159
0.0843405778012
-0.114842106215
0.11460855285
0.333180589919
-0.140208176113
0.0162695282728
0.14117408395
0.870678900067
0.47675009709
-0.531579957509
0.327103317475
-0.712181986579
-0.557311849683
-0.186769234878
-0.146885639862
0.259629068816
-0.00589963672847
0.23379205859
0.63684395115
-0.293381242757
-0.195557799598
-0.0997535857009
-0.21475148392
-0.66633532351
0.0284331886169
0.508104661168
0.3143211993
-0.261019489881
-1.19200859858
0.133780134566
0.450293797803
0.75353915274
0.195599462792
-0.0153236349255
0.378375379405
-0.604255139043
-0.163829730321
-0.300056481477
0.189322859279
0.0786545635854
0.46383532222
0.0327119473308
-0.228313314293
-0.097423092713
0.83946933493
-0.51950622427
-0.480277802346
0.261782433739
-0.212768110813
-0.243159547819
0.85838621755
-0.636400576117
0.312445942125
0.111480263671
0.122646475061
-0.288725389383
-0.727895601334
0.626631297532
0.736066980408
-0.48881563739
-0.630045950904
2.24846273078
-0.215939303254
-1.37372390592
-0.678560167983
-1.39164608561
1.35606719878
-0.13232878294
1.1882605735
-0.675179687949
3.24683785154
0.3130904841
-0.0123314743475
-0.403230420393
1.58281638844
0.202821393387
-1.25847314299
-0.641016873018
-0.546772472464
-0.618353442529
-1.92566173254
-0.532428479811
0.741134647863
1.81702215079
0.000387507825534
-0.962446257798
0.392637299977
-0.883163468467
-0.204307711452
0.373882152977
-0.870827839432
3.03678879508
-0.307257475829
-0.757226199894
0.425207556685
-1.73273383945
-0.6381954651
1.39728942424
0.0967662267153
-1.02654990999
1.0477191228
-1.44570868287
-0.173948238227
0.76787158873
0.518680585362
-1.23070826508
-0.169485975061
0.769372701887
-1.58710548426
1.49740860627
-0.820401683597
-1.22709145235
0.15918212636
3.22746029164
-0.842053687036
0.340089865555
1.51123343465
-1.15049335835
0.739556666156
-0.689416664169
-0.445867381155
1.2267068346
-0.288477454216
-0.64921771853
-0.136935710222
1.87333931105
1.69296082685
0.230969087363
-1.20310322799
0.438142820288
0.00233984369718
-1.25743146857
-0.152598673648
1.44313873735
-0.295327289932
-0.605379431914
0.00866306763677
-0.669702025346
-0.285789922453
-1.33526608764
-1.34495313963
0.234998298654
3.60965504492
-0.130930178353
-0.116150544824
0.765489807679
-0.736226994754
1.9877558953
0.657806979214
0.187211855739
-0.859160559855
-1.11064212613
-0.151882928186
0.17537337776
-0.0789980271106
-0.470478589589
0.516690158531
0.0770351249035
-0.121864590728
0.412754915058
2.63088425665
1.30153778805
-0.186534266904
1.68891397259
-0.213708757666
-0.8446053855
0.229064881283
0.279612475171
-0.946713839465
-1.41887664875
0.495685644258
0.621477683411
0.322958070598
0.249377162286
0.341064866604
-0.2623844295
0.576812270289
0.132837925137
0.343040046625
-0.0944831472913
-0.500996783048
0.595709766413
0.232688660457
-0.100614294842
-0.95434656984
-0.482030579353
-0.564980063386
-0.484595014144
0.266791954875
0.157035695104
-0.0463163881711
0.0128245476096
0.423029966211
-0.214484440133
0.215150655275
-0.565846025831
0.583586503824
0.0950113187979
-0.316834967334
-1.12221914129
0.064108907762
0.419798767987
-0.300557251889
-0.840063114437
0.483222155639
-1.14859600836
-0.627771586674
-0.623091069338
-0.721394688187
0.532172088654
0.364189088653
0.320293411086
-0.809776547589
-0.597077051452
0.49341693318
-0.522582798926
0.168546457617
0.278527337434
-0.755908993857
0.552461138915
0.401646550056
0.774662781303
-0.783039897927
-0.852024464141
0.329294814172
-0.117820775331
0.0874348480482
0.678577944239
-0.432960006254
-0.0320589164049
0.498605580688
0.430949245767
0.755290062475
0.510937532399
0.251353664765
0.254772335856
0.0924732158809
0.653279499881
0.0866451846407
-0.150567574147
-1.26056327572
-0.953074531431
-0.210840342168
-0.0845914391654
0.486358205394
0.185050377829
-0.254126179991
-0.395860949511
0.196201922908
0.0762583991094
-0.383431713525
-0.098823775443
0.219177122399
0.337904003888
-0.38994248085
0.583084644894
-0.0669857741282
-0.303461800746
0.306715010844
0.0168534529292
0.824366529255
-0.561670438645
0.440408983155
0.997288210972
-0.304678702912
-0.5329863822
-0.226146297184
0.412245304389
-0.260930422499
-0.819417831073
0.66636132763
-0.701192165287
0.030621224946
0.0761043712948
0.997108905226
-0.521520244121
-0.507706659001
0.864811071846
0.200710739787
0.440320070865
1.14997774024
-0.0251838107154
0.582276009731
0.347978056457
0.25165319304
-0.714441408837
-0.0150010947217
0.62289102702
-0.618736343405
0.0171818536798
-0.0200633682779
0.000947258233852
-0.407261086546
-0.263453666902
-0.0735591916026
-0.176885932492
0.050487009856
-0.378478661205
-0.370504104147
-0.360236563596
0.290220698216
0.148005138292
-0.135635550068
0.114868030165
-0.556156460741
0.0416288802577
0.305526528295
-0.539040196702
0.449856913596
-0.822506827333
-0.702148239185
0.368969802305
-0.337075316011
-0.551408424668
0.258085180402
-0.339783308845
-0.0475389394388
-0.0202986451097
-0.351669788458
-0.0336140941315
-0.156329247786
-0.507778978996
-0.386469241592
0.199387070729
0.296221682637
0.600213552325
0.148297785998
0.0566214347993
-0.469670607137
-0.0602846972515
-0.405586699547
-0.135558114144
0.370067945001
-0.156377425971
0.28650063537
0.593860010205
0.160693344147
0.151404328563
-0.537108753068
0.510810797003
0.0261514908504
-0.0780615228511
0.103509729365
-0.515922811819
0.0240761819604
-0.171179039116
-0.358392984993
-0.245294307338
0.398814948699
0.406394682195
-0.438412826855
-0.092718919791
-0.639973510565
0.230337503233
0.24365268463
0.251184937125
-0.017015223402
-0.0555260981174
-0.244785897459
-0.326995343752
-0.0968607373748
0.0771371722496
-0.265411697791
-0.105439060729
-0.0990907911714
-0.337617101028
-0.204007666674
0.421057557953
-0.434420275287
-0.516324581118
0.186579274062
-0.385520672301
-0.755745939533
-0.330241835522
-0.274587170393
-0.398387301646
-0.201021734696
0.556070914689
-0.832777420293
-0.962519513075
0.448160465667
0.0582773858633
0.236312218571
0.367268839818
0.10246950747
-0.201918164306
0.353701786879
0.172185230391
0.145878158611
0.0417451753198
-0.874149688467
-0.388689941576
-0.368462776912
0.103073553555
0.41537200847
-0.245798139654
-0.233988775651
0.0660620182211
-0.303919688927
-0.30544958528
-0.662972322885
-0.208400673381
-2.74767496304
0.258188681249
-1.24187462818
-0.95879795931
3.19762720631
1.39229556941
0.881690329378
0.473706151871
0.0866919790759
-0.129362528605
0.183129834643
0.108457760321
-0.886902090321
-0.916533323201
2.09496749729
-0.751350925853
-1.14234635365
0.677143531399
0.356958449155
-1.24776367523
-0.140268438615
0.13262853826
-0.904541975602
-0.665548729357
-0.699404873015
-0.268853137137
-1.41350966945
-1.1468929685
-0.360747883906
0.267516543626
-0.528074653127
-0.86151841553
0.322986915067
0.245068816188
0.677668986663
-1.17431123815
0.364278385293
-0.748982806332
2.46549005902
0.108298626568
0.672911231085
1.38134224045
-0.584141045899
-0.836863294822
-1.19718021164
0.567019127927
-0.690018197958
0.370727848071
-0.497641298287
-0.216837165457
-0.702988489637
1.84094906181
0.525658215649
0.21365929369
-0.617909860932
-1.21627884616
0.689376692365
-0.692376072484
-0.0986232707976
0.142050779423
1.03521585635
-0.53705741657
0.187318678404
0.373881353878
0.349723775231
-0.789249390212
0.739479835436
-0.737502565094
-1.19183497547
1.53414497316
-1.17622200522
-1.16702816195
-0.957235412739
-0.0800995433613
-0.926680948877
0.452512400739
1.36353223236
0.522489438019
-0.434926018771
-0.479045112044
-0.752363896222
0.159172530663
-0.218372957964
0.575781831456
0.226524232209
-1.24875968685
-0.0744071785504
0.404936112451
0.872666827909
-1.39412166042
0.765118825491
-0.224490648804
0.548067170001
1.39649075695
-0.213679321761
1.0415009598
-1.04584293475
0.278712795141
0.297204289162
-0.153279419388
0.687156491239
-1.00200585495
0.122637610109
0.685659408104
0.0497799074563
-0.512841954453
-0.973022486036
-0.266866007509
0.714611929747
0.806852781983
-0.0950757255919
0.863124958185
-1.02383884253
-0.29110957394
-0.258079150871
1.03484914187
0.184007067477
0.467738642315
0.663239163102
-0.193810147287
0.239198793084
-0.932978218097
0.153048161829
0.730374078036
-1.00413129304
-0.333230946653
-0.0849296852595
0.142992683477
-0.530898798896
0.651262328364
-0.323578965834
-0.605189659102
-0.971017750016
1.3147746585
0.240037408689
-0.478033634491
-0.247334660353
-0.106924252902
0.304974024398
0.102057885521
0.340577369992
0.215051825823
-0.138491392294
-0.214326316956
0.178496697759
-1.14287285263
0.847634207933
0.429137188712
-0.721786186928
0.353513470974
-0.418144927254
-0.383806874199
-1.13269047077
-0.289414038412
0.928168674919
-0.793412903325
-0.264177437645
0.362179351621
-0.595710426947
-0.782303182723
0.603820377199
-0.320146879288
-0.436633399176
0.353896145391
-0.283910040347
-0.49864344081
-1.14281716494
-0.0140047933292
-1.01391542866
-1.07819278755
0.958383924293
-0.585004730676
0.433529220279
0.218378838818
-0.569238256419
0.157278095307
-0.253192168436
0.132436308677
1.09024315485
-0.136309506917
-0.531628292975
0.203191602338
-1.26233576802
-0.0267075789859
-1.02224418609
0.152101258514
-0.388412381326
0.624529463393
-0.096192012024
-0.718817417899
-0.199688095632
-0.0114722888911
-0.749926429907
-0.092197287006
-0.257719281092
0.623171085193
-0.89704029832
-0.339081390042
-0.161906670465
0.643759251445
-0.19720263472
-0.595565138345
-1.17121178806
-1.21355087898
-0.266379157685
-0.218703269097
-0.817157814187
-0.866547152784
0.325255663798
-1.43831114413
0.499541367161
-0.16431166036
-0.416835548301
0.409179432004
-0.954532900665
0.269609439195
-0.50241144696
0.084858483877
-0.372212936392
0.212763523232
-0.622101470379
-0.72032940052
-0.87418690319
0.775924265821
-0.109006104827
-1.04607151427
-0.891841840438
0.7772988834
-0.280708207897
-0.596482543606
0.759083699143
-0.687701062885
0.659087640073
-0.330413369816
-0.780590053509
0.840174535534
0.204430735789
0.485721967575
-0.0210071755461
-0.177202046263
-1.59211487974
-0.341280255161
-0.119343972954
0.6782919431
-0.404225306546
-0.10761886502
-0.154154447713
-0.985373587504
-0.0465357018451
0.563327500175
0.460894898167
-0.626743401337
0.362716539712
0.0713143489284
0.761079917836
0.554371492075
-0.835345813157
-0.925566631662
0.180400182836
-0.109494843217
0.328089482754
0.777011418361
-0.0532977054064
-0.306523272975
-0.0476330208779
0.31849410878
0.0417626338766
-0.561337193402
-0.0164533679232
-0.73372289175
-0.792127929879
-0.540473874377
0.207963572458
0.691137799064
-0.194222974143
0.134541823313
1.41928340143
0.798507041649
0.689943634746
0.202118900499
0.689189912452
0.628348063835
0.336879167898
0.64129963334
0.203970499671
-0.95410948888
0.815873532637
1.15726719354
-0.569174671056
0.19366257646
0.370330822257
-0.169590067573
0.253469167911
-0.0100685192134
0.298106615546
-0.153311524994
-0.961767285483
-0.0374394203846
-1.15315034482
-0.347297803791
-0.466568205322
0.900165888985
-0.423353212781
-0.293034680213
-0.840415987336
-0.0577788967273
-0.497197784081
-1.51390827423
0.281905753537
0.0797930909562
0.315510065321
0.288306338441
-0.457529064362
0.588033851565
0.55728783423
-0.642646803076
-0.474887788811
-0.755028162819
0.757756732956
0.344355140407
0.778532255657
-0.791107585337
-0.800872559085
0.158746008433
0.161774598857
-0.636044284906
0.742132182434
0.0414091005023
0.174642226581
-0.83289850917
0.460646835274
0.136692570206
0.150164102045
-0.600562735109
-0.470949112671
0.0269434809872
-0.287436312007
0.134620262248
0.285433136196
-0.932530161987
0.0998917517977
0.183017870119
-0.414531933126
-0.0262645641784
-0.0357629505774
0.150006471455
-3.47005779806
-1.2056393766
-0.570677629444
-0.845355735175
-1.52867068021
0.425361477999
0.365632744763
0.655911028208
-0.258094686279
0.426794973513
-0.54745336339
-0.321175618417
0.0765508267915
-0.194312161625
1.14508759931
-0.518374324412
-1.0719952593
-0.982594477111
-0.704153339702
-0.445844354283
0.401111474216
0.113389846728
-0.181975647307
-0.351897648071
-0.776443534071
-0.977218837895
-0.0335116494437
-0.550532644944
-0.700772666412
-0.311700081604
0.0109645139769
0.443145127539
0.815027469011
0.894169331525
0.891270431405
-1.21374010521
0.810265185557
-0.722178749828
-0.710507750679
-0.938300030695
-0.722676259074
-0.227552116559
0.0708380142768
-0.0966995265543
0.134188739661
-0.944968870424
1.08828998297
-0.75280550875
-0.33593030115
0.706702578358
-1.0524341757
0.465885421941
0.140992383874
0.58866041334
0.96485259699
-0.151238128278
-0.167305161678
-0.846457371239
0.505318830421
-0.322921961237
0.965614550099
-0.701762840743
0.0505251308418
0.0406391974873
-1.03578377019
-0.346735335878
0.153683727123
0.906575669624
-0.170370537776
-0.0694519814634
0.983039190871
-1.19185419394
0.253220951988
-0.959151512307
0.139247023745
-1.24134053503
1.24766417767
-1.26114978007
-0.376615256099
-0.174384232769
-0.352289729809
-0.765973645283
-0.504701365577
-0.883484658952
0.108650435788
0.581278154832
-1.10973979111
-0.211307002017
-1.10035850511
-0.539965967014
-1.18674035531
1.26818711605
-0.0688393146046
-0.84489890555
-0.376945299439
-0.6242966139
-0.0192830868598
-0.4693615371
0.545201084102
1.30354016154
1.35349306935
0.76424980691
-1.02823826624
-0.615662876501
1.33496328053
-0.656166652228
-0.748632442965
-0.277770801175
0.928242230411
0.563109156955
1.52248124577
-0.943686348301
-0.985886417188
-0.550616527033
-0.0860483516081
0.551701050752
-0.685187735336
-0.953355001827
-0.382478025099
-0.527081606253
0.132117528075
0.753360136407
1.19001324324
-0.111795884642
-1.22716490994
0.235584295392
0.0850536304678
-0.101185408356
-0.481779314948
-0.408634396433
-1.00330160761
-0.275712130046
-0.776505318385
-0.82005320537
-0.223749027782
0.849159044845
0.474165160355
0.164233789802
-0.222943128959
0.733046045614
0.947085410503
-0.785259486766
0.43808762353
-0.540821602205
0.026121146491
-0.25137928471
-0.244093878332
0.458105010083
0.24089203156
-0.160690272286
-0.81053663758
0.326707057523
0.0678063527256
-1.10615624086
0.777834168659
0.2670993684
-0.779628174677
0.867350641127
0.627986182096
-0.965851641357
-0.00589204978139
0.0225244464501
0.490663121427
0.802996079227
-0.249860304014
0.922936779972
-0.992177015241
-0.0478556525308
-0.44334889957
-0.922670804048
1.23366727312
0.586729939366
-0.273130398671
-0.841517113374
-0.728687561642
0.421406536227
0.589521324115
0.212121785844
-0.799838655452
0.131329997355
-0.400454250056
1.10709989721
-0.651485920152
0.372520246051
-1.24490923774
0.906816840813
-0.527403574869
0.777761573946
-1.32213907015
0.31405727463
0.439330636824
0.431610854033
0.598287926094
0.355881372591
0.200928086165
-0.00910619244311
-0.598629153864
0.316374405007
-0.160325405811
-0.114018459803
0.177368294648
-0.930927131057
-1.2702056441
-1.20432298507
0.376089556299
0.292809968018
-1.20230013695
-0.259934992411
0.405126897388
0.049971550999
-0.894923277782
0.854037142241
-0.826409109914
0.376939773588
-0.621780042823
-0.931583731856
0.616145732987
-0.182081109092
0.447359928331
-0.0165383435856
-1.0525313974
0.847719058834
-1.13930164861
0.65897097618
-1.00398823226
-0.0658824421156
-0.542060394574
-0.0661476301749
-0.675693538191
0.621304254234
-0.230204303602
0.980465580696
-0.358395081394
-0.883675248925
0.451112611762
0.691002532082
0.82198109314
-1.45055709242
1.03924314779
-0.981713736775
0.749751493485
-0.367043755647
-0.123445986591
-0.0708369452334
0.474466097328
0.143104785895
-0.885824498541
0.0269689955683
0.585041168036
-0.887554627837
0.0110835091589
0.618109251144
-0.615321903423
-0.171630466556
0.223463185286
-0.955845116331
-1.1783988249
-0.637816258725
-0.157012495136
-1.06941290689
-0.207840000927
0.492513816515
0.347256197834
-0.369618290954
0.445483843507
-0.000357542944003
-0.991243774569
-0.851371951128
0.0905462549297
0.58206761926
0.338216208893
0.288587550158
-0.994226536176
0.056015675714
-1.00644042348
0.917092320939
-0.535109707615
0.685569447833
-0.273414704297
0.377379685893
0.910086401261
0.563626162871
-0.673232413744
-0.888942879572
-0.314691163989
0.354570339193
-0.659616349139
-1.22409217902
-0.11519874378
-1.04032462682
0.173880474194
-0.903075948602
-0.605024366222
0.613555740098
-0.801677749209
-0.246283048098
1.08674045885
0.148270106074
-0.499629472613
0.548392492568
-1.23761901541
-1.06901977219
-1.16929163445
-1.1609675321
-0.792799251116
-0.337607655184
0.0352228572366
0.520181995032
-1.12974256591
-0.324540786934
-0.228273400333
-0.101321659351
-1.0918865736
0.769803095084
1.03518234506
-0.575848133524
0.454187547323
-0.626357756183
-1.09537020468
0.158049684597
-0.713276272405
0.365991247805
0.138755171197
-0.743108078128
0.288074908647
0.106470227837
0.978385245176
-1.13588113609
0.851257909509
-0.683154922237
0.00753820510606
-0.244056546029
-1.04553777981
-0.767870030151
0.138378117367
0.714468612021
-0.548175124014
0.361012100208
-0.826224837703
-0.352527996115
0.399835233625
0.448789601701
-0.285146539478
-0.26573601647
0.606123698296
0.293590121807
-3.07431506798
1.55541973588
-0.462802359019
0.66009336834
-0.124862996245
-0.163965747269
-0.758976613465
0.139526580134
0.921945715344
-0.1500255126
0.223877834406
-0.924988923386
1.02982573304
1.35028660537
-0.527800327382
-0.166402918977
-0.669515397634
-0.0636490301762
0.791596776254
-0.498535122071
0.125065407627
-0.316566429293
1.30596276904
-0.82475760411
-0.695425779286
0.0959382907381
-0.140268178803
1.25277916048
-0.356026707969
0.223938019805
-0.344336106624
0.585323325002
1.45878619572
-0.599677276223
0.495054202719
-0.062881468387
0.550688790117
0.787104493487
-0.926967907788
-0.565946118319
0.853157046045
-1.13490086668
0.180251685041
0.169324801353
-0.147693283113
1.49878923539
1.1065814324
0.244377883742
0.709645248851
0.512986733741
0.057671697557
-0.967124679641
1.13537396291
-0.846460572593
-0.256922989181
-0.35151839987
0.444916807593
0.317160943201
0.954533793732
0.197081351558
-0.872978838015
0.871016540733
0.099330657725
-1.09376531689
0.387443881861
-0.624286594051
0.891079872522
-0.710004723061
0.504606517337
-0.165322175757
-1.26248616912
-1.14842097143
-0.123798203207
-0.703912049649
0.994878914279
0.731382064285
-0.197611053187
-0.0331756512047
-1.24431207105
-0.457973249049
0.512006633729
-0.0114796546766
0.606752040206
0.363611147279
0.810910484417
-0.786824142696
1.84750416263
-0.0119181052078
0.723826454476
-0.503255183376
-0.0865790792735
-0.222278906605
-0.126098375095
0.0408609823494
-1.15342914255
-0.0292084107753
0.737821245203
0.0909139572324
-0.224035761531
-0.260270438488
-0.717047381124
-0.933784515261
0.388044748642
-0.316045821189
-0.900407349214
-0.82300833963
-0.689890704047
1.64120259617
1.19209971406
-0.775329376817
0.428786171633
0.949102021209
-1.17370591693
0.0717844330446
0.891250159864
-0.884538600534
-0.104813197224
-1.20948595501
0.870471464608
1.37801442202
0.858438693815
1.03417421536
0.396941558663
-0.503619919177
-0.289795154322
-0.217913571174
-0.00900072806294
-1.30412117478
-1.12435281645
0.208315963795
-0.616773059582
-0.224131975355
0.489187254833
-0.318641816505
0.793126710561
1.02270202445
0.512420689742
0.665693580271
-0.770515879712
-0.329241639651
0.311271235711
-0.370936454874
0.915985472984
0.046365289266
0.468160851157
-0.315619922413
-0.143843505216
-0.950985477208
-0.708804139911
-0.402629827087
0.304733253024
-1.18428000241
0.244129987613
-0.0205155593474
1.08230995561
0.214238060443
-0.576366982956
0.213640858626
0.482433965306
-0.792487633824
-0.210893040051
-1.04681944664
-0.0398813553844
-0.123342938732
-1.01087330304
-1.15331521189
0.19266779686
-0.0168446840152
0.524221766428
-0.0532101088193
-0.845679597195
-0.953976984432
0.240119407169
0.545838116447
0.29757589073
0.570832838229
-0.924682069778
-0.0461406368348
-0.319110070106
0.388925603652
0.247604939185
1.066147911
0.574725007251
-0.177578544198
-0.866580042293
-0.141955838933
-1.1116671672
-0.15147122768
-0.662097901701
-1.06912994961
0.325285325021
-0.660839123207
1.10236878711
-0.229711078616
-0.940478591727
-0.668572789488
-1.19594971039
-0.704882409784
-1.05464026707
0.765347060564
0.892093620408
-0.602735067951
-1.09595212697
-0.612483557322
-0.287187143422
-1.20692135477
-1.27731710112
0.463537926048
-0.236569678102
-0.360055032084
0.0656347819796
-1.24319360092
-0.451849454692
-0.853726006245
0.10170652888
1.17817655509
-0.447881540997
-0.472586433781
1.11070036394
-0.0552849120393
0.0255642044506
-0.575443131773
-1.02189322028
-0.556294042561
-0.738805404747
0.555787641777
-1.01752451929
0.370750167769
-0.0633380090676
0.526856485001
-1.24403063153
0.652293597241
0.488045443607
-1.06081684968
-1.02523449022
0.358361524436
0.866881028986
0.56370129132
-0.0762936918589
0.661716247514
0.0511890336613
0.934911675308
0.597158485964
0.239930717307
0.372083505498
-0.352466098752
0.239353756511
0.108338183903
0.544837272188
-0.0497974814076
0.20898747782
-0.785087906645
-0.924331435617
0.515895501477
0.61951599151
-0.0777394348048
-0.869721485305
0.497721197743
-0.727516172854
-0.597210265353
0.0327202249406
-0.582362913382
0.328635549858
1.00066627544
-0.245569575681
0.58834804466
-0.403652752787
-1.07075001584
0.101633359192
-0.0840306360148
-0.0692900026772
0.576667974168
-0.692510713379
-1.0497049468
0.137772339751
-0.482869928379
-0.0528576989142
-0.364543999096
0.0400306013657
0.139659472265
0.860293498297
0.816770378377
0.110683524797
-1.08564797821
-0.740402377157
-1.13158601455
0.415922244661
-0.102591282459
-0.340875483283
-0.411261559059
-0.802201926497
-0.595462887043
-0.0169360312457
-0.0295485323254
-0.368195424378
0.381100493792
-0.509802844321
0.1350452225
-0.0457101261542
-0.124054934856
-0.191098207075
-0.320087011948
0.541952934392
0.828745568481
0.624430164333
0.0460699116877
-0.615224673409
-1.21580321429
0.435851385558
0.0532920898086
-1.11775525851
0.649505392672
-0.832052804887
-0.768082618052
0.0929520219046
0.255960760253
0.150811072571
0.817058572395
-0.178360154412
-0.467624200467
-0.966131203909
-0.439766998377
-1.13118349635
-0.763421309337
0.11962470452
-0.838383388363
-0.924065772523
-0.0189419066913
-0.322548289851
-1.04210871488
-0.241665467629
-1.08624457874
0.497364398837
-0.110751284759
0.651379110561
-0.554901509151
0.00543342152336
-0.311561087465
0.480537266739
0.0383054236295
0.242036348192
-0.393799860559
0.248670802313
-1.17477046353
0.540564979531
0.169858690937
-1.76915870039
-0.100295951144
-0.447823594891
1.20828952774
-1.04845794011
0.329192145222
0.227936108855
0.438180486543
1.69011218538
-0.681183219184
-0.205904931116
0.031140067749
-1.06368860055
-1.03602814551
0.743290287016
0.410740665845
-1.15095001629
-0.153377104947
0.858088379644
1.40930133152
0.567648539478
1.29113945909
-0.714325673426
0.967478927765
-1.30489994755
1.07042050808
-0.694393991261
-0.0445800689064
0.0535157062015
1.20975306318
-0.466912070013
-0.200273978139
0.272306690445
0.193578874429
-0.122876507965
-0.583509625303
-1.28335063345
-1.45612349908
-0.067517462497
2.07898734237
0.892275062628
-0.60608582271
-0.81338475004
-0.0927390197025
-0.430863913906
1.34199242597
-0.285516501929
-1.43289656162
0.46755764669
-1.02093340109
0.205743958431
0.367004816588
0.250810362841
0.129316008259
-0.80117596568
0.677355456789
-0.538808028657
-0.780792371493
-1.16500345093
-0.036071421039
2.2404937508
-0.180183282505
0.190526628958
-0.286730590507
-0.757047783765
0.0553939924993
0.618585637907
1.00665836548
-1.86800920286
0.170073450417
-1.43779237911
0.5877840966
0.806669844631
-0.59726893512
1.09785963468
3.94846163168
-0.550195307087
-1.10998181608
1.68379031546
0.489858935816
-0.625246860192
-0.128650969213
1.56982411935
-1.15480958002
0.753058856718
-1.22285251578
-0.994831535849
-0.0675284156806
0.198603435243
-1.14337291187
3.64545672354
-0.905865029103
-0.206549946485
0.721313233252
-0.413153441687
1.02661070616
0.253195695446
2.82343762838
-0.776477239735
0.276463876549
-1.18359866679
-0.239383580981
-1.31855607549
0.598915852744
-0.522052514524
0.0316517219513
0.10136995058
-0.950686922492
-0.449496337334
0.215409924274
-1.07704330527
-0.491048688532
1.73161355231
1.53205586166
-0.0288013314919
1.58847351077
-0.352547820816
-0.519888579747
-0.402464717208
-0.466397952048
-0.317910468997
-0.265644472544
0.0690001963996
0.184589031333
0.2734001835
-0.509940332107
-0.112243285536
0.979828866542
-0.638811193202
0.279902298232
0.652122680751
-0.128598814121
0.594475267148
0.201250893983
-0.0113825465729
0.295991176594
-0.401023994664
-0.571162658743
-0.608310843257
-0.451490475878
0.465631480095
0.265135165391
0.0227207295626
-1.01181969173
-0.407293484199
0.147959746908
-0.722817220748
-0.446299697166
-0.0248167725812
-0.0169640969138
-0.5127817811
0.121265578851
0.655451122665
-1.31938716251
0.0665404808899
0.187244171399
0.110387850982
-1.15022844251
0.305030172954
-0.638791147974
1.09196036555
-0.284497404049
-0.356598019122
-0.482422431959
0.233364253834
-0.137452468863
0.543839434331
-0.307739924839
-0.219084117646
-0.263835547589
-0.633274717822
-0.257208802524
-0.195171645657
-0.239384521429
-0.133713948609
-0.173077918007
-0.0928443343521
-0.0764292413892
-0.29494788545
-0.0414397479119
0.362443140743
-0.660826823313
-0.581491520962
0.307415403944
0.330091003929
-0.211839907782
-0.0360320741061
0.392610105334
-0.177632070295
-0.278190866391
0.400567649861
-0.673899957049
0.727722229558
0.634194183535
-0.0107916879568
0.394669778125
-0.513596465854
0.190468926541
0.0198045700256
-0.113591138527
-0.133187601236
-0.546216591495
-0.356840142745
-0.116989314048
-0.423232911412
-0.363363416664
-0.289141103603
0.270025979548
-0.873782663898
0.709969710783
0.660442950056
0.499983496955
-0.840828086531
0.0751194469455
0.151538800247
-0.0554989924274
-0.145946526204
-0.731148896287
-0.0560619073962
0.91194901644
0.566542077129
0.42296941018
0.185461177511
0.0897541836289
0.313774843906
0.104609733859
0.595226459823
0.101403682112
0.291761926051
0.0336285818411
-0.175987384577
0.789909245798
0.349345842188
-0.0542140782719
-0.211802779902
-0.683118055608
-1.11447399524
0.218662501438
0.0841045793714
-0.410426508518
-0.115829203613
-0.228221876758
0.55623022809
0.0910441542
-1.25301319243
0.60760872049
0.0892356340397
0.920564407694
-0.634628467337
0.156178499729
-0.714065843523
0.051102094617
0.420268785105
-0.627102238577
-0.330584166089
